{"entities":[{"fitness":0.3840632140636444,"currentPopulationID":0,"currentEntityID":0,"parentPopulationID":-1,"parentEntityID":-1,"layers":[9,5,1],"flattendedWeights":[-0.8889639377593994,0.6991050243377686,0.013638138771057129,0.1830843687057495,0.9806056022644043,0.28056570887565615,0.7590203285217285,0.4361898601055145,-0.356181263923645,-0.8608808517456055,-0.4716261625289917,0.7421612739562988,-0.26891982555389407,-0.7712275981903076,-0.18191826343536378,-0.7633085250854492,-0.520573616027832,0.23631322383880616,-0.6680490970611572,0.7969160079956055,-0.0124434232711792,0.3763405978679657,-0.8408958911895752,-0.10866010189056397,-0.3953508138656616,-0.008559584617614746,-0.7778379917144775,0.9296600818634033,-0.42318999767303469,0.1347748041152954,0.7988016605377197,0.08636724948883057,-0.7150852680206299,0.3197958171367645,-0.9470000267028809,-0.44883716106414797,-0.7302675247192383,-0.9360642433166504,-0.11677563190460205,0.6371369361877441,0.7882072925567627,-0.8054723739624023,-0.030928730964660646,-0.5581197738647461,0.4017634093761444,0.03874361515045166,0.8266963958740234,-0.5916450023651123,-0.3202756643295288,-0.1833714246749878]},{"fitness":0.4018269181251526,"currentPopulationID":0,"currentEntityID":1,"parentPopulationID":-1,"parentEntityID":-1,"layers":[9,5,1],"flattendedWeights":[-0.6054911613464356,-0.12674295902252198,0.6420390605926514,0.06788814067840576,0.2894873321056366,0.45767661929130556,-0.36212456226348879,0.5888345241546631,-0.7583985328674316,0.32361432909965517,-0.2444542646408081,0.332623690366745,0.17474210262298585,-0.9820725917816162,-0.1647242307662964,-0.30354201793670657,0.00478208065032959,0.031464219093322757,-0.9968376159667969,-0.3402591943740845,-0.021637797355651857,0.9192309379577637,-0.22663724422454835,0.12023723125457764,-0.9370782375335693,0.8354644775390625,-0.6810498237609863,0.39285799860954287,0.5677106380462647,0.9362971782684326,-0.3796297311782837,-0.24430477619171143,0.7677931785583496,-0.23421227931976319,-0.851081371307373,-0.11128270626068115,-0.09354007244110108,-0.34391963481903078,0.29309841990470889,0.046408772468566897,-0.1439894437789917,-0.817561149597168,-0.488134503364563,0.5830233097076416,-0.41530144214630129,0.5244965553283691,0.11381900310516358,0.44515249133110049,0.6315338611602783,0.24693071842193604]},{"fitness":0.36957889795303347,"currentPopulationID":0,"currentEntityID":2,"parentPopulationID":-1,"parentEntityID":-1,"layers":[9,5,1],"flattendedWeights":[-0.478429913520813,0.4479813277721405,0.15681135654449464,-0.011007428169250489,0.3778786361217499,-0.24584972858428956,0.1451658010482788,-0.3003007173538208,0.946110725402832,-0.8654787540435791,0.9371488094329834,-0.31621015071868899,-0.7686457633972168,-0.6962566375732422,-0.9714677333831787,0.12542617321014405,0.25250479578971865,-0.9593896865844727,0.7504525184631348,0.2922377288341522,-0.17550265789031983,0.29514047503471377,0.1867903470993042,-0.45193660259246828,0.5672225952148438,0.5361642837524414,0.39433571696281435,0.7307236194610596,-0.9610910415649414,0.9744417667388916,0.2907275855541229,-0.015685439109802247,0.7978677749633789,-0.11191380023956299,-0.5795090198516846,-0.14347970485687257,0.603801965713501,0.20763075351715089,-0.8991665840148926,-0.34730851650238039,0.385724276304245,-0.6416962146759033,-0.00988471508026123,0.3991994559764862,-0.3793267011642456,-0.40339791774749758,0.23874938488006593,-0.8795523643493652,-0.24990642070770265,0.3079485595226288]},{"fitness":0.40097641944885256,"currentPopulationID":0,"currentEntityID":3,"parentPopulationID":-1,"parentEntityID":-1,"layers":[9,5,1],"flattendedWeights":[0.9496738910675049,-0.11554253101348877,-0.8448348045349121,0.2785179316997528,-0.7344012260437012,-0.20226895809173585,-0.9708282947540283,0.5426244735717773,-0.3417707681655884,-0.5185492038726807,0.4282240569591522,0.7605516910552979,-0.4555405378341675,-0.6383819580078125,-0.4706915616989136,0.473720520734787,-0.005876660346984863,-0.8429405689239502,-0.15853750705718995,0.6583678722381592,-0.307489275932312,0.5109245777130127,0.1905289888381958,-0.8219494819641113,-0.11198747158050537,-0.821293830871582,-0.3822871446609497,0.6585664749145508,-0.9000134468078613,0.34508392214775088,-0.5677156448364258,0.7868363857269287,0.8587932586669922,-0.5887601375579834,-0.9562599658966065,-0.6233193874359131,0.9924862384796143,-0.12052047252655029,-0.501929521560669,0.9046511650085449,-0.5371310710906982,-0.015374064445495606,-0.7581121921539307,0.6044468879699707,-0.38369548320770266,0.437958687543869,0.007944941520690918,0.6202247142791748,0.38599035143852236,-0.6988258361816406]},{"fitness":0.3987377882003784,"currentPopulationID":0,"currentEntityID":4,"parentPopulationID":-1,"parentEntityID":-1,"layers":[9,5,1],"flattendedWeights":[0.10675537586212158,-0.35025203227996828,-0.06533467769622803,-0.9109706878662109,0.45700809359550478,-0.6655161380767822,-0.735853910446167,0.48596832156181338,0.3105563819408417,-0.4576517343521118,-0.13564002513885499,-0.45272886753082278,-0.4913402795791626,0.2895190417766571,-0.9682364463806152,0.030227303504943849,-0.7398135662078857,-0.8500564098358154,0.352537602186203,-0.060213685035705569,0.4626462161540985,0.7300148010253906,0.4818715751171112,0.364253968000412,-0.9888746738433838,-0.5962755680084229,0.39340946078300478,-0.833280086517334,-0.3582826852798462,0.7035386562347412,-0.5015146732330322,0.6461818218231201,0.550879716873169,0.4558505713939667,0.21932494640350343,0.495709627866745,0.6939291954040527,-0.5194902420043945,0.9536483287811279,-0.43725788593292239,-0.8126335144042969,0.09853231906890869,0.28107067942619326,0.1237102746963501,0.8965065479278565,-0.2927359342575073,0.6246359348297119,-0.6106626987457275,-0.4682694673538208,-0.7279627323150635]},{"fitness":0.40224167704582217,"currentPopulationID":0,"currentEntityID":5,"parentPopulationID":-1,"parentEntityID":-1,"layers":[9,5,1],"flattendedWeights":[-0.9935016632080078,0.9998385906219482,0.07827436923980713,-0.4793311357498169,0.5188033580780029,-0.3202251195907593,0.3019668757915497,0.3553869426250458,-0.14367592334747315,-0.04500257968902588,-0.142478346824646,0.12700021266937257,0.7690198421478272,-0.20304954051971436,-0.5271992683410645,0.7050418853759766,-0.33438384532928469,-0.9716999530792236,0.5155298709869385,-0.05678284168243408,-0.47569501399993899,0.6709809303283691,-0.3340498208999634,-0.8787496089935303,-0.10670125484466553,0.4292103946208954,0.3248238265514374,-0.9521028995513916,-0.10619032382965088,0.7220258712768555,-0.630502462387085,-0.8468105792999268,-0.921086311340332,-0.3873335123062134,0.279947966337204,-0.7093255519866943,-0.39828574657440188,-0.8625719547271729,0.30450674891471865,0.7957687377929688,0.2679273784160614,0.11521756649017334,-0.04953134059906006,-0.8075981140136719,0.3252820670604706,-0.07124507427215576,0.7185990810394287,-0.9572458267211914,0.44493719935417178,0.17802369594573975]},{"fitness":0.3983003795146942,"currentPopulationID":0,"currentEntityID":6,"parentPopulationID":-1,"parentEntityID":-1,"layers":[9,5,1],"flattendedWeights":[-0.5205860137939453,-0.2480858564376831,-0.5902698040008545,0.4653932750225067,0.5905673503875732,0.10077345371246338,-0.6845529079437256,-0.6251933574676514,-0.34677088260650637,-0.8915209770202637,0.8048946857452393,0.650794267654419,-0.3261219263076782,-0.23809421062469483,-0.8825173377990723,-0.006287693977355957,0.9467055797576904,0.7955994606018066,-0.7433695793151856,-0.7755022048950195,0.31372424960136416,-0.06971132755279541,0.4382495582103729,-0.40214312076568606,-0.659332275390625,-0.5156638622283936,0.7576091289520264,0.17629659175872804,0.7343299388885498,0.7659270763397217,-0.07452452182769776,-0.21104896068572999,0.3531343638896942,0.8179922103881836,0.5377840995788574,-0.7389097213745117,0.7207815647125244,0.27358075976371767,-0.42756760120391848,0.766237735748291,0.7354874610900879,-0.26553499698638918,0.9341189861297607,0.9095063209533691,-0.27177751064300539,-0.44572436809539797,0.8479123115539551,0.5536034107208252,0.47833988070487978,-0.06863510608673096]},{"fitness":0.37211576104164126,"currentPopulationID":0,"currentEntityID":7,"parentPopulationID":-1,"parentEntityID":-1,"layers":[9,5,1],"flattendedWeights":[-0.4517005681991577,-0.7174170017242432,-0.464542031288147,0.5076472759246826,0.26253530383110049,0.7241153717041016,0.7122423648834229,0.2925715148448944,0.762824535369873,0.23354637622833253,0.9864864349365234,0.4682168662548065,-0.8022480010986328,0.9836809635162354,0.05547463893890381,0.4858262240886688,-0.30665838718414309,-0.8376457691192627,0.7343189716339111,0.2526054084300995,-0.9372367858886719,0.6226904392242432,0.44643232226371767,0.4571060836315155,0.43602797389030459,-0.588176965713501,0.31699416041374209,-0.8342905044555664,0.7752888202667236,0.3184475600719452,0.3775283992290497,0.6970651149749756,0.01847231388092041,0.9064030647277832,0.919837236404419,-0.2978900671005249,-0.9329671859741211,0.18182194232940675,0.7750446796417236,0.9656708240509033,-0.3678945302963257,-0.3535569906234741,-0.21434438228607179,-0.438656210899353,-0.9006798267364502,-0.25225603580474856,0.1027597188949585,-0.5885121822357178,0.28667590022087099,-0.8878931999206543]},{"fitness":0.35324132442474368,"currentPopulationID":0,"currentEntityID":8,"parentPopulationID":-1,"parentEntityID":-1,"layers":[9,5,1],"flattendedWeights":[-0.26502525806427,-0.6106917858123779,0.4153587520122528,0.5825803279876709,0.6427783966064453,0.8113372325897217,-0.6568102836608887,-0.9539601802825928,0.15640127658843995,0.5374705791473389,0.38628146052360537,0.45076438784599306,0.7165429592132568,-0.1294471025466919,0.7685031890869141,-0.8604800701141357,-0.18521153926849366,0.7669153213500977,0.476725310087204,-0.011911749839782715,0.24090135097503663,-0.5899207592010498,-0.8882405757904053,-0.9389429092407227,-0.3211010694503784,0.31041666865348818,0.09131968021392822,0.3516249358654022,0.061275362968444827,-0.8370380401611328,0.5596334934234619,-0.6213686466217041,-0.30972492694854739,0.39705297350883486,-0.9591281414031982,-0.8268132209777832,-0.7759604454040527,0.5882201194763184,-0.5316739082336426,-0.31005823612213137,0.7189407348632813,0.9732356071472168,-0.49171769618988039,0.37943288683891299,0.2932684123516083,0.11413800716400147,-0.8780205249786377,-0.663395881652832,0.12377297878265381,0.43544909358024599]},{"fitness":0.38307666778564455,"currentPopulationID":0,"currentEntityID":9,"parentPopulationID":-1,"parentEntityID":-1,"layers":[9,5,1],"flattendedWeights":[0.41276857256889346,0.8728921413421631,-0.1872497797012329,-0.784928560256958,0.7391653060913086,-0.5052695274353027,-0.4544574022293091,0.07714664936065674,0.3196856677532196,0.520493745803833,-0.15603101253509522,0.7352297306060791,0.9418387413024902,0.11327898502349854,0.37073060870170596,0.38479992747306826,0.9376816749572754,0.4326193034648895,0.9675109386444092,0.6316981315612793,-0.7534208297729492,0.9203479290008545,0.6124334335327148,-0.09016597270965576,0.5624227523803711,0.00853264331817627,-0.8424525260925293,0.6340806484222412,0.32233473658561709,-0.6599018573760986,-0.9466149806976318,0.5399086475372315,0.4278411567211151,0.4969150722026825,-0.09011757373809815,-0.417106032371521,0.17330729961395265,0.2948610484600067,-0.9131782054901123,-0.8745789527893066,0.6768133640289307,-0.2237173318862915,-0.05204975605010986,0.2055758237838745,0.6059460639953613,0.0517505407333374,0.330942839384079,0.6276590824127197,-0.6071996688842773,0.005040764808654785]},{"fitness":0.4350297749042511,"currentPopulationID":0,"currentEntityID":10,"parentPopulationID":-1,"parentEntityID":-1,"layers":[9,5,1],"flattendedWeights":[0.016539931297302247,-0.8513619899749756,0.2515814006328583,0.8706746101379395,-0.5408966541290283,0.6676154136657715,-0.9851498603820801,-0.9073693752288818,-0.4052342176437378,0.8541033267974854,-0.4962681531906128,-0.6256763935089111,0.08449423313140869,0.5309631824493408,0.23715555667877198,0.8935451507568359,-0.5459601879119873,0.9792821407318115,-0.6828677654266357,0.6998980045318604,-0.07371485233306885,0.3910379111766815,0.8160157203674316,-0.5578320026397705,-0.0953449010848999,0.5009279251098633,0.5202410221099854,-0.09896743297576904,0.878326416015625,0.2224205732345581,0.7242944240570068,0.9882400035858154,-0.7085011005401611,-0.9264428615570068,-0.5784945487976074,0.23200500011444093,0.8766598701477051,0.1138070821762085,0.3274635970592499,0.5934140682220459,0.4887675940990448,-0.25143277645111086,0.9097979068756104,0.4151260554790497,0.5319578647613525,-0.38731443881988528,-0.43481338024139407,0.22770178318023683,0.3749179542064667,0.5270981788635254]},{"fitness":0.37851613759994509,"currentPopulationID":0,"currentEntityID":11,"parentPopulationID":-1,"parentEntityID":-1,"layers":[9,5,1],"flattendedWeights":[-0.16538751125335694,-0.7358086109161377,-0.49850285053253176,-0.5271496772766113,0.23489248752593995,0.9949321746826172,0.6633436679840088,0.723785400390625,0.4534282386302948,-0.5763034820556641,0.2800447642803192,-0.7545375823974609,0.8033270835876465,0.7311539649963379,0.5558547973632813,-0.2770935297012329,-0.5044634342193604,-0.4600406885147095,-0.8825821876525879,0.3520214259624481,-0.4845484495162964,0.18324577808380128,-0.6171019077301025,0.7463572025299072,0.3620299994945526,0.4060947597026825,-0.7694802284240723,-0.4947422742843628,0.8922185897827148,0.9919459819793701,-0.029600977897644044,0.7721459865570068,-0.5998368263244629,0.003541111946105957,-0.4544323682785034,-0.43684494495391848,0.8801429271697998,0.07444107532501221,-0.7974231243133545,0.34154388308525088,0.544884204864502,-0.5174453258514404,0.7516069412231445,0.001128077507019043,-0.13651978969573975,-0.7067480087280273,-0.1335829496383667,0.38263723254203799,-0.5456931591033936,0.06820523738861084]},{"fitness":0.38389599323272707,"currentPopulationID":0,"currentEntityID":12,"parentPopulationID":-1,"parentEntityID":-1,"layers":[9,5,1],"flattendedWeights":[-0.31233084201812746,-0.5337729454040527,0.4005262553691864,-0.7260417938232422,0.15752089023590089,-0.7854957580566406,0.15803825855255128,-0.15450990200042725,0.2254270315170288,0.35168883204460146,-0.9640586376190186,0.7040531635284424,-0.4547237157821655,-0.7618241310119629,0.29619070887565615,-0.11312496662139893,0.4966900050640106,0.1976243257522583,-0.9775898456573486,-0.07052385807037354,0.7434055805206299,-0.04917252063751221,-0.4523526430130005,0.45911261439323428,0.729546308517456,0.645866870880127,0.4874899089336395,-0.2442113161087036,-0.39784514904022219,0.1496495008468628,0.5646588802337647,-0.7337179183959961,-0.9868402481079102,0.9499235153198242,-0.27417027950286868,0.4862334430217743,-0.4763551950454712,-0.8633694648742676,-0.8503940105438232,-0.3715783357620239,-0.3563452959060669,-0.2726513147354126,0.939887523651123,0.3529917895793915,-0.9524810314178467,0.9654350280761719,0.4039778411388397,0.06181824207305908,-0.017859339714050294,0.5911548137664795]},{"fitness":0.4665573835372925,"currentPopulationID":0,"currentEntityID":13,"parentPopulationID":-1,"parentEntityID":-1,"layers":[9,5,1],"flattendedWeights":[0.01917421817779541,-0.3576256036758423,-0.967494010925293,-0.2226189374923706,0.2545437514781952,-0.471896767616272,-0.3081620931625366,0.27041932940483096,0.6099860668182373,-0.482441782951355,0.8564136028289795,-0.2441631555557251,0.5608961582183838,0.7479212284088135,0.24011600017547608,0.8867664337158203,-0.168937087059021,-0.8833889961242676,-0.4461134672164917,-0.992497444152832,-0.9065263271331787,-0.38590848445892336,-0.10874378681182862,-0.9792821407318115,-0.29449164867401125,-0.6552531719207764,0.3017592132091522,0.16588270664215089,0.21505916118621827,0.5694057941436768,-0.7761454582214356,0.4758710563182831,0.30948540568351748,-0.7045204639434815,0.08933055400848389,-0.7583696842193604,-0.37062346935272219,0.35141488909721377,0.8222203254699707,0.7768044471740723,0.5281839370727539,-0.8338315486907959,-0.6068456172943115,0.4003419578075409,0.3792557418346405,0.0449749231338501,-0.6638944149017334,-0.03585803508758545,0.005662083625793457,0.45369860529899599]},{"fitness":0.39595234394073489,"currentPopulationID":0,"currentEntityID":14,"parentPopulationID":-1,"parentEntityID":-1,"layers":[9,5,1],"flattendedWeights":[-0.1087411642074585,-0.770388126373291,0.5219862461090088,-0.792654275894165,0.40822073817253115,0.8302047252655029,0.19128310680389405,0.6709556579589844,-0.14325988292694093,-0.9751040935516357,-0.47075355052948,0.9251043796539307,-0.10400378704071045,-0.034467101097106937,0.47910162806510928,0.3917946517467499,-0.09111464023590088,0.4041740596294403,0.7444174289703369,0.7130053043365479,0.24266159534454347,-0.4529772996902466,-0.41942107677459719,0.3891579806804657,0.5966134071350098,-0.378764271736145,0.22206413745880128,0.3369111716747284,-0.9697949886322022,-0.756847620010376,-0.8332169055938721,0.8754277229309082,-0.24057042598724366,-0.140203595161438,0.9975705146789551,0.31394001841545107,-0.3972553014755249,0.9562046527862549,0.887244701385498,-0.5295188426971436,-0.3544110059738159,0.1600877046585083,0.7441797256469727,-0.21522128582000733,-0.969813346862793,-0.07942640781402588,0.5575883388519287,0.5309841632843018,0.5761046409606934,-0.41093409061431887]},{"fitness":0.4438733756542206,"currentPopulationID":0,"currentEntityID":15,"parentPopulationID":-1,"parentEntityID":-1,"layers":[9,5,1],"flattendedWeights":[0.7054510116577148,0.669849157333374,-0.5681707859039307,0.5568490028381348,0.6570415496826172,-0.4028059244155884,-0.5597834587097168,0.4094707667827606,0.7510709762573242,-0.9426043033599854,-0.9226822853088379,-0.8584096431732178,0.792111873626709,-0.5068418979644775,0.07552897930145264,0.5648534297943115,-0.6819322109222412,-0.5612421035766602,-0.866981029510498,0.7978050708770752,-0.5645487308502197,-0.30412209033966067,0.7345621585845947,0.03848111629486084,0.72149658203125,0.9038028717041016,-0.19228827953338624,-0.18877923488616944,0.7058908939361572,-0.21058213710784913,0.9214627742767334,-0.6617529392242432,-0.13940441608428956,0.6651825904846191,-0.3012608289718628,-0.5624971389770508,-0.7609491348266602,0.5296883583068848,0.4781491458415985,-0.5172162055969238,-0.8646750450134277,0.06651198863983154,0.5350732803344727,-0.07643425464630127,0.45599767565727236,0.17137110233306886,-0.8854129314422607,-0.5825037956237793,0.28451773524284365,-0.3701215982437134]},{"fitness":0.4326828420162201,"currentPopulationID":0,"currentEntityID":16,"parentPopulationID":-1,"parentEntityID":-1,"layers":[9,5,1],"flattendedWeights":[-0.02993595600128174,0.14021623134613038,-0.2204991579055786,-0.014977335929870606,0.9486749172210693,-0.14472901821136475,-0.5802080631256104,0.38069483637809756,0.9000589847564697,0.32022640109062197,-0.09907877445220947,-0.2629905939102173,0.21269643306732179,-0.2434636354446411,0.5960521697998047,-0.33352506160736086,0.5249295234680176,0.43259021639823916,0.42088910937309267,0.38976427912712099,0.3719579875469208,0.47939416766166689,-0.677227258682251,-0.34823834896087649,-0.22634828090667725,0.11981046199798584,0.815279483795166,-0.8566513061523438,-0.06231510639190674,0.4748069941997528,0.21204674243927003,-0.41703832149505618,-0.18279993534088136,-0.3904992341995239,-0.06750810146331787,0.5824785232543945,-0.8930978775024414,0.009070992469787598,0.014526009559631348,-0.023964524269104005,-0.9773545265197754,-0.42298996448516848,-0.5345966815948486,0.41054484248161318,0.914109468460083,0.6157004833221436,-0.1218634843826294,-0.43032824993133547,-0.6919271945953369,-0.10758793354034424]},{"fitness":0.4035716652870178,"currentPopulationID":0,"currentEntityID":17,"parentPopulationID":-1,"parentEntityID":-1,"layers":[9,5,1],"flattendedWeights":[-0.5763552188873291,-0.9310994148254395,0.23074758052825929,0.41733500361442568,0.7520778179168701,-0.8673694133758545,0.7388837337493897,0.7637722492218018,0.9373373985290527,-0.8703658580780029,-0.7762384414672852,0.015323519706726075,0.26831457018852236,-0.8625595569610596,-0.759415864944458,0.14061391353607179,-0.3686286211013794,0.7264294624328613,0.8887324333190918,-0.606086015701294,0.7598049640655518,0.29464957118034365,-0.762317419052124,0.03344571590423584,-0.9555850028991699,-0.8624613285064697,0.99772047996521,0.8810341358184815,-0.2568928003311157,0.7550034523010254,-0.6387910842895508,0.30397602915763857,0.9017975330352783,-0.10366714000701904,-0.643557071685791,-0.39157283306121828,-0.7814598083496094,-0.8396570682525635,-0.9096260070800781,-0.8937914371490479,0.9265644550323486,-0.7039585113525391,-0.1893068552017212,-0.8336985111236572,-0.23763620853424073,-0.4773496389389038,0.8984658718109131,-0.070931077003479,0.09915125370025635,0.9108030796051025]},{"fitness":0.39945170283317568,"currentPopulationID":0,"currentEntityID":18,"parentPopulationID":-1,"parentEntityID":-1,"layers":[9,5,1],"flattendedWeights":[-0.08543622493743897,0.7353379726409912,0.416361540555954,-0.4833935499191284,-0.1909118890762329,-0.3837391138076782,0.1398996114730835,0.9052867889404297,0.5793893337249756,-0.8159246444702148,0.1269768476486206,-0.952704906463623,0.8888225555419922,0.22110283374786378,-0.19125902652740479,0.4366447627544403,-0.8704726696014404,0.9830975532531738,-0.8224120140075684,-0.6387555599212647,-0.43881332874298098,0.2762095630168915,-0.587921142578125,0.9710893630981445,0.03770124912261963,0.7847964763641357,0.7113487720489502,0.9608221054077148,-0.9994144439697266,0.3876342475414276,0.9834580421447754,0.35573121905326846,-0.3929060697555542,-0.8545317649841309,-0.007645249366760254,0.5121817588806152,-0.9307699203491211,-0.5536599159240723,-0.4238802194595337,-0.06337440013885498,-0.05782163143157959,0.9373400211334229,-0.32280099391937258,-0.3368440866470337,-0.8621108531951904,-0.9420113563537598,-0.9584665298461914,-0.8000662326812744,0.4832248389720917,0.7312231063842773]},{"fitness":0.37509506940841677,"currentPopulationID":0,"currentEntityID":19,"parentPopulationID":-1,"parentEntityID":-1,"layers":[9,5,1],"flattendedWeights":[-0.13662970066070558,-0.4938544034957886,-0.9437520503997803,-0.6086061000823975,0.6214909553527832,0.49512454867362978,-0.3985055685043335,-0.25384223461151125,-0.0583263635635376,0.45771023631095889,0.16329562664031983,-0.704411506652832,-0.27093398571014407,-0.02178323268890381,-0.9175114631652832,-0.726360559463501,0.6248569488525391,-0.916771650314331,-0.8226540088653565,0.1209033727645874,-0.34383857250213625,0.08283436298370362,-0.15198004245758058,-0.947742223739624,0.45312997698783877,0.5426325798034668,0.09028971195220947,-0.9319267272949219,-0.31784355640411379,-0.900658130645752,0.5009844303131104,-0.36683642864227297,0.4354977309703827,0.651357889175415,0.17591536045074464,0.44273993372917178,0.7210817337036133,-0.7054409980773926,0.8649358749389648,-0.6995682716369629,0.40375110507011416,-0.9666848182678223,-0.3818298578262329,0.3949753940105438,0.08752524852752686,0.7892522811889648,0.15621650218963624,0.9987747669219971,-0.43124639987945559,-0.947939395904541]},{"fitness":0.40991440415382388,"currentPopulationID":0,"currentEntityID":20,"parentPopulationID":-1,"parentEntityID":-1,"layers":[9,5,1],"flattendedWeights":[-0.06960928440093994,0.8239600658416748,-0.5251045227050781,-0.19935071468353272,-0.7196271419525147,0.6386828422546387,-0.3179999589920044,0.7099711894989014,-0.10818278789520264,-0.9464194774627686,-0.15228164196014405,0.09464633464813233,-0.6811344623565674,-0.7725319862365723,0.49716708064079287,-0.545318603515625,0.47632214426994326,-0.699479341506958,-0.7417788505554199,0.8566815853118897,0.7804443836212158,0.4025683104991913,0.3662695586681366,-0.7315318584442139,0.38840076327323916,-0.662043571472168,-0.7149896621704102,-0.04975259304046631,-0.711376428604126,0.11662280559539795,-0.5801694393157959,-0.0012627840042114258,-0.3249853849411011,0.9040346145629883,0.8966705799102783,0.06402409076690674,0.16583359241485597,0.6168849468231201,0.564075231552124,-0.1436525583267212,-0.7612655162811279,0.21621954441070558,0.5478067398071289,0.5804548263549805,0.0810476541519165,0.020565390586853029,0.36432144045829775,0.9749152660369873,-0.2821561098098755,0.45140764117240908]},{"fitness":0.37681978940963747,"currentPopulationID":0,"currentEntityID":21,"parentPopulationID":-1,"parentEntityID":-1,"layers":[9,5,1],"flattendedWeights":[-0.8178761005401611,0.516585111618042,-0.7969362735748291,-0.12141644954681397,0.13934004306793214,0.8932099342346191,-0.8543834686279297,-0.005744338035583496,-0.09716546535491944,-0.3731151819229126,-0.5458884239196777,0.8056139945983887,0.984079122543335,0.5269646644592285,-0.37654292583465578,0.4621090590953827,-0.6644554138183594,0.7448763847351074,0.008394598960876465,-0.5898370742797852,0.8352704048156738,0.2371448278427124,-0.2115994691848755,-0.7213950157165527,-0.08640968799591065,-0.7590429782867432,-0.5284855365753174,-0.9357450008392334,0.8906607627868652,-0.68613600730896,0.4377562701702118,0.9593648910522461,-0.2695506811141968,0.7870092391967773,-0.8563337326049805,-0.8150808811187744,-0.4009436368942261,0.08208048343658447,0.9420216083526611,-0.03744351863861084,0.40295812487602236,-0.685492992401123,0.015550971031188965,-0.12144982814788819,0.8659975528717041,0.05874526500701904,-0.7990849018096924,0.18545091152191163,0.16715991497039796,-0.8294906616210938]},{"fitness":0.37991559505462649,"currentPopulationID":0,"currentEntityID":22,"parentPopulationID":-1,"parentEntityID":-1,"layers":[9,5,1],"flattendedWeights":[0.1510998010635376,0.8459539413452148,-0.1376744508743286,0.9392356872558594,0.7315223217010498,0.07670199871063233,-0.5736124515533447,-0.06816470623016358,0.774449348449707,0.8058066368103027,-0.19702088832855225,-0.040767550468444827,-0.5773251056671143,-0.08053195476531983,0.9165666103363037,0.6374804973602295,0.8188397884368897,-0.3163071870803833,0.6327292919158936,-0.7751851081848145,-0.4427982568740845,-0.005106806755065918,0.8400404453277588,0.6759445667266846,-0.9678559303283691,-0.8852212429046631,-0.13013708591461183,0.6777751445770264,0.8697836399078369,-0.29054057598114016,-0.8974008560180664,0.7233738899230957,0.09520184993743897,-0.7319848537445068,0.1539384126663208,0.5115997791290283,0.12579762935638429,0.2073272466659546,0.5945467948913574,-0.6358327865600586,0.061185240745544437,0.42302700877189639,0.24952590465545655,0.46723172068595889,0.705674409866333,-0.18615448474884034,-0.6932103633880615,-0.019095301628112794,0.8034462928771973,0.07290399074554444]},{"fitness":0.38542547821998598,"currentPopulationID":0,"currentEntityID":23,"parentPopulationID":-1,"parentEntityID":-1,"layers":[9,5,1],"flattendedWeights":[0.5486950874328613,0.514894962310791,0.147466778755188,0.3269047439098358,0.14822208881378175,-0.959296464920044,-0.8139581680297852,-0.5988962650299072,0.6510581970214844,-0.21280944347381593,0.9481968879699707,-0.8561084270477295,0.441543310880661,0.49495503306388857,-0.7247817516326904,0.519359827041626,-0.10445988178253174,-0.032206177711486819,0.21748292446136475,-0.5414395332336426,-0.2812296152114868,-0.8216452598571777,-0.7830080986022949,-0.6316254138946533,0.5089139938354492,0.2644617259502411,-0.8657159805297852,0.31380149722099306,-0.6377110481262207,0.9132366180419922,0.6151800155639648,0.8771648406982422,0.39243289828300478,0.1755903959274292,-0.6917808055877686,-0.2927044630050659,-0.8816592693328857,0.49162909388542178,0.8277497291564941,-0.3887213468551636,-0.466572642326355,0.6943762302398682,0.42943450808525088,0.17549359798431397,-0.9014110565185547,0.125024676322937,0.49489423632621767,-0.7452130317687988,-0.3179367780685425,0.7933659553527832]},{"fitness":0.416484534740448,"currentPopulationID":0,"currentEntityID":24,"parentPopulationID":-1,"parentEntityID":-1,"layers":[9,5,1],"flattendedWeights":[0.7904579639434815,-0.784346342086792,-0.6639268398284912,-0.7793152332305908,-0.36404430866241457,0.18188035488128663,-0.7812995910644531,-0.03894364833831787,-0.5784134864807129,0.09987747669219971,0.1629725694656372,0.00511777400970459,-0.6366398334503174,-0.8518338203430176,0.2740752398967743,-0.9174888134002686,-0.04234874248504639,0.10996949672698975,0.22028982639312745,0.2893540561199188,0.9452881813049316,0.14953553676605225,-0.20619189739227296,0.8984956741333008,0.799649715423584,-0.257257342338562,0.2344149351119995,0.6324126720428467,0.8574545383453369,0.6304934024810791,0.557828426361084,0.5611701011657715,0.01169741153717041,-0.4179450273513794,-0.5280041694641113,0.2321237325668335,0.4127947986125946,-0.3895155191421509,0.3112806975841522,0.5525529384613037,0.17025291919708253,0.5964713096618652,-0.31556713581085207,0.9552552700042725,-0.3932744264602661,0.5365767478942871,0.807236909866333,-0.4331756830215454,0.979027271270752,-0.5612747669219971]},{"fitness":0.39422518014907839,"currentPopulationID":0,"currentEntityID":25,"parentPopulationID":-1,"parentEntityID":-1,"layers":[9,5,1],"flattendedWeights":[0.05739462375640869,-0.23240220546722413,0.5577285289764404,-0.506777286529541,0.5207798480987549,0.9026980400085449,0.07214510440826416,-0.2932168245315552,-0.13192808628082276,0.37475892901420596,0.7260956764221191,-0.2915841341018677,0.34361812472343447,0.6616659164428711,-0.7522144317626953,0.851318359375,0.32858607172966006,-0.6385891437530518,0.21757066249847413,0.0119398832321167,-0.7692484855651856,0.13508379459381104,0.5785717964172363,0.7811315059661865,0.08633458614349365,0.3109583556652069,-0.6916165351867676,0.5347967147827148,0.48840710520744326,-0.23216617107391358,0.3057222068309784,-0.870290994644165,-0.8569326400756836,-0.30436551570892336,0.20744693279266358,-0.268839955329895,-0.49879133701324465,0.8936381340026856,0.6004765033721924,0.6386222839355469,-0.5466415882110596,-0.1918097734451294,0.6237242221832275,-0.08017456531524658,-0.7375328540802002,0.649094820022583,-0.15615522861480714,-0.08904612064361572,0.8261888027191162,-0.04825174808502197]},{"fitness":0.4135379195213318,"currentPopulationID":0,"currentEntityID":26,"parentPopulationID":-1,"parentEntityID":-1,"layers":[9,5,1],"flattendedWeights":[0.7055792808532715,0.8066549301147461,-0.9911527633666992,0.08594214916229248,-0.019773125648498536,-0.4504331350326538,0.3611101806163788,0.9272871017456055,0.04533350467681885,0.5908985137939453,0.6097273826599121,0.5738043785095215,-0.9327759742736816,-0.4718705415725708,-0.9664068222045898,0.5786952972412109,0.25787922739982607,-0.3210521936416626,0.30969664454460146,0.10664999485015869,0.28384682536125185,0.14773476123809815,-0.34413301944732668,0.07263243198394776,-0.6120481491088867,0.464311808347702,-0.22688758373260499,-0.6454179286956787,0.09272301197052002,0.2022620439529419,-0.3732365369796753,0.3815591037273407,0.9037461280822754,-0.9984941482543945,0.30380722880363467,-0.457987904548645,-0.7661383152008057,0.4414801299571991,-0.6953880786895752,0.4988550841808319,-0.9761369228363037,-0.090720534324646,0.3860034644603729,0.5167131423950195,0.11610019207000733,0.3113984763622284,-0.6009471416473389,-0.9231312274932861,0.5518927574157715,-0.8588314056396484]},{"fitness":0.3794306516647339,"currentPopulationID":0,"currentEntityID":27,"parentPopulationID":-1,"parentEntityID":-1,"layers":[9,5,1],"flattendedWeights":[0.8346161842346191,-0.8978481292724609,-0.18678271770477296,-0.030288338661193849,-0.819333553314209,0.516242504119873,0.975074291229248,0.4943055808544159,-0.8208186626434326,-0.739171028137207,0.8513212203979492,0.8598928451538086,0.8044798374176025,-0.27063071727752688,0.6960911750793457,0.19445431232452393,0.48155853152275088,-0.2144261598587036,0.25528427958488467,0.6322975158691406,0.2994496524333954,0.8399074077606201,0.17859232425689698,0.9870302677154541,-0.3055466413497925,-0.6715495586395264,0.08111202716827393,0.24447739124298097,-0.7802984714508057,0.43810126185417178,-0.5945727825164795,-0.9982032775878906,0.6151676177978516,-0.5462675094604492,0.2631683051586151,0.22072207927703858,-0.9252090454101563,-0.1450895071029663,-0.656449556350708,-0.6576173305511475,-0.5718066692352295,-0.35829222202301028,-0.0105055570602417,0.1983243227005005,0.8246338367462158,0.7279744148254395,-0.4306696653366089,-0.04205644130706787,0.9486868381500244,0.06850016117095947]},{"fitness":0.43188410997390749,"currentPopulationID":0,"currentEntityID":28,"parentPopulationID":-1,"parentEntityID":-1,"layers":[9,5,1],"flattendedWeights":[0.21232759952545167,0.05523407459259033,0.20580017566680909,0.9123551845550537,0.9637982845306397,-0.23375451564788819,0.3683635890483856,-0.4529658555984497,0.06819736957550049,0.5918521881103516,-0.3660937547683716,-0.6658115386962891,0.6151258945465088,-0.6649675369262695,0.14991271495819093,0.37869998812675478,-0.5429868698120117,0.3078303039073944,-0.657212495803833,0.8214142322540283,-0.21160924434661866,0.9215569496154785,-0.7131457328796387,0.4501747786998749,0.7857093811035156,-0.479012131690979,-0.32327091693878176,-0.711045503616333,0.9913065433502197,0.25583145022392275,-0.4692937135696411,-0.16807711124420167,-0.7696511745452881,-0.4517301321029663,-0.7453687191009522,-0.2515193223953247,-0.023516058921813966,-0.37298333644866946,0.3233287036418915,0.8449640274047852,0.6734931468963623,-0.30778801441192629,0.05429708957672119,-0.09232771396636963,-0.31756842136383059,-0.5444409847259522,-0.3669227361679077,0.15488970279693604,0.11326444149017334,0.502249002456665]},{"fitness":0.42581045627593996,"currentPopulationID":0,"currentEntityID":29,"parentPopulationID":-1,"parentEntityID":-1,"layers":[9,5,1],"flattendedWeights":[0.8835873603820801,-0.9332871437072754,0.7824134826660156,0.08812963962554932,0.9711077213287354,0.663569450378418,0.10117852687835694,-0.6519005298614502,-0.2853735685348511,-0.7051949501037598,0.3360309302806854,-0.023500800132751466,-0.6157088279724121,-0.9444680213928223,0.33565518260002139,-0.8215804100036621,-0.5859379768371582,-0.520282506942749,0.00286710262298584,-0.4328099489212036,-0.13697683811187745,-0.7968182563781738,-0.394201397895813,0.7102222442626953,0.5083456039428711,0.6011121273040772,-0.4138680696487427,0.7511501312255859,0.07656991481781006,0.20111382007598878,-0.8184800148010254,-0.494392991065979,-0.3219248056411743,-0.7518720626831055,-0.4115232229232788,-0.5954763889312744,0.979914665222168,-0.25085675716400149,-0.7201788425445557,0.5412633419036865,-0.897552490234375,0.3344118297100067,0.32742950320243838,-0.2588735818862915,0.6255764961242676,0.44618913531303408,-0.284389853477478,-0.7182714939117432,0.43358680605888369,0.5464050769805908]},{"fitness":0.5060078501701355,"currentPopulationID":0,"currentEntityID":30,"parentPopulationID":-1,"parentEntityID":-1,"layers":[9,5,1],"flattendedWeights":[-0.13915503025054933,-0.5372552871704102,-0.6239688396453857,0.06507241725921631,0.9433631896972656,-0.7426438331604004,-0.511192798614502,-0.8860785961151123,0.924445629119873,0.2911824882030487,-0.5423393249511719,-0.7476894855499268,-0.9717748165130615,0.2171992063522339,0.5463418960571289,-0.7697644233703613,-0.5696985721588135,0.7443358898162842,-0.45924270153045657,0.6273093223571777,0.1263052225112915,0.9035868644714356,-0.03027474880218506,-0.18950974941253663,0.7770817279815674,0.04358971118927002,0.7324159145355225,0.7078824043273926,-0.07195937633514404,-0.47091615200042727,-0.17653071880340577,0.6077380180358887,0.7290554046630859,0.6909952163696289,-0.28200089931488039,0.1364823579788208,-0.7023599147796631,-0.6710209846496582,0.552504301071167,-0.8074080944061279,-0.6892914772033691,-0.7200508117675781,-0.5017082691192627,-0.08924829959869385,-0.5774905681610107,-0.7466061115264893,-0.5557477474212647,0.07468163967132569,-0.7868087291717529,-0.1407090425491333]},{"fitness":0.3804744482040405,"currentPopulationID":0,"currentEntityID":31,"parentPopulationID":-1,"parentEntityID":-1,"layers":[9,5,1],"flattendedWeights":[-0.6018846035003662,0.234277606010437,-0.9825115203857422,0.6845986843109131,-0.16204655170440675,-0.8471930027008057,0.6153163909912109,0.663527250289917,0.3018452823162079,-0.9915897846221924,0.5890967845916748,-0.19087111949920655,-0.45027291774749758,0.46432968974113467,-0.1328204870223999,0.5840387344360352,0.42763444781303408,-0.6467828750610352,-0.18339717388153077,-0.8313784599304199,0.5980126857757568,-0.2597287893295288,0.8798189163208008,0.8332834243774414,0.23415982723236085,0.3904375731945038,-0.3490093946456909,-0.052259087562561038,0.932969331741333,-0.45161688327789309,0.37478920817375185,-0.3422125577926636,0.28699204325675967,-0.07746231555938721,-0.19440734386444093,0.9277489185333252,-0.5465199947357178,0.7765800952911377,0.1680372953414917,-0.4571577310562134,0.8129661083221436,-0.5123167037963867,0.8958489894866943,0.027448296546936036,-0.296040415763855,0.970893144607544,0.025075793266296388,0.353755921125412,-0.7811462879180908,-0.6850028038024902]},{"fitness":0.40480896830558779,"currentPopulationID":0,"currentEntityID":32,"parentPopulationID":-1,"parentEntityID":-1,"layers":[9,5,1],"flattendedWeights":[0.6268336772918701,-0.3738812208175659,0.9936020374298096,0.3316323459148407,-0.017223477363586427,0.9751992225646973,-0.33863961696624758,-0.8311865329742432,-0.8545639514923096,0.3642840087413788,-0.017224907875061036,-0.024525761604309083,-0.3397258520126343,-0.8716981410980225,0.9627752304077148,-0.1260455846786499,0.4679834544658661,0.24542510509490968,-0.484643816947937,0.33092400431632998,-0.12354910373687744,0.18892371654510499,-0.06586110591888428,-0.7256050109863281,0.07403934001922608,0.2855217158794403,0.9226398468017578,-0.9779891967773438,0.015883803367614747,-0.878617525100708,-0.05561840534210205,-0.5972082614898682,0.8718574047088623,0.3508903682231903,-0.6677613258361816,-0.9995930194854736,0.42717429995536806,0.6897904872894287,0.11367642879486084,0.17430579662322999,-0.7889573574066162,-0.5656633377075195,0.1193922758102417,0.014266133308410645,-0.30116188526153567,0.4762730300426483,0.9104688167572022,0.9431619644165039,-0.5779016017913818,-0.9311411380767822]},{"fitness":0.39095571637153628,"currentPopulationID":0,"currentEntityID":33,"parentPopulationID":-1,"parentEntityID":-1,"layers":[9,5,1],"flattendedWeights":[-0.256816029548645,0.8641488552093506,-0.8030097484588623,0.3169719874858856,0.045448899269104007,0.9221014976501465,-0.24001610279083253,0.6447219848632813,-0.3884812593460083,0.890160322189331,-0.29696595668792727,-0.28549468517303469,0.3807952105998993,0.7190220355987549,0.5572936534881592,-0.21406376361846925,0.36291763186454775,0.7469158172607422,-0.6824977397918701,-0.2816840410232544,-0.40615808963775637,-0.55535888671875,-0.37370097637176516,0.20464932918548585,-0.07438671588897705,-0.01748025417327881,-0.9737913608551025,-0.7190492153167725,-0.18042218685150147,0.7256920337677002,-0.32698333263397219,0.33407899737358096,-0.7173871994018555,-0.40685737133026125,0.17791593074798585,-0.9027953147888184,0.5897254943847656,0.37827274203300478,-0.8623807430267334,-0.11766684055328369,-0.9965066909790039,-0.5459556579589844,-0.9806320667266846,0.7042355537414551,0.4779355227947235,0.022895216941833497,0.30843088030815127,-0.45700395107269289,-0.4247223138809204,-0.20113933086395265]},{"fitness":0.4060409963130951,"currentPopulationID":0,"currentEntityID":34,"parentPopulationID":-1,"parentEntityID":-1,"layers":[9,5,1],"flattendedWeights":[-0.8194427490234375,-0.29066359996795657,0.48882076144218447,0.579033613204956,0.34236714243888857,-0.26229584217071535,-0.9647352695465088,0.9344398975372315,0.016495347023010255,0.26383039355278017,-0.8506290912628174,0.7220108509063721,0.4465777575969696,-0.5469522476196289,0.8402111530303955,0.5835773944854736,0.46004530787467959,0.7907218933105469,-0.4649723768234253,0.14726507663726808,0.43437501788139346,-0.7878656387329102,-0.29130470752716067,0.7781505584716797,0.7309415340423584,-0.7161266803741455,0.5564534664154053,0.6701335906982422,0.7894947528839111,0.8540966510772705,-0.12010586261749268,0.39666077494621279,-0.8199968338012695,0.1435450315475464,-0.16062963008880616,-0.3894714117050171,0.3477165400981903,0.49994322657585146,-0.1829158067703247,0.28529712557792666,-0.802593469619751,0.37417981028556826,-0.9139304161071777,-0.540485143661499,-0.44239795207977297,0.6084725856781006,0.39263293147087099,-0.16339290142059327,-0.8293251991271973,-0.32258808612823489]},{"fitness":0.39965391159057619,"currentPopulationID":0,"currentEntityID":35,"parentPopulationID":-1,"parentEntityID":-1,"layers":[9,5,1],"flattendedWeights":[0.7205259799957275,0.09714138507843018,0.962460994720459,-0.6939868927001953,-0.18179500102996827,0.5639302730560303,0.9081881046295166,-0.9861552715301514,-0.9346754550933838,-0.3660064935684204,-0.8190946578979492,-0.3554121255874634,-0.6449131965637207,0.9346070289611816,-0.7580208778381348,0.5535635948181152,0.20122754573822022,0.7982461452484131,-0.5444247722625732,-0.15650904178619386,0.27379271388053896,-0.9690141677856445,-0.10661733150482178,0.3693382441997528,-0.47122251987457278,0.6176705360412598,-0.7569310665130615,-0.8739643096923828,0.5263359546661377,0.533989429473877,-0.033608078956604007,0.5711531639099121,-0.650780439376831,-0.05540907382965088,-0.12232935428619385,0.4621128737926483,-0.6492650508880615,0.577847957611084,-0.05204474925994873,-0.8834481239318848,-0.2417234182357788,0.10745179653167725,-0.6670482158660889,-0.35711586475372317,-0.00925147533416748,-0.5907609462738037,-0.004638791084289551,-0.960010290145874,0.6716392040252686,-0.35859453678131106]},{"fitness":0.3932396173477173,"currentPopulationID":0,"currentEntityID":36,"parentPopulationID":-1,"parentEntityID":-1,"layers":[9,5,1],"flattendedWeights":[-0.1957169771194458,-0.38110148906707766,-0.671919584274292,-0.453652024269104,0.17988216876983643,0.32070037722587588,0.019193053245544435,0.6752874851226807,0.26527830958366396,0.9899828433990479,0.7931861877441406,0.4284310042858124,-0.7012009620666504,0.2183629274368286,-0.27058351039886477,-0.6944327354431152,0.13736116886138917,0.8340630531311035,-0.8826684951782227,-0.6066362857818604,-0.6666662693023682,-0.3418687582015991,0.04663431644439697,0.1844087839126587,0.7751157283782959,-0.7052547931671143,-0.1659935712814331,-0.26858651638031008,0.6490664482116699,0.42851492762565615,-0.5491006374359131,0.4775030314922333,-0.40852463245391848,-0.8862788677215576,-0.6706714630126953,0.6155269145965576,0.41414472460746767,-0.455196738243103,-0.3113311529159546,-0.25974786281585696,-0.5078427791595459,-0.35925543308258059,-0.8734316825866699,0.6342847347259522,-0.3978532552719116,0.906623363494873,0.4036671817302704,0.47696420550346377,0.1008080244064331,0.5126762390136719]},{"fitness":0.4364827275276184,"currentPopulationID":0,"currentEntityID":37,"parentPopulationID":-1,"parentEntityID":-1,"layers":[9,5,1],"flattendedWeights":[-0.990490198135376,0.6758182048797607,-0.9311809539794922,0.8259754180908203,0.2800910174846649,-0.5848643779754639,0.17243921756744386,0.38214966654777529,-0.21509921550750733,-0.8659636974334717,0.06116783618927002,0.5221362113952637,0.4948420226573944,0.4513818919658661,0.8663508892059326,-0.034523844718933108,0.5476081371307373,0.24525320529937745,-0.42370307445526125,0.7296090126037598,0.5740237236022949,-0.03786885738372803,0.4174158275127411,-0.512242317199707,0.5154080390930176,0.7839794158935547,0.10862171649932862,-0.20120704174041749,0.5457594394683838,-0.9550132751464844,0.2661430537700653,0.7382247447967529,0.17304933071136475,-0.5329890251159668,0.07185804843902588,-0.5131340026855469,-0.8270449638366699,-0.37526190280914309,-0.9237525463104248,0.5170981884002686,-0.054631590843200687,0.37094804644584658,0.9794363975524902,0.6487483978271484,0.2955875098705292,-0.4750415086746216,-0.9440817832946777,0.6387538909912109,-0.5599117279052734,0.3836955726146698]},{"fitness":0.45979273319244387,"currentPopulationID":0,"currentEntityID":38,"parentPopulationID":-1,"parentEntityID":-1,"layers":[9,5,1],"flattendedWeights":[0.695249080657959,0.6446080207824707,-0.6418397426605225,-0.828179121017456,-0.6380290985107422,-0.05414450168609619,0.24680912494659425,0.7460625171661377,-0.647639274597168,0.03580200672149658,0.5054991245269775,-0.6622314453125,0.9032127857208252,0.8224551677703857,0.9850850105285645,0.7249431610107422,0.5444793701171875,0.9109225273132324,0.162652850151062,0.5375871658325195,0.148095965385437,0.6764795780181885,0.15008485317230225,-0.6376879215240479,0.4278411567211151,-0.7494297027587891,0.2017751932144165,0.7286558151245117,-0.09377110004425049,0.045827507972717288,0.08704054355621338,-0.592595100402832,0.09494984149932862,-0.6879808902740479,-0.6219420433044434,-0.6750907897949219,-0.14420735836029054,0.2900087535381317,0.7096152305603027,0.7875072956085205,0.34842464327812197,0.3433506190776825,-0.7643017768859863,-0.9203734397888184,0.5440998077392578,-0.6086804866790772,0.692310094833374,0.6073625087738037,-0.23812854290008546,0.648808479309082]},{"fitness":0.4170418083667755,"currentPopulationID":0,"currentEntityID":39,"parentPopulationID":-1,"parentEntityID":-1,"layers":[9,5,1],"flattendedWeights":[-0.6696488857269287,0.7870993614196777,-0.012878775596618653,0.48362061381340029,0.2992198169231415,-0.40103399753570559,-0.9175863265991211,-0.8140575885772705,0.8038144111633301,-0.17944705486297608,-0.338297963142395,-0.9413022994995117,-0.23764145374298097,-0.43898165225982668,-0.425531268119812,-0.7399258613586426,-0.5577425956726074,0.20166027545928956,0.3890196979045868,0.6498923301696777,-0.5747451782226563,0.4656479060649872,0.28577229380607607,0.9566805362701416,-0.22395336627960206,-0.6771776676177979,-0.9725382328033447,-0.0879892110824585,0.037166476249694827,-0.0630878210067749,-0.2999056577682495,-0.18231046199798585,0.962810754776001,-0.7261848449707031,-0.8390457630157471,0.10398638248443604,0.44878193736076357,0.6722102165222168,-0.9104154109954834,0.09177196025848389,-0.3928948640823364,-0.15674293041229249,0.06282413005828858,0.747326135635376,0.6882038116455078,0.49251338839530947,-0.28790462017059328,-0.1933826208114624,-0.022385716438293458,0.3024847209453583]},{"fitness":0.36786097288131716,"currentPopulationID":0,"currentEntityID":40,"parentPopulationID":-1,"parentEntityID":-1,"layers":[9,5,1],"flattendedWeights":[0.9645347595214844,-0.8973908424377441,0.26384827494621279,0.17898881435394288,-0.6621212959289551,-0.9494218826293945,-0.763709545135498,0.5153403282165527,-0.8598101139068604,0.02770841121673584,-0.24629700183868409,0.7631332874298096,-0.8825545310974121,-0.14958345890045167,-0.143682599067688,0.36968180537223818,0.41138431429862978,0.972003698348999,-0.8028593063354492,-0.6583406925201416,-0.4441031217575073,0.5475790500640869,-0.33797967433929446,-0.09292161464691162,-0.7313992977142334,-0.37077152729034426,-0.7419240474700928,0.16809356212615968,-0.5243425369262695,-0.7093081474304199,-0.7782225608825684,-0.4315382242202759,-0.4066687822341919,-0.5355892181396484,-0.3159123659133911,-0.6798322200775147,0.82663893699646,-0.5036661624908447,0.035704731941223147,0.6065998077392578,0.9180903434753418,0.12482106685638428,-0.4179471731185913,0.14482223987579347,-0.6313977241516113,0.12152469158172608,0.7181041240692139,0.7731211185455322,0.7681505680084229,0.468168705701828]},{"fitness":0.3785878121852875,"currentPopulationID":0,"currentEntityID":41,"parentPopulationID":-1,"parentEntityID":-1,"layers":[9,5,1],"flattendedWeights":[-0.6864981651306152,-0.3148561716079712,-0.4093555212020874,0.16485464572906495,-0.5579609870910645,0.4347188174724579,0.8397870063781738,0.013644814491271973,0.5191245079040527,0.4655921161174774,-0.1724146604537964,0.49181196093559267,0.0598222017288208,0.37734267115592959,0.44590064883232119,0.23667514324188233,0.9613890647888184,-0.04125535488128662,-0.31448519229888918,0.2721695601940155,0.1568828821182251,0.6177098751068115,0.825373649597168,0.7888205051422119,0.5406546592712402,0.33232709765434267,0.9322826862335205,-0.5071926116943359,0.32094475626945498,0.8263194561004639,-0.20590269565582276,0.04386866092681885,0.430010050535202,0.810340166091919,0.08314192295074463,0.4353480041027069,0.35022279620170596,-0.23754465579986573,-0.14395511150360108,-0.8782863616943359,-0.5108582973480225,-0.6590785980224609,0.25715371966362,-0.10558044910430908,-0.1899479627609253,0.01282799243927002,0.11616957187652588,-0.9326591491699219,-0.2229374647140503,-0.33880722522735598]},{"fitness":0.4270457625389099,"currentPopulationID":0,"currentEntityID":42,"parentPopulationID":-1,"parentEntityID":-1,"layers":[9,5,1],"flattendedWeights":[-0.522273063659668,0.92498779296875,-0.5585918426513672,-0.3530389070510864,-0.6208891868591309,0.8341169357299805,0.48396942019462588,0.24121248722076417,0.8418316841125488,0.01909482479095459,0.7271666526794434,-0.7413575649261475,-0.06192648410797119,-0.7435922622680664,0.4440569579601288,-0.8078124523162842,0.7276268005371094,0.5756421089172363,-0.19911086559295655,-0.4370201826095581,-0.01390993595123291,-0.7496626377105713,-0.2373296022415161,0.7524218559265137,0.3077492415904999,-0.5906796455383301,-0.12360513210296631,0.09512913227081299,0.37076303362846377,-0.1573396921157837,-0.2711275815963745,-0.8437032699584961,-0.9832239151000977,-0.16340816020965577,-0.8362112045288086,0.16919100284576417,0.02610933780670166,0.6499204635620117,-0.13928258419036866,-0.5618598461151123,-0.9204435348510742,-0.47818171977996828,0.15722668170928956,0.7370343208312988,0.8306334018707275,0.867743730545044,-0.542128324508667,0.2152794599533081,0.6184990406036377,0.29341575503349306]},{"fitness":0.3705463707447052,"currentPopulationID":0,"currentEntityID":43,"parentPopulationID":-1,"parentEntityID":-1,"layers":[9,5,1],"flattendedWeights":[0.4573363959789276,-0.20473873615264893,-0.48794758319854739,-0.14109385013580323,-0.2165595293045044,-0.18440234661102296,0.6292715072631836,-0.9320030212402344,0.6525955200195313,-0.44114887714385989,-0.12478578090667725,0.134466290473938,-0.8527247905731201,-0.06924998760223389,-0.29472506046295168,-0.25024592876434328,0.32519814372062685,0.35369107127189639,0.3657343089580536,-0.6454815864562988,-0.0013827085494995118,-0.44666731357574465,0.2826249301433563,-0.5020549297332764,-0.9206352233886719,-0.000790715217590332,0.5411901473999023,-0.9570343494415283,-0.732696533203125,-0.9595935344696045,-0.6943924427032471,-0.8926539421081543,-0.8428730964660645,0.27422043681144717,-0.016370177268981935,-0.8624062538146973,-0.7214584350585938,0.7885177135467529,0.9058578014373779,0.4915282428264618,-0.395912766456604,0.25836846232414248,-0.27540266513824465,0.9345266819000244,-0.759434700012207,-0.9653282165527344,0.9107356071472168,0.4416625201702118,0.5450534820556641,0.07987320423126221]},{"fitness":0.3441973924636841,"currentPopulationID":0,"currentEntityID":44,"parentPopulationID":-1,"parentEntityID":-1,"layers":[9,5,1],"flattendedWeights":[0.9143657684326172,-0.52121901512146,-0.5776481628417969,-0.631840705871582,-0.6729121208190918,0.22203505039215089,0.3526448905467987,0.17231500148773194,-0.6320862770080566,0.8647282123565674,0.3249816596508026,0.10985386371612549,-0.07918679714202881,0.05270230770111084,-0.44000303745269778,0.7964329719543457,0.2283545732498169,0.9166138172149658,-0.23376667499542237,0.9343738555908203,-0.24150121212005616,0.10772955417633057,0.8779993057250977,-0.7922687530517578,-0.09623062610626221,0.9234097003936768,-0.7372193336486816,-0.5146751403808594,-0.052982211112976077,-0.6857383251190186,0.2730216681957245,0.1719735860824585,0.7101423740386963,-0.9223644733428955,0.7889716625213623,0.7791404724121094,-0.10155189037322998,0.6186354160308838,0.4834441840648651,-0.45657503604888918,-0.811800479888916,0.33695217967033389,0.8948531150817871,-0.7444050312042236,0.3702363669872284,0.39139410853385928,0.074088454246521,0.9993770122528076,0.9773199558258057,-0.24277174472808839]},{"fitness":0.36895424127578738,"currentPopulationID":0,"currentEntityID":45,"parentPopulationID":-1,"parentEntityID":-1,"layers":[9,5,1],"flattendedWeights":[0.15654480457305909,0.6235098838806152,0.32315704226493838,0.9637806415557861,-0.1172569990158081,0.39789363741874697,0.8703420162200928,-0.7148635387420654,-0.12536752223968507,-0.7604804039001465,0.07699239253997803,0.16808807849884034,-0.6547601222991943,-0.9493441581726074,0.6403927803039551,0.9040486812591553,-0.08160030841827393,0.2674104869365692,0.09252369403839112,-0.4453805685043335,0.7384648323059082,0.06230318546295166,0.8178050518035889,0.8976249694824219,0.887397289276123,0.4009551703929901,-0.7749369144439697,0.09527504444122315,-0.10897886753082276,0.9033975601196289,-0.14993393421173097,-0.3351176977157593,-0.578533411026001,-0.909900426864624,0.5613105297088623,-0.18999993801116944,0.1721128225326538,0.2956368625164032,-0.20951330661773683,0.22660291194915772,-0.9387872219085693,0.6128358840942383,0.5002486705780029,-0.19352519512176515,-0.7820925712585449,-0.8600866794586182,0.4013843238353729,-0.6695256233215332,-0.916489839553833,-0.3095914125442505]},{"fitness":0.39878010749816897,"currentPopulationID":0,"currentEntityID":46,"parentPopulationID":-1,"parentEntityID":-1,"layers":[9,5,1],"flattendedWeights":[0.7410609722137451,-0.49806010723114016,-0.9635848999023438,0.9541683197021484,0.2837774455547333,-0.215110182762146,0.49687764048576357,-0.1788545846939087,0.5998358726501465,0.9472827911376953,-0.6579484939575195,0.383543461561203,0.6832799911499023,0.9729230403900147,-0.07215535640716553,-0.2081059217453003,0.26532670855522158,-0.6316616535186768,0.5178380012512207,-0.4383810758590698,0.585496187210083,-0.8339314460754395,0.2696509063243866,0.7979912757873535,-0.37663733959198,0.1989520788192749,-0.20982277393341065,0.6984677314758301,-0.7946124076843262,0.22704851627349854,0.7133488655090332,0.27293822169303896,0.41333672404289248,0.16726458072662354,0.5127465724945068,0.497376412153244,-0.9445629119873047,-0.3216482400894165,-0.43068087100982668,-0.7053670883178711,0.8506369590759277,-0.779303789138794,0.08442580699920654,0.6835966110229492,0.46779176592826846,-0.3433750867843628,-0.596320629119873,-0.2773538827896118,0.4122419059276581,0.3012976348400116]},{"fitness":0.42024844884872439,"currentPopulationID":0,"currentEntityID":47,"parentPopulationID":-1,"parentEntityID":-1,"layers":[9,5,1],"flattendedWeights":[-0.4034234285354614,0.3498837649822235,-0.17797791957855225,0.35844966769218447,-0.6181178092956543,0.3359634578227997,-0.8780100345611572,-0.24458348751068116,-0.3801008462905884,-0.26552140712738039,-0.6285912990570068,0.7969920635223389,-0.7483687400817871,-0.7701044082641602,-0.9913525581359863,0.9256904125213623,-0.902371883392334,0.20765483379364015,-0.7443137168884277,0.8358049392700195,-0.16576015949249268,-0.10145676136016846,-0.8605432510375977,-0.6248369216918945,-0.03736984729766846,0.24812543392181397,-0.4289342164993286,-0.48553597927093508,0.32527586817741396,0.2530204951763153,-0.854011058807373,0.9323203563690186,-0.4190934896469116,-0.6148309707641602,-0.5579650402069092,-0.2758253812789917,-0.9429976940155029,0.02114880084991455,0.8241312503814697,0.5942463874816895,-0.08682763576507569,-0.40376269817352297,0.9307360649108887,0.7457859516143799,0.9785246849060059,0.3431563079357147,0.4449722468852997,-0.791985034942627,-0.19225561618804933,-0.9371263980865479]},{"fitness":0.40408194065093996,"currentPopulationID":0,"currentEntityID":48,"parentPopulationID":-1,"parentEntityID":-1,"layers":[9,5,1],"flattendedWeights":[0.6887814998626709,0.596815824508667,0.8125455379486084,-0.558107852935791,-0.29694926738739016,0.8575599193572998,-0.8359401226043701,-0.082602858543396,-0.7911405563354492,0.8961074352264404,0.8434698581695557,-0.6427104473114014,0.16021573543548585,0.8082916736602783,0.23699724674224854,0.2598402202129364,-0.4932354688644409,0.8595659732818604,0.587155818939209,-0.29441654682159426,0.27646252512931826,0.2866329848766327,0.4297339618206024,-0.6957528591156006,-0.37504708766937258,-0.26353251934051516,0.3185407817363739,0.11024391651153565,-0.7119889259338379,0.8926644325256348,-0.7454578876495361,0.2752525508403778,0.5414299964904785,0.17424452304840089,-0.21241629123687745,0.2139371633529663,-0.6784448623657227,0.8008952140808106,-0.6699223518371582,-0.8943655490875244,-0.45248210430145266,0.6527442932128906,0.6922047138214111,0.4008607566356659,-0.171028733253479,-0.7034766674041748,-0.26414453983306887,0.927703857421875,0.7253379821777344,-0.3958944082260132]},{"fitness":0.36193904280662539,"currentPopulationID":0,"currentEntityID":49,"parentPopulationID":-1,"parentEntityID":-1,"layers":[9,5,1],"flattendedWeights":[-0.6441097259521484,0.4057936370372772,0.012341856956481934,0.23127210140228272,0.3273758590221405,0.07326924800872803,-0.09594118595123291,0.6237807273864746,-0.03887641429901123,0.6076445579528809,-0.42658913135528567,-0.24230539798736573,0.10483157634735108,-0.3582195043563843,-0.8965442180633545,0.7216696739196777,0.14133775234222413,0.3104057013988495,0.6265871524810791,0.2517072856426239,-0.6181881427764893,-0.8605563640594482,-0.9167916774749756,0.3610949218273163,0.7714836597442627,0.8201992511749268,0.43749234080314639,-0.7071394920349121,-0.7019510269165039,0.38805481791496279,0.9982471466064453,-0.3206683397293091,-0.6874260902404785,0.10445725917816162,-0.03801000118255615,0.16956889629364015,-0.6726040840148926,0.4074978530406952,0.4183051288127899,0.04193007946014404,0.11109507083892822,-0.8214311599731445,0.9196887016296387,-0.8731975555419922,0.8406403064727783,-0.527888298034668,-0.9682290554046631,-0.24013245105743409,0.22724425792694093,0.4021546542644501]},{"fitness":0.35241377353668215,"currentPopulationID":0,"currentEntityID":50,"parentPopulationID":-1,"parentEntityID":-1,"layers":[9,5,1],"flattendedWeights":[0.12757956981658936,0.5305519104003906,0.7534477710723877,0.0011481046676635743,-0.7546613216400147,0.09332382678985596,0.7656822204589844,-0.26178276538848879,-0.5466129779815674,0.7084472179412842,0.10655200481414795,-0.08323538303375244,-0.737769603729248,-0.27551209926605227,-0.7712197303771973,0.9217038154602051,0.06193244457244873,0.6471903324127197,0.4580175578594208,0.3773500621318817,-0.5832250118255615,-0.06306874752044678,0.15897905826568604,-0.1500476598739624,0.9868991374969482,0.4877268970012665,0.961402177810669,-0.6155092716217041,-0.3615816831588745,0.6842019557952881,-0.5943129062652588,-0.025791287422180177,-0.31692206859588625,0.49837157130241396,-0.9686880111694336,0.45107218623161318,-0.3114980459213257,0.19694626331329347,0.22081363201141358,-0.16061151027679444,-0.2678104639053345,-0.7196433544158936,0.6543843746185303,-0.35310590267181399,-0.11881983280181885,-0.47044241428375246,-0.10030138492584229,0.669100284576416,0.5258865356445313,-0.15813887119293214]},{"fitness":0.43824058771133425,"currentPopulationID":0,"currentEntityID":51,"parentPopulationID":-1,"parentEntityID":-1,"layers":[9,5,1],"flattendedWeights":[0.12091290950775147,-0.9643123149871826,0.4179186522960663,0.6808066368103027,-0.17573082447052003,-0.6268370151519775,0.7197248935699463,0.12971055507659913,-0.2618464231491089,-0.5012083053588867,-0.19189655780792237,0.04111826419830322,-0.06223189830780029,0.29160234332084658,-0.7231462001800537,0.1512383222579956,-0.8349463939666748,-0.2913249731063843,0.7110164165496826,0.7903993129730225,-0.9146437644958496,-0.9261491298675537,0.7587447166442871,0.9905586242675781,0.38266274333000185,0.8718986511230469,-0.3208988904953003,-0.9109945297241211,0.5488848686218262,-0.14830482006072999,0.3571929633617401,-0.17438781261444093,0.0534592866897583,-0.7237660884857178,-0.3493920564651489,0.028049349784851075,-0.6055920124053955,0.023344874382019044,-0.5528793334960938,0.010931134223937989,0.8159584999084473,0.5183444023132324,-0.24483215808868409,0.6396336555480957,-0.004027724266052246,0.30292412638664248,-0.9231374263763428,-0.6628532409667969,-0.9768579006195068,-0.5218701362609863]},{"fitness":0.39237701892852785,"currentPopulationID":0,"currentEntityID":52,"parentPopulationID":-1,"parentEntityID":-1,"layers":[9,5,1],"flattendedWeights":[0.6667578220367432,0.11969029903411865,0.08369171619415283,0.6242096424102783,-0.6557266712188721,-0.2858184576034546,0.12936294078826905,-0.3329252004623413,-0.7356998920440674,-0.6650397777557373,-0.23393714427947999,0.19194567203521729,0.6443638801574707,0.1460956335067749,0.9876797199249268,0.9494025707244873,-0.07987630367279053,-0.21531713008880616,0.9686923027038574,-0.7680730819702148,0.20959079265594483,-0.63551926612854,0.07554066181182862,-0.29504668712615969,-0.8498935699462891,0.4684455096721649,-0.49038994312286379,0.5065293312072754,-0.19662821292877198,0.17358624935150147,-0.9557340145111084,-0.21341383457183839,0.20816028118133546,0.11287224292755127,-0.9562647342681885,0.5853984355926514,-0.21851623058319093,0.06779873371124268,-0.5765066146850586,-0.28266584873199465,0.4055006206035614,-0.081504225730896,-0.38865745067596438,0.060303330421447757,0.7615411281585693,0.7511000633239746,-0.6814346313476563,0.4621228873729706,0.048155903816223147,0.49002763628959658]},{"fitness":0.3878967761993408,"currentPopulationID":0,"currentEntityID":53,"parentPopulationID":-1,"parentEntityID":-1,"layers":[9,5,1],"flattendedWeights":[0.20686805248260499,-0.20028364658355714,-0.5356473922729492,0.7920458316802979,-0.7621614933013916,0.41751548647880556,0.32121607661247256,-0.4718245267868042,0.4649650752544403,0.18601477146148683,-0.051609158515930179,-0.7631640434265137,0.8183083534240723,-0.7099807262420654,0.038672804832458499,-0.6953067779541016,0.7581682205200195,0.3681451976299286,0.6491436958312988,0.39586731791496279,0.28218886256217959,0.4566163718700409,-0.7963263988494873,-0.06782782077789307,0.4612550437450409,0.4088587462902069,0.6187050342559815,-0.5634188652038574,-0.7022075653076172,0.223335862159729,-0.390527606010437,-0.7124574184417725,0.6843557357788086,0.3445722758769989,0.33490297198295596,0.3422565162181854,-0.3679453134536743,-0.42834794521331789,-0.8257441520690918,0.21887123584747315,0.24972832202911378,-0.3765321969985962,-0.8595497608184815,0.261797159910202,0.5052535533905029,0.7511641979217529,0.8367266654968262,-0.699181318283081,0.3802749812602997,-0.3477398157119751]},{"fitness":0.39206820726394656,"currentPopulationID":0,"currentEntityID":54,"parentPopulationID":-1,"parentEntityID":-1,"layers":[9,5,1],"flattendedWeights":[0.6694819927215576,-0.39955389499664309,0.33116456866264346,-0.885134220123291,0.7420816421508789,0.48311087489128115,0.9593489170074463,0.26268765330314639,-0.28689777851104739,-0.0137253999710083,-0.5087275505065918,0.17968714237213136,-0.8069543838500977,-0.10179078578948975,-0.29577600955963137,0.002022385597229004,-0.823106050491333,-0.5798180103302002,0.21650993824005128,0.47107359766960146,0.3237755000591278,-0.06444966793060303,-0.3626648187637329,-0.8810567855834961,-0.6985189914703369,-0.9854669570922852,0.21288692951202393,-0.4638770818710327,0.11674535274505615,-0.25683677196502688,0.4331173598766327,-0.2249821424484253,-0.9611577987670898,-0.01162707805633545,-0.2595020532608032,-0.0519031286239624,-0.5388474464416504,0.6637239456176758,-0.3735111951828003,0.06347024440765381,-0.24706661701202393,-0.8842165470123291,-0.020933985710144044,-0.8253655433654785,0.5290699005126953,0.23524558544158936,0.1795884370803833,0.8916106224060059,-0.3830302953720093,0.4887373149394989]},{"fitness":0.36245906352996828,"currentPopulationID":0,"currentEntityID":55,"parentPopulationID":-1,"parentEntityID":-1,"layers":[9,5,1],"flattendedWeights":[0.8052737712860107,0.4416463077068329,0.5241129398345947,0.889115571975708,0.1329115629196167,-0.28999412059783938,-0.41750967502593996,0.5049490928649902,-0.250055193901062,-0.9098076820373535,0.7208013534545898,0.4246172606945038,-0.3776916265487671,0.8679444789886475,0.009417891502380371,0.45148369669914248,-0.8643832206726074,-0.8430600166320801,0.5609951019287109,-0.2540487051010132,-0.01735508441925049,-0.5652766227722168,-0.9482312202453613,0.4133298099040985,-0.5299992561340332,-0.3382467031478882,-0.6486649513244629,-0.005276083946228027,-0.33604705333709719,0.5080697536468506,0.9160900115966797,0.07884037494659424,0.31293055415153506,-0.10338914394378662,0.4002487361431122,0.5601320266723633,0.7398669719696045,0.517437219619751,0.5995891094207764,-0.7552521228790283,0.6331651210784912,0.8531079292297363,0.8448519706726074,-0.47660672664642336,-0.7811112403869629,-0.10569369792938233,0.18176448345184327,-0.3648298978805542,-0.5303101539611816,0.4596211612224579]},{"fitness":0.37906694412231448,"currentPopulationID":0,"currentEntityID":56,"parentPopulationID":-1,"parentEntityID":-1,"layers":[9,5,1],"flattendedWeights":[-0.5208704471588135,-0.06909239292144776,0.9040729999542236,0.3023206889629364,-0.010717272758483887,-0.37315404415130618,-0.16414153575897218,0.39711877703666689,0.27048513293266299,-0.165566086769104,-0.40712201595306399,0.6427640914916992,0.8492848873138428,0.3568281829357147,-0.9107401371002197,-0.2542322874069214,-0.5039677619934082,0.04955708980560303,-0.2834511995315552,-0.9330980777740479,-0.30618464946746828,-0.30700862407684328,0.7047669887542725,-0.914405107498169,-0.011040806770324707,0.6976001262664795,0.4868004024028778,0.7422184944152832,-0.7111847400665283,0.5052094459533691,-0.4622703790664673,-0.8433144092559815,0.7694907188415527,-0.35301387310028078,0.8942723274230957,0.640714168548584,-0.280312180519104,0.4114226996898651,0.012249350547790528,-0.04515397548675537,-0.9656238555908203,-0.3602341413497925,-0.7314760684967041,-0.9861326217651367,0.07121098041534424,-0.004487395286560059,0.9305999279022217,-0.7536361217498779,-0.26228010654449465,-0.1286841630935669]},{"fitness":0.3568134307861328,"currentPopulationID":0,"currentEntityID":57,"parentPopulationID":-1,"parentEntityID":-1,"layers":[9,5,1],"flattendedWeights":[-0.4875072240829468,0.3869011104106903,-0.9442474842071533,-0.1174095869064331,0.23505747318267823,-0.3906940221786499,-0.7351515293121338,-0.082114577293396,0.3412341773509979,-0.671750545501709,-0.9787857532501221,0.79109787940979,-0.26268184185028078,-0.953315258026123,0.18629205226898194,-0.9222979545593262,0.24592530727386475,-0.8494613170623779,0.442270964384079,-0.48495161533355715,-0.8497223854064941,-0.75264573097229,0.7254767417907715,0.5539581775665283,0.0967787504196167,-0.5088207721710205,-0.20798957347869874,-0.20459997653961183,0.2019277811050415,-0.4188345670700073,0.0682753324508667,0.3765208423137665,-0.448449969291687,-0.5031981468200684,0.5440807342529297,0.03245127201080322,-0.17520391941070558,-0.17150366306304933,-0.48431551456451418,-0.489294171333313,-0.8958778381347656,-0.6483163833618164,0.546804666519165,-0.1224738359451294,-0.5965056419372559,0.9401941299438477,0.5878405570983887,0.1995326280593872,0.9733855724334717,-0.7906272411346436]},{"fitness":0.38881102204322817,"currentPopulationID":0,"currentEntityID":58,"parentPopulationID":-1,"parentEntityID":-1,"layers":[9,5,1],"flattendedWeights":[-0.006538033485412598,0.5630190372467041,0.28868553042411806,-0.7850618362426758,0.19924724102020265,0.36659666895866396,0.3131503760814667,0.3691844642162323,0.18053185939788819,-0.5699186325073242,-0.3259683847427368,0.3667890727519989,0.7263693809509277,0.7492899894714356,0.05258023738861084,-0.7670347690582275,-0.9502830505371094,0.7258965969085693,-0.5191535949707031,-0.18977272510528565,0.17252647876739503,0.12608754634857179,0.9917397499084473,-0.7677841186523438,0.2134934663772583,-0.8127121925354004,-0.7121446132659912,0.051090359687805179,-0.03275907039642334,-0.5496492385864258,0.22816598415374757,-0.12891042232513429,-0.3209041357040405,0.9964721202850342,-0.805107831954956,0.7647769451141357,-0.4926806688308716,0.48316118121147158,0.38550111651420596,-0.3298395872116089,0.6687428951263428,0.24186813831329347,-0.5609679222106934,0.040356993675231937,0.8858129978179932,0.5460889339447022,0.09271395206451416,0.0336078405380249,-0.07493412494659424,-0.6114211082458496]},{"fitness":0.43505674600601199,"currentPopulationID":0,"currentEntityID":59,"parentPopulationID":-1,"parentEntityID":-1,"layers":[9,5,1],"flattendedWeights":[-0.1374112367630005,-0.9858758449554443,-0.6025111675262451,-0.17923986911773683,-0.7966616153717041,0.5473823547363281,0.5126786231994629,0.4839269816875458,-0.5065116882324219,0.19231688976287843,-0.4335566759109497,-0.8128719329833984,0.34797951579093935,0.6480283737182617,0.8877074718475342,0.07386672496795654,0.082222580909729,0.5980625152587891,-0.44578588008880618,-0.724665641784668,-0.6168899536132813,-0.8960540294647217,-0.056992411613464358,-0.03804981708526611,0.8697786331176758,-0.9948406219482422,-0.3278137445449829,-0.21029937267303468,-0.7183256149291992,0.06520020961761475,-0.3530944585800171,0.15847265720367433,0.7069528102874756,-0.8462817668914795,0.2822122275829315,0.5954287052154541,-0.6084434986114502,-0.40904700756073,-0.6958134174346924,0.22334039211273194,0.3397826850414276,0.9711296558380127,0.5581896305084229,0.16838395595550538,0.7772700786590576,0.5428757667541504,0.19112670421600343,0.053533196449279788,0.8290019035339356,-0.6266453266143799]},{"fitness":0.43371957540512087,"currentPopulationID":0,"currentEntityID":60,"parentPopulationID":-1,"parentEntityID":-1,"layers":[9,5,1],"flattendedWeights":[-0.9753937721252441,-0.46142709255218508,-0.26432740688323977,0.97788405418396,-0.09169113636016846,0.6894509792327881,0.04704558849334717,0.3904361426830292,0.47970816493034365,-0.9057130813598633,0.15680944919586183,0.9286670684814453,-0.17512953281402589,0.8671400547027588,-0.7788043022155762,0.7653858661651611,-0.521308422088623,-0.9824559688568115,0.7250931262969971,0.346786230802536,-0.843390703201294,0.15513312816619874,0.9244287014007568,-0.3566089868545532,-0.22592604160308839,-0.7683234214782715,0.343049019575119,0.515913724899292,-0.802971363067627,0.7904400825500488,0.4150371253490448,-0.6405818462371826,-0.7246851921081543,-0.447931170463562,0.6773748397827148,0.7793266773223877,0.0014861822128295899,0.985194206237793,0.46446868777275088,0.684920072555542,0.8126053810119629,-0.22914159297943116,0.987311601638794,-0.6880466938018799,-0.4400256872177124,-0.7905716896057129,0.724005937576294,-0.6670107841491699,-0.5785486698150635,0.7820498943328857]},{"fitness":0.37901771068573,"currentPopulationID":0,"currentEntityID":61,"parentPopulationID":-1,"parentEntityID":-1,"layers":[9,5,1],"flattendedWeights":[0.8512139320373535,0.20077836513519288,-0.3502851724624634,-0.5491237640380859,0.7236766815185547,-0.009360909461975098,0.9546892642974854,0.7707242965698242,-0.7286727428436279,0.13509929180145265,0.8219225406646729,-0.01587831974029541,0.6361889839172363,-0.06448709964752197,0.022631525993347169,-0.8714108467102051,0.7154176235198975,-0.23007333278656007,0.7920024394989014,0.4246539771556854,-0.7115621566772461,-0.8840911388397217,0.6318399906158447,0.8882925510406494,0.0976489782333374,-0.42309558391571047,-0.6574318408966065,0.37894245982170107,0.7462344169616699,-0.7739613056182861,-0.8294463157653809,-0.18201744556427003,-0.6002452373504639,0.3143591582775116,-0.4314783811569214,0.519655704498291,0.3402697741985321,0.613969087600708,0.6380629539489746,-0.2321709394454956,0.48125502467155459,0.7436187267303467,0.8934106826782227,0.023285746574401857,-0.45211946964263918,-0.3305245637893677,-0.6185810565948486,0.878237247467041,0.4580537974834442,-0.4295607805252075]},{"fitness":0.4139796495437622,"currentPopulationID":0,"currentEntityID":62,"parentPopulationID":-1,"parentEntityID":-1,"layers":[9,5,1],"flattendedWeights":[0.26544830203056338,0.6618509292602539,0.8324418067932129,0.46721121668815615,0.9920699596405029,0.7269999980926514,-0.1287175416946411,-0.5615689754486084,0.46774527430534365,0.7250692844390869,0.8539769649505615,-0.10422861576080322,0.7542648315429688,-0.21613848209381104,-0.6064984798431397,-0.16526973247528077,0.9392805099487305,-0.8030338287353516,0.020387768745422365,0.7051515579223633,0.4449443519115448,-0.05501735210418701,0.9110867977142334,0.7904655933380127,-0.4396315813064575,-0.03718888759613037,-0.777503252029419,0.2670745551586151,0.1340266466140747,0.3567521274089813,0.13377702236175538,-0.05313408374786377,0.7097065448760986,-0.2271658182144165,-0.3014320135116577,0.1379486322402954,0.5181446075439453,-0.12298977375030518,-0.4424675703048706,0.6121706962585449,-0.18672549724578858,0.554635763168335,-0.5312578678131104,-0.17582237720489503,-0.4310039281845093,-0.30180633068084719,-0.9945340156555176,0.6823382377624512,0.9741945266723633,-0.5458717346191406]},{"fitness":0.37784504890441897,"currentPopulationID":0,"currentEntityID":63,"parentPopulationID":-1,"parentEntityID":-1,"layers":[9,5,1],"flattendedWeights":[0.2402580976486206,-0.5699646472930908,-0.9154231548309326,-0.5170550346374512,0.4103998839855194,-0.37559521198272707,0.9135916233062744,0.7001407146453857,0.12777483463287354,-0.5992867946624756,-0.5050132274627686,0.19103538990020753,0.7266144752502441,-0.6351606845855713,-0.4548543691635132,-0.02055823802947998,0.4537653625011444,-0.8571646213531494,0.2537481486797333,-0.8019967079162598,-0.7601015567779541,-0.9234881401062012,-0.2082136869430542,-0.30845749378204348,-0.7473058700561523,-0.39861905574798586,0.25153204798698428,0.15170419216156007,-0.5034744739532471,0.41888734698295596,0.4226667582988739,0.23425209522247315,-0.7957310676574707,0.6252775192260742,-0.9311625957489014,-0.33189308643341067,0.0957406759262085,-0.732039213180542,-0.9488387107849121,0.6516621112823486,0.6584920883178711,-0.3264211416244507,0.002991795539855957,0.3036946952342987,-0.5418698787689209,-0.9392461776733398,-0.47400128841400149,-0.4415184259414673,0.7872433662414551,-0.3480645418167114]},{"fitness":0.4195665121078491,"currentPopulationID":0,"currentEntityID":64,"parentPopulationID":-1,"parentEntityID":-1,"layers":[9,5,1],"flattendedWeights":[0.9417769908905029,-0.3517404794692993,-0.5080575942993164,-0.17401349544525147,-0.4241553544998169,-0.6361427307128906,0.0006910562515258789,-0.7314779758453369,-0.02197563648223877,0.2823779284954071,0.32944461703300478,-0.3448554277420044,-0.5329406261444092,-0.03185617923736572,-0.9926924705505371,0.8018789291381836,0.7012796401977539,-0.49186551570892336,0.8135092258453369,0.21722495555877686,-0.133398175239563,-0.886671781539917,-0.992307186126709,-0.8688962459564209,-0.04483067989349365,-0.1444312334060669,-0.9594941139221191,0.3019668757915497,-0.8879818916320801,-0.814765214920044,0.5912983417510986,-0.8259544372558594,-0.22275841236114503,0.40962693095207217,-0.6400003433227539,0.11310446262359619,0.7629091739654541,-0.7572581768035889,-0.34940969944000246,-0.4856489896774292,-0.4720381498336792,0.7294864654541016,-0.9293358325958252,0.13469302654266358,0.6510839462280273,0.4096951186656952,0.4159059226512909,-0.5740761756896973,-0.7562384605407715,-0.7627379894256592]},{"fitness":0.449826717376709,"currentPopulationID":0,"currentEntityID":65,"parentPopulationID":-1,"parentEntityID":-1,"layers":[9,5,1],"flattendedWeights":[-0.7100796699523926,0.45306774973869326,0.4358675181865692,0.8172509670257568,-0.6278688907623291,-0.8914484977722168,-0.047763705253601077,0.16555297374725343,-0.3181718587875366,0.8182947635650635,-0.6701145172119141,-0.6662850379943848,0.3635527789592743,-0.6391217708587647,0.9256670475006104,-0.4048982858657837,-0.3877905607223511,0.030914902687072755,-0.9708092212677002,-0.4697991609573364,-0.030555129051208497,0.5450503826141357,-0.6986913681030273,0.7513754367828369,-0.6571598052978516,0.14409387111663819,-0.02281773090362549,0.8281807899475098,0.13508450984954835,-0.2622331380844116,-0.17999517917633058,0.5282073020935059,0.6685168743133545,0.11591088771820069,-0.17516005039215089,-0.02838146686553955,-0.068703293800354,0.49626824259757998,0.19619572162628175,-0.03096020221710205,0.6414225101470947,0.11398971080780029,0.7990119457244873,0.20096027851104737,0.7400083541870117,0.06032407283782959,-0.1321660280227661,0.4240424335002899,-0.3096119165420532,-0.4374469518661499]},{"fitness":0.3734531104564667,"currentPopulationID":0,"currentEntityID":66,"parentPopulationID":-1,"parentEntityID":-1,"layers":[9,5,1],"flattendedWeights":[0.3026449382305145,-0.4731854200363159,-0.9942967891693115,-0.04526317119598389,-0.3180431127548218,-0.4417954683303833,-0.4518030881881714,0.3006844222545624,0.17905795574188233,0.7072830200195313,0.06308948993682862,0.44220563769340517,0.4162003695964813,-0.7600686550140381,0.797931432723999,0.12773573398590089,0.2964310348033905,0.6593244075775147,0.683192253112793,0.6830482482910156,0.44685670733451846,-0.2940605878829956,0.7560703754425049,0.7576251029968262,-0.3118664026260376,-0.007213234901428223,-0.7865700721740723,-0.7396447658538818,0.1996535062789917,0.18948018550872804,-0.024768471717834474,-0.11958086490631104,0.3675675094127655,0.8354067802429199,0.44345661997795107,-0.7795062065124512,-0.4812842607498169,0.4685980975627899,-0.23450839519500733,0.3831481635570526,0.47784683108329775,-0.870980978012085,0.5687339305877686,0.5777692794799805,0.5521011352539063,0.08255493640899658,0.5535659790039063,0.2960314452648163,0.32962867617607119,-0.805640459060669]},{"fitness":0.3993869423866272,"currentPopulationID":0,"currentEntityID":67,"parentPopulationID":-1,"parentEntityID":-1,"layers":[9,5,1],"flattendedWeights":[-0.6024858951568604,0.1348029375076294,-0.03591716289520264,0.07541358470916748,-0.5109188556671143,-0.8163712024688721,-0.015091300010681153,0.23459398746490479,-0.868349552154541,0.18266570568084718,0.2295464277267456,0.16096699237823487,0.898017168045044,-0.08979618549346924,-0.34101951122283938,-0.44482529163360598,0.9724345207214356,-0.09433877468109131,0.3665110766887665,-0.7791321277618408,0.3588516414165497,0.44237086176872256,0.8759117126464844,-0.1230090856552124,-0.7989261150360107,-0.44111788272857668,0.36252686381340029,0.16980373859405518,0.6612772941589356,0.09904921054840088,0.9089484214782715,0.8807268142700195,0.5564911365509033,-0.08268272876739502,-0.5438799858093262,-0.5479507446289063,-0.10042822360992432,0.5568990707397461,-0.054564595222473147,-0.9985129833221436,0.9862227439880371,0.8161609172821045,-0.46681344509124758,-0.28707778453826907,0.11912667751312256,-0.5737850666046143,0.8877780437469482,0.4674050509929657,0.4828893840312958,0.35719701647758486]},{"fitness":0.43880021572113039,"currentPopulationID":0,"currentEntityID":68,"parentPopulationID":-1,"parentEntityID":-1,"layers":[9,5,1],"flattendedWeights":[-0.26287686824798586,-0.6959354877471924,0.939903736114502,-0.2680460214614868,0.18125450611114503,-0.6236028671264648,0.12480509281158447,0.03817856311798096,-0.420742392539978,-0.5998995304107666,0.19753491878509522,-0.19292008876800538,0.647369384765625,-0.16632235050201417,-0.5646216869354248,-0.5949487686157227,-0.14076197147369386,-0.5533192157745361,-0.6989920139312744,-0.8021540641784668,0.9612619876861572,0.5068507194519043,0.4926707446575165,-0.16537535190582276,0.6285309791564941,0.48149654269218447,-0.38392841815948489,-0.4208880662918091,-0.8855628967285156,-0.0703655481338501,0.030861735343933107,-0.4603158235549927,0.5604894161224365,0.8354120254516602,0.142431378364563,0.3533887565135956,0.9085330963134766,0.5321435928344727,0.03850877285003662,0.7203629016876221,0.8791534900665283,-0.009811043739318848,-0.5514941215515137,-0.9691505432128906,-0.8118021488189697,0.8211631774902344,-0.023151278495788575,0.1666320562362671,-0.6091015338897705,0.9980788230895996]},{"fitness":0.3721373677253723,"currentPopulationID":0,"currentEntityID":69,"parentPopulationID":-1,"parentEntityID":-1,"layers":[9,5,1],"flattendedWeights":[-0.032567620277404788,0.5173614025115967,-0.9230656623840332,0.6681187152862549,0.37508150935173037,-0.38990604877471926,0.21066057682037354,0.45960208773612978,-0.3042796850204468,0.8027021884918213,-0.5387468338012695,-0.9837427139282227,-0.40724098682403567,0.13997066020965577,-0.6305351257324219,0.40626999735832217,-0.9119236469268799,0.7199380397796631,0.18004071712493897,0.8804199695587158,0.8622181415557861,0.06901371479034424,0.309113472700119,0.6607692241668701,-0.885526180267334,-0.4315301179885864,0.22226321697235108,0.03962361812591553,0.6489124298095703,0.3782033622264862,0.7336831092834473,-0.9612381458282471,0.41565629839897158,-0.12371647357940674,0.6324279308319092,-0.33151042461395266,0.7521507740020752,-0.037120938301086429,0.46544763445854189,0.9324476718902588,0.46167370676994326,0.5181951522827148,0.176566481590271,-0.5912270545959473,-0.5867860317230225,-0.8024320602416992,0.714625358581543,-0.0948566198348999,-0.8619658946990967,-0.8453419208526611]},{"fitness":0.46605104207992556,"currentPopulationID":0,"currentEntityID":70,"parentPopulationID":-1,"parentEntityID":-1,"layers":[9,5,1],"flattendedWeights":[0.6419494152069092,0.855982780456543,-0.3701585531234741,0.3636033236980438,-0.44347846508026125,-0.7475881576538086,0.16642296314239503,-0.529102087020874,0.7904224395751953,0.9161791801452637,0.9531364440917969,-0.7553527355194092,0.513481855392456,0.08533823490142822,-0.14230191707611085,-0.679807186126709,-0.37208521366119387,-0.9950916767120361,0.461929053068161,-0.7926087379455566,-0.15249860286712647,0.11931335926055908,0.13403451442718507,-0.8230342864990234,-0.983443021774292,0.8951809406280518,-0.7091624736785889,0.9783353805541992,0.9432110786437988,0.03177440166473389,0.8724501132965088,-0.21694576740264893,-0.5257086753845215,0.07772290706634522,-0.004438281059265137,-0.4840654134750366,0.8714871406555176,0.7487032413482666,-0.5932071208953857,0.3522317111492157,0.9926083087921143,0.9657189846038818,0.06539809703826904,-0.9987277984619141,-0.368019700050354,0.7201976776123047,-0.19026148319244386,-0.692296028137207,-0.8036618232727051,-0.99359130859375]},{"fitness":0.3838447332382202,"currentPopulationID":0,"currentEntityID":71,"parentPopulationID":-1,"parentEntityID":-1,"layers":[9,5,1],"flattendedWeights":[0.8442528247833252,-0.12074077129364014,-0.11514508724212647,0.0410078763961792,-0.38516128063201907,0.12265264987945557,-0.7515292167663574,-0.32426917552948,-0.4269629716873169,-0.10722267627716065,-0.290838360786438,0.710275411605835,-0.3978968858718872,0.8364908695220947,-0.22667968273162843,-0.5952706336975098,0.00503385066986084,-0.29853832721710207,0.5920124053955078,0.5720362663269043,0.5522551536560059,-0.8303878307342529,0.3107776343822479,0.4627656638622284,-0.5262656211853027,-0.7707059383392334,0.6192197799682617,-0.8587822914123535,-0.10744583606719971,-0.12090718746185303,0.2623588740825653,-0.1224292516708374,0.7910583019256592,-0.02084195613861084,-0.7417449951171875,-0.021201729774475099,0.32780930399894717,-0.25778138637542727,0.12727153301239015,-0.35913360118865969,-0.5167372226715088,0.1698535680770874,-0.4342294931411743,0.7299160957336426,0.6344170570373535,0.9603283405303955,-0.40811431407928469,-0.9365978240966797,-0.9696569442749023,0.8268399238586426]},{"fitness":0.38431060314178469,"currentPopulationID":0,"currentEntityID":72,"parentPopulationID":-1,"parentEntityID":-1,"layers":[9,5,1],"flattendedWeights":[0.8438906669616699,0.4949195086956024,-0.5480778217315674,0.5731079578399658,0.5102884769439697,-0.25424063205718996,0.858999490737915,0.04220592975616455,-0.61488938331604,-0.6898260116577148,-0.14335238933563233,0.6439559459686279,0.7982451915740967,-0.3174842596054077,-0.143743634223938,-0.43479859828948977,0.34233614802360537,0.9411470890045166,-0.8903439044952393,-0.1961740255355835,0.714059591293335,-0.06041538715362549,-0.5031776428222656,0.7900981903076172,0.695063591003418,0.3250267207622528,-0.5182013511657715,0.41565367579460146,0.07903420925140381,-0.9365665912628174,-0.7155678272247315,-0.29353201389312746,0.917863130569458,-0.6635971069335938,-0.4983876943588257,0.7586486339569092,0.6562542915344238,-0.1148613691329956,-0.5765771865844727,-0.6002485752105713,-0.33736932277679446,-0.6853976249694824,-0.02290666103363037,0.9236814975738525,-0.44774186611175539,0.3579220473766327,0.7734429836273193,0.5982882976531982,0.7568807601928711,0.18807685375213624]},{"fitness":0.43385982513427737,"currentPopulationID":0,"currentEntityID":73,"parentPopulationID":-1,"parentEntityID":-1,"layers":[9,5,1],"flattendedWeights":[0.7697553634643555,-0.13384568691253663,0.8397295475006104,-0.7869846820831299,-0.1210561990737915,0.7176744937896729,0.29355737566947939,0.17507755756378175,-0.918280839920044,0.47354385256767275,0.10477340221405029,0.5422804355621338,0.9737098217010498,-0.9232678413391113,0.8496854305267334,0.20837676525115968,0.6938760280609131,0.7771673202514648,0.4184870421886444,0.35413476824760439,0.3253726661205292,0.47194406390190127,0.43003222346305849,0.2824191749095917,-0.48237431049346926,-0.3551701307296753,-0.584129810333252,0.35005733370780947,0.48941919207572939,0.1352444887161255,0.940488338470459,-0.20898902416229249,-0.03564941883087158,-0.37217986583709719,0.35701653361320498,0.14745843410491944,-0.4201585054397583,0.46634456515312197,-0.7058830261230469,0.37882038950920107,0.6961405277252197,0.5605900287628174,0.4174952208995819,0.5007059574127197,-0.4601196050643921,0.6821675300598145,-0.36004483699798586,-0.760753870010376,-0.8258242607116699,-0.7707087993621826]},{"fitness":0.427298903465271,"currentPopulationID":0,"currentEntityID":74,"parentPopulationID":-1,"parentEntityID":-1,"layers":[9,5,1],"flattendedWeights":[0.6159098148345947,0.3937196433544159,0.4799215495586395,-0.6898066997528076,-0.2875605821609497,0.45952627062797549,-0.586371660232544,-0.1827772855758667,0.046686768531799319,0.9388308525085449,-0.551302433013916,0.5506515502929688,0.19092237949371339,0.11099159717559815,-0.973823070526123,-0.21983349323272706,0.7866146564483643,-0.35559189319610598,0.3268298804759979,-0.24005424976348878,-0.8191602230072022,-0.25453341007232668,-0.07826650142669678,-0.7981855869293213,-0.26732003688812258,0.2659294307231903,0.0985342264175415,0.9978392124176025,-0.0017665624618530274,-0.9220948219299316,-0.8982207775115967,-0.8814549446105957,0.8234760761260986,0.28146931529045107,-0.29094016551971438,0.6903131008148193,-0.05039703845977783,-0.05922138690948486,0.12591803073883058,0.892127275466919,0.610893726348877,-0.2642592191696167,-0.1259366273880005,-0.8793177604675293,0.16531860828399659,-0.4600571393966675,-0.8128623962402344,0.29025980830192568,-0.30818164348602297,0.39774343371391299]},{"fitness":0.42830368876457217,"currentPopulationID":0,"currentEntityID":75,"parentPopulationID":-1,"parentEntityID":-1,"layers":[9,5,1],"flattendedWeights":[0.85624098777771,-0.6875817775726318,0.07230627536773682,0.8781285285949707,-0.4551306962966919,-0.7574961185455322,0.792424201965332,-0.8606834411621094,0.3350531756877899,0.3240656554698944,0.700904130935669,-0.8690805435180664,-0.9412515163421631,0.11965715885162354,-0.03635060787200928,0.5892302989959717,-0.3327077627182007,-0.2783454656600952,0.6676156520843506,-0.2840777635574341,-0.7931349277496338,0.34961530566215517,0.41798636317253115,0.9364566802978516,-0.13116133213043214,-0.6015958786010742,0.681786060333252,0.08500921726226807,0.006895899772644043,0.1218794584274292,0.6027364730834961,-0.3687223196029663,-0.49815475940704348,-0.6559135913848877,-0.2862952947616577,-0.7880229949951172,0.720036506652832,0.018995165824890138,-0.8284637928009033,-0.051255106925964358,0.6154334545135498,0.7201924324035645,-0.6854338645935059,0.18052566051483155,0.3612529933452606,0.49725911021232607,0.689586877822876,-0.05768096446990967,0.7305257320404053,0.11639606952667237]},{"fitness":0.35908833146095278,"currentPopulationID":0,"currentEntityID":76,"parentPopulationID":-1,"parentEntityID":-1,"layers":[9,5,1],"flattendedWeights":[0.5419173240661621,-0.9373464584350586,-0.38627684116363528,-0.7305476665496826,-0.5915253162384033,-0.796039342880249,0.06491982936859131,-0.29266512393951418,0.4815647304058075,0.1599951982498169,0.4031316936016083,0.9883313179016113,0.31931230425834658,0.46207067370414736,-0.012372851371765137,-0.9593274593353272,0.20579659938812257,-0.9153993129730225,0.3750161826610565,0.6377441883087158,-0.9941825866699219,0.7144043445587158,-0.3048292398452759,-0.020049214363098146,-0.8822107315063477,-0.11856472492218018,0.8787174224853516,-0.7255356311798096,-0.09887611865997315,0.005751967430114746,0.3489231765270233,0.7321262359619141,-0.12186944484710694,0.0566943883895874,0.00885474681854248,0.7386953830718994,0.712397575378418,-0.5078334808349609,-0.824434757232666,0.6325032711029053,-0.14881503582000733,0.9011132717132568,0.03546249866485596,-0.7743723392486572,0.9062273502349854,-0.9562594890594482,-0.11282265186309815,0.7711460590362549,-0.9351077079772949,-0.6301069259643555]},{"fitness":0.4199681282043457,"currentPopulationID":0,"currentEntityID":77,"parentPopulationID":-1,"parentEntityID":-1,"layers":[9,5,1],"flattendedWeights":[0.6231532096862793,-0.012632250785827637,-0.45721495151519778,-0.5103287696838379,0.18353807926177979,0.9827122688293457,0.8345034122467041,-0.1609436273574829,0.8450932502746582,0.8548102378845215,-0.7909650802612305,-0.9118690490722656,-0.8128643035888672,0.017629265785217286,0.18661820888519288,-0.19029605388641358,-0.24672234058380128,0.702134370803833,0.6210658550262451,-0.3315345048904419,-0.5086596012115479,0.3769647777080536,-0.995980978012085,-0.29737532138824465,0.5297420024871826,-0.6716573238372803,-0.14769256114959718,-0.3264065980911255,0.3425581157207489,0.8119163513183594,-0.08492696285247803,-0.7899978160858154,-0.6809427738189697,0.573359489440918,-0.0010989904403686524,-0.7351353168487549,-0.5045313835144043,-0.9654607772827148,-0.5719642639160156,-0.9713125228881836,-0.5504522323608398,-0.8750607967376709,-0.7712855339050293,0.15565645694732667,0.19781339168548585,0.721336841583252,0.37672683596611025,0.21412813663482667,-0.23684656620025636,-0.21299660205841065]},{"fitness":0.3700317144393921,"currentPopulationID":0,"currentEntityID":78,"parentPopulationID":-1,"parentEntityID":-1,"layers":[9,5,1],"flattendedWeights":[-0.42619597911834719,-0.43224966526031496,0.40798017382621767,0.04864919185638428,0.6946573257446289,0.29071494936943056,0.015559077262878418,0.2541658580303192,-0.6730873584747315,0.03114306926727295,-0.734886884689331,-0.08168113231658936,-0.24540436267852784,-0.8604958057403565,0.03612697124481201,-0.0878673791885376,-0.6790902614593506,0.8760936260223389,0.9972007274627686,0.28205201029777529,-0.2649749517440796,-0.7165224552154541,-0.21718347072601319,-0.043976426124572757,-0.04873239994049072,0.3367430865764618,-0.044808268547058108,-0.48190152645111086,-0.02424299716949463,-0.02601945400238037,0.5580101013183594,0.2866198718547821,0.9279558658599854,0.3156432807445526,-0.10565483570098877,-0.2148364782333374,0.912085771560669,0.45731374621391299,-0.019745945930480958,-0.8098208904266357,0.5639574527740479,-0.4655801057815552,0.5482072830200195,-0.12051045894622803,0.07182919979095459,0.27289649844169619,-0.4739261865615845,-0.07925665378570557,-0.6458749771118164,0.3626396358013153]},{"fitness":0.4406229257583618,"currentPopulationID":0,"currentEntityID":79,"parentPopulationID":-1,"parentEntityID":-1,"layers":[9,5,1],"flattendedWeights":[-0.032683491706848147,0.18603980541229249,0.9058210849761963,0.18435513973236085,-0.11999785900115967,-0.27055561542510989,0.847653865814209,0.6187291145324707,0.9972381591796875,-0.2874394655227661,-0.9445593357086182,-0.043163180351257327,-0.3455568552017212,-0.106925368309021,0.6084942817687988,0.5867860317230225,0.49983665347099306,0.12873947620391847,-0.7947192192077637,0.6735916137695313,0.528425931930542,-0.28146159648895266,0.31004998087882998,0.6901087760925293,0.46601030230522158,0.09726059436798096,0.5214042663574219,0.3941335380077362,0.24730122089385987,-0.5659992694854736,-0.49358975887298586,0.49232861399650576,-0.8863849639892578,0.48248931765556338,-0.19757616519927979,0.6547427177429199,-0.5347723960876465,-0.34945547580718996,0.1227942705154419,0.4459194839000702,0.03367650508880615,-0.7577512264251709,-0.5129280090332031,-0.6386594772338867,-0.1797868013381958,0.7728707790374756,0.019165873527526857,0.04170811176300049,0.32707569003105166,-0.3298407793045044]},{"fitness":0.41681212186813357,"currentPopulationID":0,"currentEntityID":80,"parentPopulationID":-1,"parentEntityID":-1,"layers":[9,5,1],"flattendedWeights":[0.20756924152374268,-0.34001219272613528,-0.670391321182251,0.8640601634979248,0.5019350051879883,0.922527551651001,-0.7467405796051025,0.881324052810669,-0.08606326580047608,0.17593252658843995,0.1701885461807251,-0.7558414936065674,-0.6865577697753906,0.3258967101573944,-0.6917204856872559,-0.5815744400024414,0.5351009368896484,0.5708739757537842,-0.050916314125061038,0.23653852939605714,0.36305543780326846,0.06411993503570557,0.8149781227111816,-0.800403356552124,0.36253926157951357,-0.7670798301696777,-0.6845500469207764,0.6375999450683594,0.26619192957878115,0.65561842918396,0.827080249786377,0.04441869258880615,0.15701830387115479,-0.2959681749343872,0.7253758907318115,0.23149359226226808,0.6449086666107178,-0.4942108392715454,0.5595686435699463,-0.06974947452545166,0.1012958288192749,0.7443737983703613,0.4018509089946747,0.3060323894023895,0.9211025238037109,-0.8650882244110107,0.8599188327789307,-0.43421947956085207,-0.7880744934082031,0.22695767879486085]},{"fitness":0.39027291536331179,"currentPopulationID":0,"currentEntityID":81,"parentPopulationID":-1,"parentEntityID":-1,"layers":[9,5,1],"flattendedWeights":[0.04604518413543701,0.472483366727829,0.05813753604888916,0.7343823909759522,-0.24156343936920167,0.9111442565917969,0.9570832252502441,-0.3935052156448364,-0.9768812656402588,-0.6381590366363525,-0.1050330400466919,-0.4242008924484253,-0.16714799404144288,0.8838398456573486,0.12141811847686768,0.035782456398010257,-0.12053239345550537,-0.6706833839416504,0.72104811668396,-0.32890212535858157,0.9354166984558106,0.6858522891998291,0.9718613624572754,0.6696145534515381,0.7952320575714111,-0.43278300762176516,-0.48814189434051516,0.7971477508544922,-0.8198626041412354,0.12281715869903565,-0.02413332462310791,0.32869407534599306,-0.1054002046585083,-0.4556351900100708,-0.9378335475921631,0.11531579494476319,-0.7031526565551758,-0.9394817352294922,0.5498631000518799,0.5972146987915039,-0.8625233173370361,0.9332187175750732,-0.4408210515975952,0.49773189425468447,-0.5128734111785889,-0.6408114433288574,-0.08002650737762451,0.19542038440704347,0.6405093669891357,-0.11885106563568115]},{"fitness":0.4256833493709564,"currentPopulationID":0,"currentEntityID":82,"parentPopulationID":-1,"parentEntityID":-1,"layers":[9,5,1],"flattendedWeights":[-0.8987259864807129,-0.8342657089233398,-0.30128324031829836,-0.3405956029891968,-0.5052182674407959,-0.7761626243591309,0.30255839228630068,-0.927056074142456,0.6619172096252441,-0.6835112571716309,0.5357036590576172,-0.3070634603500366,0.5125536918640137,-0.43221724033355715,-0.4045311212539673,-0.879230260848999,0.671954870223999,0.5732517242431641,-0.8555028438568115,-0.10409057140350342,-0.019314885139465333,0.49461862444877627,0.7487485408782959,0.023511528968811036,-0.5831620693206787,-0.7840695381164551,-0.7513396739959717,-0.4842880964279175,-0.6555321216583252,-0.5283334255218506,0.7180984020233154,0.9099593162536621,0.7716212272644043,-0.6107878684997559,0.5746216773986816,0.0052040815353393559,-0.9743702411651611,-0.07243382930755615,0.32953116297721865,-0.5447134971618652,-0.7606587409973145,0.5346975326538086,0.9460122585296631,0.6700038909912109,0.5044257640838623,-0.5855822563171387,0.5008649826049805,0.9723660945892334,0.9738876819610596,0.5616884231567383]},{"fitness":0.4179203510284424,"currentPopulationID":0,"currentEntityID":83,"parentPopulationID":-1,"parentEntityID":-1,"layers":[9,5,1],"flattendedWeights":[0.2836737334728241,0.4109644591808319,-0.7935960292816162,-0.13696515560150147,-0.089790940284729,-0.8866565227508545,-0.5843033790588379,0.30423733592033389,0.12463176250457764,-0.896510124206543,0.3730582892894745,-0.196449875831604,0.07232534885406494,-0.9219555854797363,0.9714772701263428,0.44490787386894228,-0.40939128398895266,0.3468427360057831,-0.16479003429412843,-0.20474183559417725,-0.6696226596832275,-0.2872573137283325,-0.4724384546279907,-0.8249461650848389,0.33597394824028017,0.09789741039276123,0.2925126254558563,-0.20266282558441163,-0.2251216173171997,0.8612105846405029,0.7592940330505371,-0.34996187686920168,-0.16746151447296143,-0.8621058464050293,-0.291720986366272,0.4517309367656708,0.33156487345695498,0.7402400970458984,0.7918970584869385,0.75075364112854,0.007307648658752441,0.7935092449188232,0.31082484126091006,0.5574352741241455,-0.6110644340515137,0.5436451435089111,0.7926251888275147,-0.028656363487243654,-0.5081729888916016,-0.48106300830841067]},{"fitness":0.3961716592311859,"currentPopulationID":0,"currentEntityID":84,"parentPopulationID":-1,"parentEntityID":-1,"layers":[9,5,1],"flattendedWeights":[0.5284359455108643,0.24169814586639405,0.28195759654045107,0.5804119110107422,0.13656461238861085,0.21761023998260499,-0.7616174221038818,-0.7484118938446045,0.20888817310333253,0.17980682849884034,-0.2263273000717163,-0.46243369579315188,0.42845866084098818,0.23596298694610597,-0.6108047962188721,-0.15774619579315186,-0.8218567371368408,0.4425916373729706,-0.7505826950073242,0.28754279017448428,0.7610611915588379,0.4204523265361786,-0.5996785163879395,-0.19868171215057374,-0.48588716983795168,0.16418898105621339,-0.18652808666229249,0.10622632503509522,-0.7594680786132813,-0.4496825933456421,0.9232614040374756,0.4403962790966034,0.6794157028198242,-0.9994814395904541,-0.6341228485107422,0.28781363368034365,-0.461750864982605,0.8557283878326416,0.011381983757019043,0.7753293514251709,-0.027982354164123536,-0.49677717685699465,-0.0030919313430786134,-0.9494154453277588,-0.2687138319015503,-0.29502689838409426,-0.7788412570953369,0.003994584083557129,0.9753010272979736,0.016600966453552247]},{"fitness":0.37015271186828616,"currentPopulationID":0,"currentEntityID":85,"parentPopulationID":-1,"parentEntityID":-1,"layers":[9,5,1],"flattendedWeights":[0.9329135417938232,0.6121983528137207,-0.5178782939910889,0.5939626693725586,-0.38748204708099368,-0.5462546348571777,0.5967161655426025,-0.40440285205841067,-0.20323622226715089,-0.3689812421798706,0.8897035121917725,-0.4577075242996216,0.5150651931762695,0.4980141818523407,-0.6577425003051758,0.9003903865814209,0.33954140543937685,0.7794876098632813,-0.048943161964416507,0.31592103838920596,-0.3083091974258423,-0.715191125869751,-0.9244115352630615,0.547325849533081,-0.2655075788497925,-0.7797577381134033,-0.15680062770843507,-0.30079686641693118,0.6308712959289551,-0.3711336851119995,0.8140084743499756,0.7587125301361084,-0.7726330757141113,0.06446826457977295,0.29166004061698916,-0.9722893238067627,0.37117573618888857,0.724067211151123,-0.881873369216919,-0.6800897121429443,0.6602065563201904,-0.26266229152679446,0.5205643177032471,-0.23123180866241456,-0.9988222122192383,0.2235797643661499,-0.8035423755645752,-0.7746121883392334,0.63374924659729,-0.18005263805389405]},{"fitness":0.41341525316238406,"currentPopulationID":0,"currentEntityID":86,"parentPopulationID":-1,"parentEntityID":-1,"layers":[9,5,1],"flattendedWeights":[0.874152421951294,0.9051363468170166,0.09762561321258545,-0.9514660835266113,-0.9941351413726807,0.586463451385498,0.905200719833374,-0.8315842151641846,0.4386279284954071,0.8489179611206055,-0.24586808681488038,0.8937911987304688,-0.26182568073272707,-0.04864633083343506,-0.3735400438308716,0.07273805141448975,-0.11508667469024658,0.7374734878540039,-0.579308271408081,0.7471189498901367,-0.8431129455566406,0.958709716796875,0.018729805946350099,0.2388235330581665,-0.7248215675354004,-0.9366304874420166,0.025036931037902833,0.23888051509857179,0.2033323049545288,0.25084373354911806,-0.6528546810150147,-0.22674071788787843,-0.4288226366043091,0.4020671546459198,0.34579989314079287,-0.12990152835845948,-0.14638197422027589,0.1664830446243286,-0.14867913722991944,0.7205767631530762,-0.5721619129180908,-0.05529201030731201,0.9073407649993897,-0.08626210689544678,-0.8660764694213867,0.13548576831817628,0.3068957030773163,-0.7222471237182617,-0.641653299331665,0.30684801936149599]},{"fitness":0.4371473789215088,"currentPopulationID":0,"currentEntityID":87,"parentPopulationID":-1,"parentEntityID":-1,"layers":[9,5,1],