{"entities":[{"fitness":0.41399872303009035,"currentPopulationID":0,"currentEntityID":0,"parentPopulationID":-1,"parentEntityID":-1,"layers":[9,15,5,1],"flattendedWeights":[0.452468603849411,-0.8748824596405029,-0.23058974742889405,-0.6701405048370361,-0.5483691692352295,0.4304976165294647,-0.5733635425567627,0.427751749753952,0.9778859615325928,-0.22489774227142335,-0.4431260824203491,-0.17576372623443604,-0.9381630420684815,-0.8333489894866943,-0.04348790645599365,0.8219680786132813,0.9493162631988525,-0.25176727771759035,-0.6604652404785156,-0.13316118717193604,-0.3502308130264282,0.5485010147094727,-0.20422303676605225,0.4408819377422333,0.1515408754348755,0.06318843364715576,-0.4815739393234253,-0.5603427886962891,-0.38995206356048586,-0.8164632320404053,0.904529333114624,0.7753176689147949,-0.03493654727935791,-0.33442699909210207,-0.8750381469726563,-0.8825311660766602,0.7609963417053223,-0.6370203495025635,0.034757018089294437,0.19398558139801026,0.497496098279953,0.5978760719299316,-0.6203293800354004,-0.27821481227874758,-0.2209855318069458,-0.8959550857543945,-0.24005091190338136,0.04610335826873779,0.7521421909332275,-0.5588710308074951,0.5272359848022461,-0.2528647184371948,-0.5270707607269287,0.23567092418670655,0.7561094760894775,-0.5458526611328125,-0.005195260047912598,0.4068088233470917,0.45934101939201357,-0.24238693714141847,-0.43490374088287356,0.5798027515411377,-0.37128889560699465,0.46604177355766299,0.3092746436595917,0.12567460536956788,0.8125331401824951,0.1413956880569458,-0.2359861135482788,-0.37448370456695559,0.042434096336364749,0.525104284286499,0.2304598093032837,0.4052281081676483,-0.7207033634185791,-0.7647707462310791,0.26198503375053408,0.41571614146232607,0.7399911880493164,-0.8859436511993408,0.6893570423126221,-0.8021998405456543,-0.6723473072052002,-0.3550373315811157,-0.34053003787994387,-0.5649430751800537,0.5546567440032959,0.7301206588745117,0.8917763233184815,-0.207877516746521,-0.271293044090271,0.5778756141662598,0.4286186397075653,-0.5782890319824219,-0.3218294382095337,-0.20499861240386964,-0.6817708015441895,-0.9241166114807129,0.9385747909545898,0.010415911674499512,-0.915543794631958,-0.9873311519622803,-0.8847570419311523,-0.9219307899475098,-0.07209265232086182,-0.1521521806716919,-0.8270707130432129,0.10458219051361084,-0.48027193546295168,0.4411170184612274,0.477385014295578,0.19820153713226319,0.4688210189342499,0.1741248369216919,0.9266393184661865,-0.8991079330444336,-0.407694935798645,-0.9015560150146484,0.09361255168914795,-0.9758565425872803,0.5710806846618652,0.32623550295829775,0.8881220817565918,0.6329784393310547,-0.7633371353149414,0.6068921089172363,0.9013504981994629,-0.5715875625610352,0.907860279083252,-0.6014959812164307,-0.8448874950408936,0.36186906695365908,-0.29608094692230227,0.19738733768463136,0.1297246217727661,0.33607932925224306,-0.5255165100097656,-0.2758074998855591,-0.02348029613494873,-0.3649643659591675,0.37573716044425967,0.21864831447601319,0.1435033082962036,0.5841519832611084,0.981987714767456,-0.012494683265686036,-0.6258893013000488,-0.08415806293487549,-0.485725998878479,0.36268922686576846,0.11232340335845947,-0.26777946949005129,-0.8331077098846436,0.1421588659286499,-0.40548670291900637,-0.21737158298492433,0.9408302307128906,0.7763309478759766,0.7012052536010742,0.16956579685211183,0.5904784202575684,0.6453855037689209,-0.210485577583313,-0.8187203407287598,-0.9957220554351807,0.4054231345653534,0.5429935455322266,0.5187838077545166,0.6702086925506592,-0.8548429012298584,-0.33837687969207766,0.2504524886608124,0.9872786998748779,0.7613358497619629,-0.6739501953125,-0.39952003955841067,0.5916247367858887,-0.24861562252044679,-0.731067419052124,0.1888965368270874,-0.68379807472229,-0.9400496482849121,0.9660422801971436,-0.11483252048492432,0.5432260036468506,0.35756728053092959,-0.5183303356170654,-0.2525285482406616,-0.34461915493011477,-0.7769176959991455,-0.8988010883331299,-0.45103251934051516,0.23280155658721925,0.5357828140258789,0.6743016242980957,-0.719318151473999,-0.9811644554138184,-0.2763451337814331,0.7607119083404541,0.044988274574279788,-0.6226255893707275,-0.25564587116241457,0.07094252109527588,0.7114245891571045,-0.8713014125823975,0.2695569694042206,-0.6834530830383301,-0.01929318904876709,0.20706450939178468,-0.4051460027694702,0.5347695350646973,-0.28148090839385989,-0.849123477935791,-0.22334563732147218,0.8034853935241699]},{"fitness":0.39770838618278506,"currentPopulationID":0,"currentEntityID":1,"parentPopulationID":-1,"parentEntityID":-1,"layers":[9,15,5,1],"flattendedWeights":[0.03806483745574951,0.10708081722259522,-0.2758392095565796,-0.1132742166519165,0.8382525444030762,-0.9120256900787354,-0.19156110286712647,0.5884444713592529,0.12839734554290772,0.33440062403678896,0.7845821380615234,0.9790282249450684,-0.22288239002227784,-0.7387187480926514,0.2725357711315155,-0.27650415897369387,0.9591820240020752,0.5193295478820801,0.918776273727417,0.036183953285217288,0.11914598941802979,-0.8342676162719727,0.19671952724456788,0.518308162689209,-0.9779605865478516,0.3478491008281708,0.005445361137390137,-0.6097416877746582,-0.710435152053833,-0.48748648166656496,-0.9031105041503906,0.4608614146709442,-0.7031576633453369,-0.3542588949203491,0.4913453757762909,0.14293324947357179,0.9617996215820313,-0.09446561336517334,0.4727019965648651,-0.513683557510376,0.1936880350112915,0.3936116397380829,-0.6127841472625732,0.2386535406112671,0.4273836314678192,0.29423972964286806,0.15477240085601808,0.9700212478637695,0.6931347846984863,-0.6188857555389404,0.8230412006378174,0.006069779396057129,-0.32422053813934328,0.3447560966014862,0.9785115718841553,0.3468265235424042,0.2188791036605835,0.9070589542388916,0.616060733795166,-0.8720858097076416,0.773639440536499,-0.8826346397399902,-0.5431897640228272,-0.34985029697418215,0.6415145397186279,-0.9245643615722656,0.04744398593902588,0.36153528094291689,-0.12231314182281494,0.037511467933654788,-0.28172242641448977,0.9329814910888672,-0.19675099849700929,0.5983695983886719,-0.23657643795013429,0.8361067771911621,0.045427918434143069,-0.17316973209381104,-0.5753638744354248,-0.9462952613830566,-0.9323837757110596,-0.5620348453521729,-0.3411208391189575,-0.32645976543426516,0.7855231761932373,-0.35758697986602785,0.3403114974498749,0.4838390052318573,0.7484588623046875,0.9752836227416992,-0.30384695529937746,0.29217907786369326,0.6622438430786133,0.7577404975891113,-0.4516657590866089,-0.740581750869751,-0.14789879322052003,-0.9775378704071045,-0.3951765298843384,-0.09299004077911377,0.9052011966705322,0.08908593654632569,0.7568690776824951,-0.33338820934295657,-0.8380908966064453,-0.44439685344696047,-0.23019182682037354,0.6041350364685059,-0.713101863861084,0.6962206363677979,-0.3033944368362427,0.033716797828674319,0.2774171531200409,0.942089319229126,-0.5911688804626465,0.32461854815483096,-0.09595978260040283,0.8085711002349854,-0.9368302822113037,0.5603229999542236,0.4721927344799042,-0.15611159801483155,-0.975304126739502,0.46696898341178896,-0.3603872060775757,0.0618206262588501,0.7676458358764648,-0.6949174404144287,-0.3441559076309204,-0.21055567264556886,-0.178244948387146,0.36568567156791689,0.21408498287200929,-0.7311439514160156,-0.8178176879882813,-0.37478506565093996,-0.595665693283081,0.8666644096374512,-0.42788398265838625,0.4550442397594452,0.5399229526519775,-0.4952503442764282,0.6080179214477539,0.23880350589752198,-0.8043465614318848,-0.8267850875854492,0.27920934557914736,0.6709737777709961,-0.16415345668792725,-0.5628581047058106,-0.7408885955810547,-0.17393887042999268,-0.22703111171722413,0.020113825798034669,-0.17771685123443604,0.4265408217906952,0.6853771209716797,-0.526174783706665,-0.24999940395355225,0.08509218692779541,0.2120579481124878,-0.6801507472991943,-0.7369465827941895,-0.6518213748931885,0.3484449088573456,-0.7552950382232666,-0.2704118490219116,-0.9167711734771729,0.2877177894115448,-0.18861281871795655,-0.47010648250579836,-0.2767139673233032,0.9075369834899902,0.07906067371368408,0.6366779804229736,-0.045921921730041507,-0.29032766819000246,0.1636115312576294,-0.25891268253326418,-0.5421559810638428,0.3819551169872284,-0.9301121234893799,0.14117062091827393,0.2773081958293915,0.781836986541748,0.889819860458374,0.35022708773612978,0.846017599105835,-0.32118523120880129,-0.13998472690582276,-0.6387195587158203,0.5991284847259522,0.6113052368164063,-0.16277039051055909,0.17469346523284913,0.4009070098400116,0.4342312514781952,0.9467039108276367,-0.6112957000732422,0.944033145904541,-0.9893183708190918,-0.005149722099304199,-0.318750262260437,0.45322439074516299,0.5910229682922363,0.16546666622161866,0.15119516849517823,-0.5631787776947022,0.5122604370117188,-0.4737600088119507,0.2391878366470337,-0.2884613275527954,-0.8669462203979492,0.9568076133728027,0.09477460384368897]},{"fitness":0.3975117802619934,"currentPopulationID":0,"currentEntityID":2,"parentPopulationID":-1,"parentEntityID":-1,"layers":[9,15,5,1],"flattendedWeights":[0.736926794052124,-0.6006004810333252,0.7662942409515381,-0.5457463264465332,-0.6885077953338623,-0.7559022903442383,0.5241754055023193,0.6781315803527832,0.4853176772594452,0.727100133895874,-0.6933293342590332,0.5563709735870361,-0.6382081508636475,-0.3846219778060913,-0.09054005146026612,-0.40384089946746828,0.4287218749523163,-0.4532371759414673,-0.6262013912200928,0.5314817428588867,0.700803279876709,0.6825525760650635,0.1518477201461792,-0.4139019250869751,-0.17573392391204835,0.8342728614807129,-0.6122360229492188,0.0530623197555542,-0.4587196111679077,0.7695925235748291,-0.6781711578369141,-0.0002595186233520508,-0.4863210916519165,0.41921231150627139,0.26969239115715029,0.8069007396697998,0.8205029964447022,0.9031269550323486,0.2084439992904663,-0.06678450107574463,0.7212717533111572,0.3634154498577118,0.2708410918712616,0.10859024524688721,-0.6571764945983887,0.15458858013153077,0.6865811347961426,-0.18916785717010499,0.1347273588180542,-0.16155755519866944,-0.9495501518249512,-0.8649299144744873,-0.6798012256622315,-0.056582093238830569,0.25081583857536318,-0.9154622554779053,0.2960786521434784,0.2274864912033081,-0.8157603740692139,0.632054328918457,-0.7844123840332031,0.47611305117607119,-0.23645174503326417,0.09936916828155518,-0.41585075855255129,0.13368475437164308,-0.4098299741744995,-0.8881704807281494,-0.4147125482559204,-0.6872105598449707,0.12566912174224854,0.23157870769500733,-0.9781062602996826,0.7527792453765869,-0.5616042613983154,0.10761559009552002,0.1651555299758911,-0.42189323902130129,-0.28310883045196535,0.01078951358795166,0.6913645267486572,0.45453235507011416,-0.053424715995788577,0.5440309047698975,0.5307624340057373,0.7573435306549072,0.27205225825309756,0.6637248992919922,-0.6609861850738525,-0.9783377647399902,-0.7974660396575928,-0.3582872152328491,-0.701988935470581,-0.0987318754196167,0.029415011405944825,-0.6913559436798096,-0.7868382930755615,-0.1360870599746704,-0.7874875068664551,-0.8624145984649658,0.4494650065898895,0.5657310485839844,0.38295456767082217,0.5741145610809326,-0.8781096935272217,0.028963446617126466,-0.686382532119751,-0.10342061519622803,0.651803731918335,0.8542385101318359,0.17756927013397218,-0.6657652854919434,-0.6375088691711426,-0.5076792240142822,0.15969979763031007,-0.7318522930145264,-0.23481810092926026,0.8293519020080566,0.6413283348083496,-0.6434261798858643,0.6191644668579102,0.2919268310070038,0.8390557765960693,-0.06798970699310303,-0.617506742477417,-0.21868646144866944,0.9212682247161865,0.6976583003997803,0.5969820022583008,0.0747765302658081,0.8125088214874268,0.9767661094665527,0.9217803478240967,-0.04331767559051514,0.9755165576934815,-0.28668344020843508,0.8330280780792236,-0.01080334186553955,-0.026878952980041505,-0.9274251461029053,0.080605149269104,0.22425568103790284,-0.7663784027099609,-0.6329073905944824,-0.6115310192108154,-0.7390882968902588,0.30539557337760928,-0.5232982635498047,-0.11149847507476807,-0.2218989133834839,0.8835611343383789,0.8012051582336426,0.19473087787628175,-0.13857972621917725,-0.8728361129760742,-0.240120530128479,-0.4297441244125366,-0.8828234672546387,0.27187034487724306,-0.7187435626983643,0.9803171157836914,-0.13746488094329835,-0.7319328784942627,-0.48510611057281496,0.06747448444366455,0.624464750289917,0.150093674659729,-0.5651156902313232,0.2942163646221161,-0.5914421081542969,-0.7399871349334717,0.8898241519927979,-0.5807046890258789,0.6995158195495606,0.2597825229167938,-0.32491838932037356,-0.8400073051452637,-0.42466986179351809,0.9622728824615479,-0.22055494785308839,-0.8093521595001221,0.8747203350067139,-0.3416503667831421,-0.3815261125564575,-0.32591044902801516,-0.8167431354522705,0.4859261214733124,0.9940595626831055,-0.49391186237335207,-0.39433157444000246,-0.4292377233505249,-0.6986808776855469,-0.0784527063369751,0.8942794799804688,-0.5568928718566895,-0.22945725917816163,0.9963724613189697,-0.6134099960327148,0.1602720022201538,0.9953522682189941,0.7760863304138184,-0.36933767795562746,0.06984221935272217,-0.4375098943710327,-0.33130943775177,-0.3988722562789917,-0.33891093730926516,0.12190711498260498,0.6560242176055908,0.8344800472259522,-0.1998823881149292,0.32504841685295107,-0.018330931663513185,0.8112747669219971,-0.1583174467086792]},{"fitness":0.3851233124732971,"currentPopulationID":0,"currentEntityID":3,"parentPopulationID":-1,"parentEntityID":-1,"layers":[9,15,5,1],"flattendedWeights":[-0.4295302629470825,-0.5044686794281006,-0.08454263210296631,-0.5921354293823242,0.7144913673400879,0.03803741931915283,0.6274013519287109,0.6134462356567383,0.6104745864868164,-0.6181900501251221,0.9172210693359375,-0.9133152961730957,0.0219346284866333,-0.34446823596954348,0.5669817924499512,0.4817974269390106,0.72314453125,0.5774886608123779,-0.7667262554168701,-0.22812974452972413,0.5165643692016602,0.9944992065429688,0.4539165198802948,-0.2746163606643677,0.10120999813079834,0.10858261585235596,0.9366934299468994,0.44837090373039248,-0.6715402603149414,0.00009882450103759766,0.14494216442108155,-0.12670409679412843,-0.3644341230392456,0.6019787788391113,-0.14147579669952393,0.15833628177642823,-0.0907360315322876,-0.3442577123641968,0.5514702796936035,0.40428897738456728,-0.09726846218109131,-0.4707900285720825,-0.2823079824447632,-0.8294351100921631,0.264344185590744,-0.610459566116333,-0.8507397174835205,-0.3995879888534546,0.4768385589122772,-0.5883932113647461,-0.626396656036377,-0.1016005277633667,-0.6620194911956787,0.7021636962890625,0.699181318283081,0.5703601837158203,-0.9924211502075195,-0.9981851577758789,-0.3791259527206421,0.9829776287078857,0.8913733959197998,-0.5531818866729736,0.46618029475212099,-0.5029425621032715,-0.34747302532196047,0.9035859107971191,-0.7839181423187256,-0.7701506614685059,0.012973666191101075,0.7050604820251465,-0.7158942222595215,-0.5720367431640625,0.4164104163646698,0.8686738014221191,-0.8898687362670898,0.8422129154205322,0.008991360664367676,0.959909200668335,-0.9727158546447754,-0.08484852313995362,0.7478611469268799,-0.9451887607574463,0.7019104957580566,0.7419276237487793,0.8361587524414063,0.9797849655151367,-0.8905606269836426,0.6740398406982422,-0.6068704128265381,-0.5689215660095215,0.8510746955871582,0.42377206683158877,0.4399530589580536,0.637615442276001,0.16543471813201905,0.18108713626861573,-0.5745182037353516,0.8433310985565186,0.9034230709075928,0.419601172208786,-0.766071081161499,-0.49771201610565188,0.29554006457328799,-0.5582749843597412,-0.4855736494064331,-0.11434018611907959,-0.1205223798751831,-0.07814204692840576,0.463457316160202,0.5775406360626221,0.6044356822967529,0.8024327754974365,-0.35623395442962649,-0.7901654243469238,-0.956190824508667,0.09172236919403076,-0.9081084728240967,0.07218015193939209,0.609567403793335,0.24679481983184815,-0.27701032161712649,0.4717206656932831,-0.189048171043396,0.6523792743682861,0.10453355312347412,0.8207097053527832,0.6004669666290283,-0.9857361316680908,-0.5951001644134522,0.9321010112762451,0.1979752779006958,-0.5063791275024414,0.08030140399932862,-0.022366881370544435,-0.8321378231048584,-0.7980852127075195,-0.26057398319244387,-0.8869762420654297,0.5232069492340088,-0.9604904651641846,0.30370327830314639,-0.0657116174697876,-0.39210379123687746,-0.7136778831481934,0.3268603980541229,-0.323755145072937,0.37573644518852236,-0.7409389019012451,-0.9560346603393555,0.6773941516876221,0.44501373171806338,0.6006088256835938,0.5247347354888916,0.6876749992370606,0.6756646633148193,0.33995339274406435,0.9457597732543945,-0.038849711418151858,-0.38247573375701907,0.2551588714122772,-0.7102651596069336,-0.9399189949035645,0.7338125705718994,0.7257299423217773,0.04010355472564697,0.38905903697013857,0.3211340606212616,-0.80832839012146,0.5530359745025635,-0.42388856410980227,-0.9795491695404053,0.3743142783641815,-0.12775933742523194,0.49728938937187197,-0.4310692548751831,-0.5790939331054688,0.27141496539115908,-0.8057394027709961,-0.45152485370635989,0.04656326770782471,-0.36085283756256106,0.6376118659973145,-0.585655689239502,0.9180309772491455,-0.9308829307556152,0.16687262058258058,-0.15676534175872804,0.7733867168426514,-0.04431784152984619,-0.8453443050384522,-0.1580280065536499,-0.5804266929626465,-0.9031462669372559,0.6005520820617676,0.35649654269218447,0.29773613810539248,-0.883202075958252,-0.5850718021392822,0.4396776854991913,-0.8382806777954102,0.29851099848747256,0.07935178279876709,0.41518041491508486,-0.9232156276702881,0.016220450401306154,-0.35568344593048098,0.22631347179412843,0.4700619876384735,0.9147384166717529,0.3613447844982147,-0.1858137845993042,0.8132541179656982,0.6897342205047607,-0.8525779247283936,-0.0694960355758667]},{"fitness":0.40298420190811159,"currentPopulationID":0,"currentEntityID":4,"parentPopulationID":-1,"parentEntityID":-1,"layers":[9,15,5,1],"flattendedWeights":[0.052495598793029788,-0.5171911716461182,0.532595157623291,0.7704200744628906,-0.10763633251190186,-0.8995311260223389,-0.25193655490875246,-0.862389087677002,0.4043676555156708,0.19297587871551515,-0.16162002086639405,-0.8991649150848389,-0.5701420307159424,-0.6027581691741943,0.8144192695617676,-0.5629804134368897,0.9635975360870361,0.8825688362121582,0.9357185363769531,-0.5644745826721191,0.39684244990348818,0.8059818744659424,-0.04732310771942139,0.0624622106552124,0.43119022250175478,-0.8208115100860596,-0.48194754123687746,-0.3210982084274292,-0.33435332775115969,-0.7989974021911621,-0.979403018951416,0.02434980869293213,0.12125790119171143,0.5033209323883057,0.3560344874858856,-0.3601938486099243,0.5620322227478027,0.32448217272758486,-0.3805922269821167,0.2155066728591919,0.9331912994384766,0.11005675792694092,0.9562342166900635,0.46178409457206728,0.7835400104522705,0.45231005549430849,0.6439619064331055,-0.063498854637146,0.5976343154907227,0.6596202850341797,-0.9605274200439453,-0.8870730400085449,-0.21026575565338136,0.669912576675415,-0.38725745677948,0.5906963348388672,-0.6220288276672363,0.29183146357536318,-0.8831913471221924,0.08610880374908447,0.6378631591796875,0.6672472953796387,0.942389965057373,-0.2593933343887329,-0.8638463020324707,-0.24724352359771729,0.37473246455192568,0.16865718364715577,-0.7323262691497803,-0.6005725860595703,0.5956695079803467,0.654639720916748,0.28583523631095889,0.8845851421356201,0.48485180735588076,0.011727213859558106,0.6873552799224854,-0.02829420566558838,-0.5513617992401123,-0.08988511562347412,-0.4487191438674927,0.6661858558654785,0.605633020401001,0.3540284335613251,-0.7430868148803711,0.8042495250701904,0.4895882308483124,0.5995588302612305,0.032597899436950687,0.22453701496124268,-0.04361093044281006,0.02633059024810791,0.19516432285308839,0.25843116641044619,0.9763529300689697,0.9274449348449707,0.8371522426605225,-0.6088697910308838,-0.4782944917678833,-0.18600881099700929,-0.20518243312835694,-0.8090906143188477,-0.16213643550872804,0.39247366786003115,0.3797115981578827,-0.09779584407806397,0.6652927398681641,-0.42251527309417727,-0.07803595066070557,-0.542168140411377,-0.37982141971588137,0.13731896877288819,0.2320154905319214,0.21181738376617433,-0.21719062328338624,0.8899788856506348,-0.14828312397003175,-0.266013503074646,0.4209608733654022,-0.6239135265350342,-0.7174177169799805,-0.05330026149749756,-0.858522891998291,0.9842655658721924,0.43695399165153506,0.792701244354248,0.9994926452636719,0.08964860439300537,-0.4552649259567261,0.5427889823913574,0.24913179874420167,0.5719494819641113,-0.6465821266174316,0.10707366466522217,0.3883638083934784,0.6084892749786377,-0.37203991413116457,0.24566757678985597,-0.5553295612335205,0.2580115497112274,-0.8829021453857422,-0.1961740255355835,0.8425688743591309,-0.8634765148162842,-0.7510879039764404,0.3224165141582489,0.6081020832061768,0.8637902736663818,-0.12265288829803467,0.8059003353118897,0.7562277317047119,-0.8175585269927979,-0.9258091449737549,-0.05085337162017822,-0.8380281925201416,-0.759742021560669,0.7104706764221191,-0.3661717176437378,-0.9800195693969727,-0.8008155822753906,-0.3713036775588989,-0.2775322198867798,-0.027828097343444825,-0.8048555850982666,-0.33690202236175539,-0.7067153453826904,-0.14812076091766358,0.4829358756542206,-0.45703375339508059,0.9169824123382568,0.9804220199584961,-0.1545809507369995,-0.816239595413208,0.19277679920196534,-0.20011365413665772,-0.1397312879562378,0.23629486560821534,-0.3496493101119995,-0.840019941329956,-0.5659024715423584,0.417983740568161,0.27839037775993349,0.6943933963775635,-0.14913666248321534,-0.6951894760131836,-0.1698232889175415,-0.7085542678833008,-0.5147862434387207,0.2917434871196747,0.7317824363708496,-0.22419250011444093,0.07285463809967041,0.717731237411499,0.7082779407501221,-0.3929661512374878,0.192144513130188,0.3494395911693573,0.2841307818889618,0.549584150314331,-0.46833860874176028,-0.2834709882736206,0.48919007182121279,0.3188748061656952,-0.3108750581741333,0.9417979717254639,-0.12141621112823487,-0.7293190956115723,0.9346044063568115,-0.9128661155700684,-0.6503353118896484,-0.5933663845062256,-0.3703871965408325,-0.006219744682312012,0.017658352851867677,0.7304785251617432]},{"fitness":0.4835437834262848,"currentPopulationID":0,"currentEntityID":5,"parentPopulationID":-1,"parentEntityID":-1,"layers":[9,15,5,1],"flattendedWeights":[0.04595625400543213,0.08259189128875733,0.9395947456359863,-0.604358434677124,0.7407970428466797,-0.9162132740020752,-0.17895138263702393,0.03620278835296631,-0.6138391494750977,-0.2403031587600708,0.9722151756286621,0.6103024482727051,-0.23484408855438233,-0.9164905548095703,-0.46885430812835696,-0.11848080158233643,-0.820486307144165,0.25319716334342959,-0.40920817852020266,-0.39639127254486086,0.7505817413330078,0.7938928604125977,0.3065752685070038,0.8621311187744141,0.07382786273956299,-0.3829604387283325,-0.5979931354522705,-0.14599668979644776,-0.549401044845581,-0.9455454349517822,0.7711453437805176,-0.8590331077575684,-0.4762994050979614,0.6633930206298828,0.13329660892486573,0.4827880561351776,-0.3428725004196167,0.6501410007476807,-0.8661434650421143,0.7493782043457031,0.7612485885620117,-0.5347096920013428,0.3832568824291229,0.7789902687072754,-0.631547212600708,0.3278047740459442,-0.036265015602111819,-0.21858251094818116,0.2492009401321411,0.9617645740509033,0.49768564105033877,0.45411035418510439,-0.9862284660339356,-0.1392430067062378,0.959742546081543,0.3608035743236542,0.10760343074798584,0.020276188850402833,0.20291244983673097,-0.6528773307800293,0.543137788772583,0.4846782386302948,-0.680060625076294,-0.0717993974685669,0.23271310329437257,0.06481564044952393,0.33717676997184756,0.5468704700469971,-0.6425976753234863,0.08631861209869385,0.20393383502960206,-0.42089521884918215,-0.9010241031646729,-0.6201629638671875,0.7324700355529785,-0.25474393367767336,-0.20080029964447022,0.9550001621246338,0.4579434096813202,0.10108029842376709,-0.2206786870956421,-0.7399060726165772,0.39545151591300967,0.061742424964904788,-0.4213486909866333,0.6502344608306885,-0.6968693733215332,0.47632190585136416,0.23300492763519288,-0.27464330196380618,0.513444185256958,0.1624215841293335,-0.3525468111038208,0.5191383361816406,0.9972031116485596,0.003613591194152832,-0.19688332080841065,0.9845726490020752,-0.5726180076599121,-0.3303028345108032,-0.04475820064544678,0.2365955114364624,-0.1031876802444458,0.6562068462371826,0.7510178089141846,-0.35523784160614016,-0.9799442291259766,-0.1568235158920288,-0.6022169589996338,-0.8615322113037109,-0.7485127449035645,0.22935283184051515,-0.5111038684844971,-0.07429420948028565,-0.06880438327789307,0.5102863311767578,-0.090035080909729,-0.8615703582763672,0.47695061564445498,0.8068583011627197,0.6120226383209229,-0.2525597810745239,0.8970930576324463,0.19921576976776124,0.09724962711334229,-0.8662204742431641,0.5086441040039063,0.8925516605377197,-0.04530155658721924,-0.3792227506637573,0.3957619369029999,0.12936270236968995,0.11903822422027588,0.8087139129638672,0.18317687511444093,0.5669653415679932,-0.7501795291900635,0.1716402769088745,0.7898225784301758,0.09744918346405029,-0.07263219356536865,-0.5681922435760498,0.8858716487884522,-0.6718766689300537,0.4951772391796112,0.546001672744751,0.3090915381908417,0.21167099475860597,-0.9104745388031006,-0.4511491060256958,-0.3623095750808716,-0.5654256343841553,-0.8830113410949707,-0.6786274909973145,-0.1277409791946411,0.4783324897289276,0.5771565437316895,-0.7573916912078857,-0.07386410236358643,-0.47482573986053469,0.6876218318939209,0.2814330756664276,0.9403994083404541,0.7550737857818604,-0.5960640907287598,-0.492223858833313,-0.652024507522583,0.5691218376159668,0.7548396587371826,0.11380469799041748,-0.6955389976501465,0.84305739402771,0.5385043621063232,-0.3729814291000366,0.4131943881511688,0.4438764750957489,0.9851744174957275,-0.20182716846466065,-0.5924861431121826,-0.527789831161499,0.9752695560455322,-0.5551247596740723,0.716975212097168,0.03179943561553955,0.6839194297790527,0.4273075759410858,-0.8509340286254883,-0.49125587940216067,-0.7860698699951172,-0.5470738410949707,0.9269211292266846,0.8451731204986572,-0.4784277677536011,-0.9679982662200928,-0.12774455547332765,-0.5468449592590332,-0.12014114856719971,-0.6455807685852051,-0.9678955078125,-0.6330735683441162,0.9640467166900635,-0.8347530364990234,0.7716066837310791,-0.7173264026641846,-0.3462589979171753,0.11859452724456787,-0.7650871276855469,-0.051358580589294437,-0.1510981321334839,0.2625112235546112,0.7045247554779053,-0.6261425018310547,-0.19581949710845948,-0.6195070743560791,0.07783591747283936]},{"fitness":0.36438995599746706,"currentPopulationID":0,"currentEntityID":6,"parentPopulationID":-1,"parentEntityID":-1,"layers":[9,15,5,1],"flattendedWeights":[-0.5904977321624756,-0.4639540910720825,-0.8952298164367676,-0.8616273403167725,0.9613065719604492,-0.5762467384338379,0.46814557909965517,-0.8403897285461426,-0.25547850131988528,-0.2659817934036255,0.9484548568725586,0.13010656833648683,-0.6792891025543213,0.237695574760437,-0.48120272159576418,0.44518372416496279,0.7645547389984131,0.8916146755218506,0.18406593799591065,-0.15611541271209718,-0.6988646984100342,0.859576940536499,-0.8848085403442383,-0.9009063243865967,-0.7207655906677246,0.6296432018280029,-0.9218647480010986,-0.9828000068664551,0.24088609218597413,-0.13079893589019776,-0.10180294513702393,0.5368330478668213,-0.12887275218963624,0.9796507358551025,-0.4544612169265747,0.30162712931632998,0.18376410007476808,-0.12088048458099365,-0.18596088886260987,-0.21552836894989015,-0.07170069217681885,0.15440666675567628,0.8944790363311768,-0.33860766887664797,-0.9634242057800293,0.39215680956840517,-0.7794344425201416,-0.7841269969940186,-0.3789142370223999,0.5384094715118408,-0.079353928565979,-0.5112552642822266,-0.35476744174957278,0.82138991355896,0.9210972785949707,-0.23735272884368897,0.8141884803771973,0.012708544731140137,0.8252990245819092,0.2797400653362274,-0.9286792278289795,0.2917170226573944,0.13304221630096436,-0.9138584136962891,0.8224837779998779,-0.3281618356704712,-0.6055872440338135,-0.28305041790008547,-0.6447288990020752,-0.2320622205734253,0.3288528621196747,0.7002191543579102,-0.6705937385559082,0.1259065866470337,-0.29059135913848879,0.5589053630828857,-0.13162720203399659,0.0703045129776001,0.36809465289115908,0.028621315956115724,0.8152318000793457,-0.9215562343597412,0.9042580127716065,-0.28884923458099368,-0.06752550601959229,0.2776484191417694,-0.2582465410232544,0.8224022388458252,0.9064393043518066,0.0273820161819458,0.7007439136505127,0.9985334873199463,0.09817564487457276,0.16120851039886475,-0.9322378635406494,0.22128665447235108,0.2643117606639862,-0.38218629360198977,-0.19056880474090577,0.14883220195770265,0.37696096301078799,-0.2376316785812378,0.7519457340240479,-0.018642306327819825,0.18970882892608643,0.37876150012016299,-0.02797234058380127,0.4875940978527069,-0.41519033908843996,0.35884377360343935,0.410387247800827,-0.5558574199676514,-0.2969433069229126,0.5496082305908203,0.9842929840087891,0.2635609805583954,-0.4536656141281128,0.31102487444877627,-0.5758609771728516,0.44905397295951846,-0.5950539112091065,0.35552331805229189,0.04019272327423096,-0.8529410362243652,0.19293153285980225,0.24066340923309327,0.2270277738571167,0.9054267406463623,-0.38517963886260989,0.22626793384552003,0.9130446910858154,-0.5018630027770996,0.4061872661113739,-0.21926414966583253,-0.3748437166213989,-0.9737343788146973,-0.83394455909729,-0.5336425304412842,0.7036087512969971,-0.45440709590911868,0.7027595043182373,0.3612379729747772,-0.2543402910232544,-0.1903291940689087,0.36113664507865908,-0.694709300994873,0.810410737991333,0.23583638668060304,-0.9643595218658447,0.5244264602661133,0.15559804439544679,0.6265759468078613,-0.7176029682159424,-0.6799418926239014,0.6245148181915283,-0.7538626194000244,0.2827150523662567,-0.6779758930206299,-0.20025384426116944,-0.14445388317108155,-0.5572402477264404,0.6394402980804443,-0.5183961391448975,-0.006654620170593262,0.5556364059448242,-0.07232415676116944,0.6536431312561035,-0.7784326076507568,0.24891746044158936,0.0030308961868286134,-0.9469559192657471,-0.798447847366333,-0.7318172454833984,0.22786438465118409,0.7081043720245361,0.3165120780467987,0.007173418998718262,-0.9737489223480225,0.3076314628124237,0.8432705402374268,-0.783315896987915,0.06030619144439697,-0.7829012870788574,0.6333715915679932,-0.7484772205352783,0.876755952835083,0.817427396774292,-0.8555636405944824,0.04618251323699951,0.18410885334014893,0.6517078876495361,0.873528242111206,-0.14412295818328858,0.09426343441009522,-0.06585514545440674,0.4678313434123993,0.4954969584941864,-0.40722334384918215,0.9920675754547119,-0.6984095573425293,0.38049933314323428,0.842540979385376,-0.7534372806549072,0.3198067843914032,-0.9376602172851563,-0.28719818592071535,-0.9824540615081787,-0.8477671146392822,0.5503323078155518,0.7688415050506592,-0.09258139133453369,0.37023088335990908,-0.209847092628479,0.9760196208953857,-0.2893761396408081]},{"fitness":0.4211507737636566,"currentPopulationID":0,"currentEntityID":7,"parentPopulationID":-1,"parentEntityID":-1,"layers":[9,15,5,1],"flattendedWeights":[0.944920539855957,-0.4663735628128052,0.9024548530578613,0.8704643249511719,-0.21195876598358155,0.03429138660430908,-0.7105209827423096,0.641404390335083,0.42300936579704287,-0.8314294815063477,-0.72810959815979,0.44965240359306338,-0.06688082218170166,0.0680457353591919,-0.09910333156585694,-0.3149358034133911,-0.17384040355682374,-0.8755733966827393,0.6855618953704834,0.7966699600219727,0.3594002425670624,-0.20156824588775636,0.8972852230072022,0.821587085723877,0.9063248634338379,-0.36834681034088137,0.6156313419342041,-0.5055451393127441,0.641991376876831,-0.7152032852172852,0.44638821482658389,-0.5820388793945313,-0.9863090515136719,0.5138745307922363,0.9114487171173096,-0.6790974140167236,-0.7512097358703613,0.23397886753082276,-0.10080206394195557,-0.10037624835968018,0.20297563076019288,0.603140115737915,-0.8136210441589356,0.11285030841827393,-0.10077488422393799,-0.18116986751556397,-0.321130633354187,0.41086265444755556,0.4725756347179413,0.1155320405960083,0.647458553314209,-0.8960785865783691,-0.04184091091156006,-0.6270871162414551,-0.33407366275787356,-0.41914474964141848,0.8828623294830322,0.6930112838745117,-0.5272603034973145,-0.19703543186187745,-0.022070765495300294,-0.12212049961090088,-0.3744615316390991,-0.9064450263977051,-0.6744625568389893,0.06658279895782471,-0.028838753700256349,-0.40079033374786379,0.756967306137085,0.3789505660533905,0.607508659362793,-0.7525553703308106,-0.1573408842086792,-0.8489341735839844,0.20141327381134034,-0.6326756477355957,-0.05875265598297119,-0.9717259407043457,-0.04916417598724365,0.6585700511932373,0.499407023191452,0.09662759304046631,0.22511255741119386,-0.6790380477905273,-0.15820705890655518,0.6553337574005127,-0.4934042692184448,0.7512545585632324,0.7173111438751221,0.34557220339775088,0.1426304578781128,0.25891992449760439,-0.8169295787811279,0.19332802295684815,0.42057082056999209,0.04009521007537842,-0.8751397132873535,-0.9144816398620606,0.2977616488933563,0.3292524516582489,-0.46507298946380618,0.2892739474773407,-0.452677845954895,0.009073853492736817,-0.95943284034729,0.8028044700622559,-0.8679733276367188,-0.14289653301239015,-0.06748998165130615,-0.053229689598083499,0.6621518135070801,0.556093692779541,0.5168273448944092,0.719611406326294,0.9610023498535156,0.9385991096496582,-0.8993129730224609,0.665839672088623,-0.7878453731536865,-0.40687644481658938,-0.01123654842376709,-0.10580480098724365,-0.9193143844604492,-0.42700326442718508,0.1459294557571411,0.897545576095581,-0.379980206489563,0.7138724327087402,-0.4872967004776001,-0.08022654056549072,0.5720674991607666,0.5377938747406006,0.7586262226104736,-0.2954460382461548,0.4463939368724823,0.1401153802871704,0.39476439356803896,-0.44381439685821535,0.5312440395355225,-0.8154230117797852,0.3331567943096161,-0.720186710357666,-0.31051766872406008,0.15662109851837159,-0.8113842010498047,0.37552282214164736,-0.049364447593688968,0.2736065089702606,0.6380281448364258,0.8338704109191895,-0.5525453090667725,0.16141021251678468,0.8414602279663086,0.5004477500915527,0.35872575640678408,-0.3107360601425171,-0.5292251110076904,0.7392511367797852,-0.0434035062789917,-0.5739340782165527,0.5711009502410889,-0.050753235816955569,-0.20309126377105714,-0.40291154384613039,-0.6112997531890869,-0.7396740913391113,-0.5635724067687988,-0.15110433101654054,0.3759462535381317,-0.9760029315948486,-0.7513666152954102,-0.2771376371383667,-0.111031174659729,-0.7739698886871338,-0.39499175548553469,0.004304051399230957,-0.8394217491149902,-0.4898785352706909,0.8566465377807617,0.33374807238578799,-0.0644146203994751,-0.2583960294723511,0.3925749957561493,-0.055999159812927249,0.8395986557006836,-0.48774993419647219,0.6074931621551514,-0.6807115077972412,-0.535578727722168,-0.0977104902267456,0.10073268413543701,-0.16936719417572022,-0.6968245506286621,0.014968037605285645,0.6477124691009522,0.6953763961791992,0.984503984451294,-0.47024214267730715,0.7376301288604736,0.4232895076274872,0.016566872596740724,0.6498079299926758,0.6373922824859619,-0.00222933292388916,-0.6710224151611328,-0.2758749723434448,-0.21886026859283448,0.8672511577606201,0.6510140895843506,0.38356897234916689,-0.662029504776001,0.8450512886047363,0.12098038196563721,-0.45107948780059817,-0.8757004737854004]},{"fitness":0.3706590235233307,"currentPopulationID":0,"currentEntityID":8,"parentPopulationID":-1,"parentEntityID":-1,"layers":[9,15,5,1],"flattendedWeights":[0.5186572074890137,0.6422569751739502,-0.943821907043457,0.8889145851135254,0.004994750022888184,0.36003419756889346,-0.28647100925445559,0.8043074607849121,-0.6587715148925781,-0.28709328174591067,-0.9087929725646973,-0.4729982614517212,-0.9082603454589844,0.3171341121196747,-0.8668210506439209,-0.32182300090789797,-0.4873892068862915,-0.25811541080474856,-0.5268354415893555,0.13540828227996827,0.7551352977752686,-0.7176778316497803,0.42517682909965517,-0.4652363061904907,-0.03602492809295654,0.6583359241485596,-0.6766300201416016,0.03724992275238037,0.9262943267822266,0.9985470771789551,0.5874338150024414,-0.4174882173538208,0.2280796766281128,0.8952610492706299,-0.5484163761138916,0.34118935465812685,-0.960930585861206,0.19192254543304444,0.5776164531707764,-0.5700407028198242,0.5999197959899902,-0.8731396198272705,0.8266985416412354,-0.8676431179046631,-0.7109549045562744,-0.25314342975616457,-0.5857188701629639,0.7876646518707275,-0.03492319583892822,0.9177958965301514,0.39204713702201846,-0.42044031620025637,-0.5329151153564453,-0.4217120409011841,0.32880493998527529,0.8985865116119385,-0.3735607862472534,-0.5326406955718994,-0.876776933670044,-0.34199750423431399,-0.5526564121246338,0.011639952659606934,-0.5254433155059815,-0.12899839878082276,0.26166602969169619,0.9382431507110596,-0.06739795207977295,0.8473196029663086,-0.5120623111724854,-0.026017308235168458,0.4086277186870575,-0.07052958011627197,-0.08749854564666748,0.28835174441337588,0.09449899196624756,-0.3566552400588989,0.3003711402416229,0.6792881488800049,0.46025845408439639,0.194494366645813,-0.32820117473602297,0.9929580688476563,0.30362436175346377,-0.8665115833282471,-0.5601246356964111,-0.7207136154174805,-0.7469112873077393,-0.08683431148529053,-0.8948147296905518,-0.8804571628570557,0.06691014766693115,-0.5634000301361084,0.39623209834098818,-0.7119007110595703,-0.18461310863494874,-0.6360728740692139,-0.3531574010848999,-0.45542800426483157,0.606705904006958,-0.8987140655517578,0.6632702350616455,-0.18072879314422608,0.8181614875793457,-0.8178684711456299,0.25189849734306338,0.5723557472229004,-0.9300253391265869,0.5118627548217773,-0.7009456157684326,0.8394091129302979,0.4873764216899872,0.41959425806999209,0.6134462356567383,0.4338190257549286,-0.33799707889556887,0.4080354869365692,-0.8717830181121826,-0.9352531433105469,-0.04455554485321045,-0.7336585521697998,-0.7230260372161865,-0.18400561809539796,-0.6403601169586182,-0.8637094497680664,-0.2920736074447632,-0.951221227645874,0.2672228515148163,0.36118051409721377,-0.714714765548706,0.3704335391521454,-0.5032892227172852,-0.6664884090423584,-0.7273743152618408,0.8962321281433106,-0.31746208667755129,-0.9349174499511719,0.4888264834880829,0.7624237537384033,-0.3102377653121948,0.9501783847808838,0.6080262660980225,-0.04735696315765381,-0.3163033723831177,-0.11197412014007569,0.26155993342399599,0.1792818307876587,-0.493491530418396,0.8277051448822022,-0.8314039707183838,0.8735167980194092,0.6788873672485352,0.46486636996269228,-0.07055485248565674,0.4102141559123993,-0.9881460666656494,0.1043621301651001,-0.7557902336120606,0.5350320339202881,-0.22941195964813233,0.777062177658081,0.08778965473175049,-0.3977745771408081,-0.3373149633407593,0.38228747248649599,-0.4358712434768677,0.649275541305542,0.5927600860595703,-0.4489539861679077,0.4963705241680145,-0.8808701038360596,0.22430145740509034,-0.7941799163818359,0.4584967792034149,-0.731900691986084,-0.4714733362197876,-0.033266425132751468,0.8843071460723877,-0.44254910945892336,-0.10510647296905518,0.06228435039520264,-0.09054648876190186,0.6008243560791016,-0.7132649421691895,-0.1620882749557495,-0.3769146203994751,-0.46397435665130618,0.02691519260406494,0.7731661796569824,0.20541322231292725,0.27145859599113467,-0.11330878734588623,0.929833173751831,-0.7622389793395996,-0.5584850311279297,0.10557162761688233,0.1115494966506958,-0.28967607021331789,0.07667005062103272,-0.02275073528289795,-0.18911659717559815,0.6571745872497559,-0.9494385719299316,0.6528918743133545,0.07226908206939697,0.7749528884887695,-0.7033309936523438,0.6056041717529297,-0.47230470180511477,-0.5790209770202637,0.8979976177215576,0.5228157043457031,-0.08383476734161377,-0.3239477872848511,-0.5348777770996094,0.8135011196136475]},{"fitness":0.4223073124885559,"currentPopulationID":0,"currentEntityID":9,"parentPopulationID":-1,"parentEntityID":-1,"layers":[9,15,5,1],"flattendedWeights":[0.7735497951507568,0.42737480998039248,0.9641695022583008,0.9670062065124512,0.8303039073944092,0.9645354747772217,-0.8000171184539795,-0.1774507761001587,-0.18837225437164308,-0.2283562421798706,0.28076860308647158,0.341966837644577,-0.3202873468399048,0.7847990989685059,-0.7000789642333984,-0.6584303379058838,0.18313682079315186,-0.26543939113616946,-0.7980458736419678,-0.14094436168670655,0.7711122035980225,0.68998122215271,-0.80234694480896,0.9304966926574707,-0.37834393978118899,-0.2817889451980591,-0.019726157188415529,-0.30136239528656008,0.02631556987762451,-0.43684089183807375,-0.08504927158355713,0.7655644416809082,0.8478147983551025,0.5986232757568359,0.8826961517333984,-0.4051300287246704,-0.5940437316894531,-0.030833125114440919,-0.3615022897720337,-0.3873699903488159,0.978492021560669,0.7375047206878662,-0.5064668655395508,0.6177620887756348,0.07016408443450928,-0.9370739459991455,-0.33859097957611086,-0.2156609296798706,-0.7429940700531006,-0.5066163539886475,0.48258206248283389,0.001269698143005371,0.5974850654602051,-0.8912982940673828,0.6743838787078857,0.5894894599914551,-0.6950535774230957,-0.27964603900909426,0.38040706515312197,-0.40844500064849856,-0.6561317443847656,-0.5739707946777344,-0.7242560386657715,0.6154296398162842,0.295549601316452,0.4697880446910858,-0.6283373832702637,-0.5893464088439941,0.6464884281158447,-0.5525126457214356,0.4101214110851288,-0.9136011600494385,-0.9674472808837891,0.5098721981048584,-0.7843592166900635,-0.9838616847991943,0.23341834545135499,-0.20569169521331788,0.5252785682678223,0.09482848644256592,0.8694229125976563,0.6153912544250488,0.3464026153087616,0.5890300273895264,-0.028731703758239747,0.2219909429550171,0.6747212409973145,0.36307618021965029,-0.07079946994781494,0.10017049312591553,0.05225217342376709,0.09889256954193115,0.7560529708862305,0.024925827980041505,0.2193385362625122,-0.10629475116729737,-0.0018445253372192383,0.5619769096374512,0.23208129405975343,0.5142080783843994,-0.811394453048706,-0.1349731683731079,-0.7681653499603272,0.8951168060302734,-0.7702159881591797,-0.7584831714630127,-0.8665671348571777,0.6692874431610107,0.023963093757629396,-0.09645521640777588,-0.08136427402496338,0.5561873912811279,-0.49270689487457278,0.4982092082500458,-0.3244410753250122,0.0010536909103393555,0.21964991092681886,-0.14947259426116944,0.786942720413208,-0.4990025758743286,0.599137544631958,-0.42605340480804446,-0.5489654541015625,-0.6825993061065674,0.32997581362724306,0.305892676115036,-0.05871617794036865,0.40047022700309756,0.5402865409851074,0.9174070358276367,-0.5128707885742188,-0.4186590909957886,0.18093550205230714,-0.05871737003326416,0.6861698627471924,0.8021724224090576,0.4170698821544647,0.22684228420257569,-0.30567800998687746,0.6901960372924805,-0.12661802768707276,-0.23912298679351808,0.01146852970123291,0.6373727321624756,-0.9331369400024414,-0.9610052108764648,-0.6173825263977051,0.10534060001373291,-0.7705302238464356,-0.5927472114562988,0.2653143107891083,0.37892886996269228,-0.046466946601867679,0.8588604927062988,0.005415558815002441,0.2454899549484253,-0.2764805555343628,-0.9926700592041016,0.5846209526062012,0.26515671610832217,-0.4480541944503784,0.4084605872631073,-0.5453557968139648,-0.6095993518829346,-0.9110832214355469,-0.3315514326095581,0.6913573741912842,-0.20845043659210206,0.3919980227947235,-0.8336350917816162,0.798332929611206,-0.12272155284881592,0.43329545855522158,-0.25181853771209719,-0.7245895862579346,-0.6777136325836182,-0.6564242839813232,0.3840462863445282,-0.12181055545806885,0.5419614315032959,0.41567370295524599,0.9962835311889648,0.24869120121002198,0.5736126899719238,0.4151148498058319,0.9525876045227051,-0.7829558849334717,0.43074533343315127,0.18970787525177003,-0.0062340497970581059,0.10407578945159912,0.7941074371337891,-0.9455208778381348,0.08403885364532471,0.5105075836181641,0.6741948127746582,0.7739071846008301,0.1484595537185669,-0.15527689456939698,-0.4453660249710083,-0.8573794364929199,-0.5217685699462891,-0.8545889854431152,0.6485874652862549,0.666602373123169,0.0019849538803100588,-0.18266713619232179,0.9549202919006348,0.984299898147583,-0.41830408573150637,0.4191713035106659,-0.8819611072540283,0.9814450740814209,-0.014258027076721192,-0.9214675426483154]},{"fitness":0.40997880697250368,"currentPopulationID":0,"currentEntityID":10,"parentPopulationID":-1,"parentEntityID":-1,"layers":[9,15,5,1],"flattendedWeights":[-0.21918952465057374,0.37195512652397158,-0.9545493125915527,0.10508692264556885,-0.02687704563140869,0.005750536918640137,-0.27864205837249758,0.4213256537914276,0.7272629737854004,0.02118360996246338,0.9735255241394043,-0.7704343795776367,-0.2143343687057495,0.031551480293273929,-0.6212072372436523,0.25206896662712099,-0.9799098968505859,-0.2707263231277466,-0.8541176319122315,-0.6325433254241943,-0.18201887607574464,-0.38466179370880129,-0.24133360385894776,-0.5550172328948975,-0.817523717880249,-0.821312665939331,0.7227258682250977,0.557152509689331,-0.6894423961639404,0.47028419375419619,-0.7474966049194336,-0.19954407215118409,-0.1526414155960083,0.5505881309509277,-0.46896660327911379,0.10804975032806397,-0.6442046165466309,0.1211620569229126,0.46829769015312197,-0.3694530725479126,0.16376030445098878,-0.8814475536346436,-0.6588964462280273,-0.28935182094573977,-0.134222149848938,0.620633602142334,-0.3215831518173218,-0.46194326877593996,0.8257107734680176,-0.665062665939331,-0.1241689920425415,-0.7643702030181885,0.04677402973175049,-0.6004073619842529,0.1820911169052124,-0.12666785717010499,0.08521163463592529,0.508213996887207,-0.3069671392440796,-0.13519752025604249,-0.7878355979919434,-0.9648358821868897,0.919325590133667,0.4078995883464813,-0.2735813856124878,0.27649685740470889,-0.44699132442474368,0.22370541095733643,-0.6192457675933838,0.2240082025527954,0.8566291332244873,-0.7527365684509277,0.981330394744873,-0.04265463352203369,-0.6954946517944336,-0.18913066387176515,-0.6207079887390137,-0.857384204864502,0.10216939449310303,0.3943299949169159,-0.7845852375030518,0.7579736709594727,0.007990479469299317,-0.02310502529144287,0.5354559421539307,-0.9033522605895996,0.6522727012634277,0.8465063571929932,0.0692209005355835,0.6933994293212891,0.5380818843841553,-0.58441162109375,-0.3025017976760864,0.28968116641044619,-0.10142552852630615,-0.04116261005401611,0.6588411331176758,0.6661076545715332,0.7408390045166016,0.5601882934570313,0.39537951350212099,-0.06844675540924072,-0.5476095676422119,-0.7354168891906738,0.22208678722381593,0.929314374923706,-0.01997220516204834,0.003965020179748535,-0.049355387687683108,0.4926929175853729,-0.6103236675262451,-0.7767965793609619,-0.08714807033538819,0.3800158202648163,-0.11639106273651123,0.7289724349975586,-0.10443699359893799,-0.7088050842285156,0.46107980608940127,-0.09918296337127686,-0.9144928455352783,-0.010256171226501465,-0.3570784330368042,0.7261412143707275,-0.9722821712493897,0.04160487651824951,0.7437052726745606,-0.6941742897033691,-0.34455573558807375,0.8263685703277588,0.24603569507598878,0.5251977443695068,-0.255656361579895,-0.8534102439880371,-0.038272976875305179,0.5109190940856934,-0.7635369300842285,-0.30354034900665285,0.8387343883514404,-0.21473586559295655,-0.08923304080963135,-0.3095930814743042,0.2671808898448944,-0.9321200847625732,0.2715878188610077,-0.4906569719314575,-0.6649980545043945,-0.057480692863464358,-0.5782995223999023,-0.38273942470550539,0.5321192741394043,-0.015340685844421387,0.7989048957824707,0.44547173380851748,-0.1252678632736206,0.20548665523529054,-0.8285505771636963,-0.9929313659667969,-0.8347740173339844,-0.40860140323638918,-0.24437415599822999,0.7381284236907959,-0.8403189182281494,-0.02649080753326416,0.2217468023300171,0.2723056972026825,0.4707333743572235,-0.21226537227630616,0.6853218078613281,-0.25576484203338625,-0.20840442180633546,0.23129403591156007,-0.8360481262207031,-0.09987747669219971,0.9898231029510498,-0.6076178550720215,0.21993649005889893,-0.8724160194396973,-0.7364590167999268,-0.1738032102584839,-0.2790616750717163,-0.3447483777999878,0.5080244541168213,-0.5856106281280518,0.982309103012085,-0.5425059795379639,-0.2893308401107788,0.18138468265533448,0.5691893100738525,0.22170865535736085,0.98392653465271,0.1726292371749878,-0.060077548027038577,0.36053892970085146,-0.7828669548034668,0.1651524305343628,0.5490615367889404,0.9359292984008789,-0.06776130199432373,0.18185770511627198,0.6238217353820801,0.7314701080322266,-0.10943400859832764,0.8894209861755371,0.4775030314922333,-0.5217564105987549,0.5225164890289307,0.2996375262737274,0.1524564027786255,-0.6044087409973145,-0.2888139486312866,0.9390716552734375,-0.07350575923919678,-0.016749978065490724,0.27164265513420107]},{"fitness":0.3924271762371063,"currentPopulationID":0,"currentEntityID":11,"parentPopulationID":-1,"parentEntityID":-1,"layers":[9,15,5,1],"flattendedWeights":[0.5962269306182861,-0.05471169948577881,0.6458394527435303,-0.1674896478652954,-0.21172606945037843,-0.10801303386688233,-0.5252659320831299,-0.8529069423675537,-0.444574236869812,-0.12414610385894776,0.8784172534942627,0.32564470171928408,-0.33088934421539309,-0.7979891300201416,0.8358581066131592,-0.3728522062301636,0.6467585563659668,-0.15542280673980714,0.9126780033111572,0.48393914103507998,0.8388383388519287,-0.8194601535797119,-0.2374666929244995,-0.7120509147644043,-0.5866093635559082,-0.33238399028778078,0.84332275390625,-0.4377189874649048,0.8401758670806885,-0.12736618518829347,0.05382668972015381,0.4858264625072479,-0.8902859687805176,0.35760971903800967,0.35906288027763369,0.07335078716278076,0.42020127177238467,-0.9708883762359619,0.40187665820121767,-0.31252801418304446,-0.32916462421417239,0.9912164211273193,0.20466196537017823,-0.5948359966278076,-0.24348437786102296,-0.4245091676712036,0.7766847610473633,0.6883454322814941,0.11092221736907959,0.10781419277191162,0.618323564529419,-0.9329006671905518,0.9534389972686768,0.7638359069824219,-0.8456897735595703,-0.45802152156829836,-0.03404128551483154,-0.9262387752532959,-0.7178349494934082,0.9960944652557373,0.2660019099712372,-0.8829536437988281,0.4990100562572479,0.043871283531188968,-0.1273125410079956,0.7088243961334229,-0.9191069602966309,0.7978522777557373,0.6764178276062012,0.8521678447723389,-0.866175651550293,-0.6019058227539063,0.9837369918823242,0.7116625308990479,-0.3332332372665405,0.09461748600006104,0.2807464301586151,-0.6356942653656006,0.40361377596855166,-0.3234189748764038,0.8773367404937744,-0.6376645565032959,0.5768544673919678,0.9085052013397217,0.14857208728790284,-0.41819679737091067,0.8281722068786621,0.7342555522918701,-0.6780190467834473,0.6857426166534424,0.19756019115447999,-0.5066583156585693,0.710491418838501,0.5049700736999512,-0.5692880153656006,0.35593387484550478,-0.7405979633331299,-0.9487090110778809,-0.3592308759689331,0.43494221568107607,0.49793311953544619,-0.05434882640838623,0.004521012306213379,0.5352604389190674,0.5179834365844727,0.5752873420715332,0.008526444435119629,0.03928196430206299,0.2179476022720337,0.06659996509552002,-0.26897943019866946,0.9105653762817383,-0.8175995349884033,0.26294204592704775,-0.6993894577026367,0.36318132281303408,-0.720613956451416,-0.7107322216033936,-0.4699589014053345,0.6019480228424072,-0.8935060501098633,-0.551689863204956,-0.553349494934082,0.27045413851737978,-0.24285900592803956,-0.926877498626709,0.359112948179245,0.6554281711578369,-0.992877721786499,-0.7970690727233887,-0.8026325702667236,-0.6727011203765869,0.5973777770996094,0.11276113986968994,-0.9240133762359619,0.6021952629089356,0.9914157390594482,0.5778465270996094,-0.03297626972198486,0.07309162616729737,-0.8762936592102051,-0.4099527597427368,0.6668994426727295,-0.3300691843032837,-0.25407326221466067,0.1400068998336792,-0.5465419292449951,-0.7436075210571289,-0.7967112064361572,0.27982231974601748,-0.024048209190368654,0.9866549968719482,0.004426836967468262,-0.25055992603302,0.5228297710418701,0.8404500484466553,0.6900904178619385,0.7466487884521484,-0.763080358505249,0.5114328861236572,0.3851017653942108,0.9682683944702148,-0.8192932605743408,-0.31073033809661868,-0.9631767272949219,0.20823585987091065,-0.1436401605606079,-0.34492623805999758,-0.7909805774688721,-0.32008492946624758,-0.15174686908721925,-0.8713188171386719,-0.31503355503082278,0.8553178310394287,0.31490179896354678,0.5845663547515869,-0.697479248046875,0.6135938167572022,-0.35400688648223879,0.7705080509185791,-0.3680025339126587,-0.8903360366821289,-0.4708768129348755,0.2799541652202606,-0.8342499732971191,0.3334791362285614,0.6083698272705078,-0.5825152397155762,-0.8162891864776611,-0.40405595302581789,-0.5090863704681397,0.9858970642089844,-0.8123080730438232,0.6328818798065186,-0.5903563499450684,-0.258151650428772,0.3799280822277069,-0.4662736654281616,-0.02526557445526123,0.4912223517894745,0.07093584537506104,-0.30836403369903567,0.31895825266838076,0.14277398586273194,-0.8979132175445557,-0.39166438579559328,-0.10201895236968994,0.08875930309295654,-0.8083488941192627,0.1124352216720581,0.39973685145378115,0.06749165058135987,-0.9119625091552734,0.9961068630218506,-0.14224755764007569]},{"fitness":0.3876549005508423,"currentPopulationID":0,"currentEntityID":12,"parentPopulationID":-1,"parentEntityID":-1,"layers":[9,15,5,1],"flattendedWeights":[-0.9735026359558106,-0.8619654178619385,-0.6438524723052979,-0.6094310283660889,0.4503903090953827,0.8797721862792969,-0.39604294300079348,-0.18613946437835694,0.8447461128234863,0.4477390944957733,-0.8850457668304443,-0.46685731410980227,0.537344217300415,0.042495131492614749,0.11679661273956299,0.20662939548492433,0.359004944562912,0.8550796508789063,-0.3585911989212036,0.8973519802093506,-0.7508888244628906,0.9228804111480713,0.31201645731925967,0.6426408290863037,-0.9317786693572998,0.9444282054901123,0.23574292659759522,0.6713182926177979,0.08025801181793213,-0.2165607213973999,0.781362771987915,0.8855876922607422,0.08303821086883545,-0.105476975440979,-0.37350738048553469,0.31305429339408877,0.9597928524017334,0.6090233325958252,-0.16080200672149659,-0.5217688083648682,-0.608428955078125,-0.04310929775238037,-0.7136678695678711,-0.8555057048797607,-0.5504579544067383,-0.7778952121734619,-0.7756829261779785,0.7603576183319092,-0.6691775321960449,-0.3354915380477905,0.7523999214172363,-0.07429802417755127,0.10873734951019287,-0.43745529651641848,0.07772982120513916,-0.7797822952270508,-0.884397029876709,-0.490597128868103,-0.947333812713623,-0.16453516483306886,0.2884971797466278,0.17929208278656007,0.5515041351318359,-0.971703290939331,-0.5742530822753906,0.007312893867492676,-0.05883133411407471,-0.9768445491790772,-0.8182694911956787,-0.5985813140869141,-0.8351356983184815,-0.1605931520462036,0.7002923488616943,0.3470012843608856,0.10621631145477295,0.4178638160228729,0.12036049365997315,-0.18302476406097413,0.62941575050354,-0.1340399980545044,-0.7907836437225342,-0.971954345703125,0.04643428325653076,0.2177678346633911,-0.8130226135253906,-0.6721274852752686,-0.4659768342971802,-0.04365265369415283,0.09195244312286377,0.963080883026123,0.042552828788757327,0.9115200042724609,-0.9056470394134522,0.971599817276001,0.6083352565765381,0.3945629298686981,-0.37412822246551516,0.12075150012969971,0.6235628128051758,-0.9708185195922852,0.2855829894542694,0.35582706332206728,0.2752687633037567,-0.8548243045806885,0.25093719363212588,-0.487568736076355,-0.734607458114624,-0.19472277164459229,-0.7191245555877686,0.6588897705078125,-0.7855072021484375,-0.9919514656066895,-0.13637793064117433,-0.1854914426803589,0.777745246887207,0.7458438873291016,-0.4562174081802368,0.696582555770874,0.5162796974182129,0.6585328578948975,-0.42947089672088625,0.6127142906188965,0.9733214378356934,0.7588536739349365,0.8259336948394775,-0.7733244895935059,0.6454305648803711,0.6070821285247803,-0.5741193294525147,-0.8731198310852051,0.859891414642334,-0.34232890605926516,0.2698523700237274,0.17710483074188233,-0.9952573776245117,0.742774248123169,0.44893309473991396,0.09991824626922608,0.756777286529541,-0.848341703414917,-0.9279935359954834,0.17796432971954347,-0.8464460372924805,0.8890981674194336,-0.5291745662689209,-0.34871232509613039,-0.9396688938140869,-0.3957277536392212,0.125296950340271,-0.3364983797073364,-0.5875515937805176,0.22126281261444093,-0.43429839611053469,-0.7308793067932129,0.4687521159648895,-0.6970410346984863,-0.8292858600616455,0.22862303256988526,-0.7625112533569336,-0.004768490791320801,-0.025348544120788575,-0.25653374195098879,0.9072206020355225,-0.1894434690475464,-0.7087876796722412,0.47246262431144717,0.7747514247894287,0.4688586890697479,0.3899483382701874,0.21754515171051026,0.6643753051757813,-0.47736847400665285,0.9959025382995606,0.8265409469604492,0.30984899401664736,0.08253014087677002,-0.3349088430404663,0.6085085868835449,0.09037458896636963,-0.9928872585296631,0.5859425067901611,-0.25973618030548098,0.010613322257995606,0.6121735572814941,0.6240289211273193,0.43656131625175478,0.8357288837432861,0.03166615962982178,0.8857519626617432,-0.8287549018859863,0.05024731159210205,0.6695330142974854,0.0985952615737915,-0.8217225074768066,-0.7774374485015869,0.12252247333526612,-0.41113412380218508,-0.1605168581008911,0.04365336894989014,-0.6614210605621338,-0.37498676776885989,0.850902795791626,0.6098666191101074,-0.21380937099456788,-0.8238496780395508,-0.7982370853424072,0.7920353412628174,-0.2772942781448364,-0.43227970600128176,-0.23267114162445069,-0.09518063068389893,0.5138723850250244,0.8830361366271973,0.8770143985748291,0.30217549204826357]},{"fitness":0.41238099336624148,"currentPopulationID":0,"currentEntityID":13,"parentPopulationID":-1,"parentEntityID":-1,"layers":[9,15,5,1],"flattendedWeights":[0.10248982906341553,-0.5119218826293945,-0.11767733097076416,-0.8830413818359375,-0.4404522180557251,-0.18933427333831788,-0.19065725803375245,0.8086225986480713,-0.1508389711380005,0.9145445823669434,0.45694276690483096,0.9822332859039307,0.6459522247314453,0.4800967872142792,0.2307494878768921,-0.45529472827911379,0.4435674846172333,-0.2906755208969116,-0.5375049114227295,-0.6944947242736816,0.05279743671417236,-0.0381087064743042,0.22623932361602784,-0.3165241479873657,0.7162425518035889,-0.37336742877960207,-0.8159134387969971,0.43175575137138369,-0.181144118309021,0.3664815127849579,-0.4228590726852417,0.0017968416213989258,0.22765862941741944,0.11616170406341553,0.0914386510848999,-0.49371635913848879,-0.4913414716720581,0.7167840003967285,0.09451687335968018,-0.7827296257019043,0.40317675471305849,0.15353190898895265,-0.8452403545379639,0.43195125460624697,-0.16511285305023194,-0.025995373725891115,-0.22423231601715089,-0.8224146366119385,-0.29461729526519778,0.09839785099029541,0.6019504070281982,-0.010468602180480957,0.46222183108329775,-0.30737006664276125,-0.8697161674499512,-0.6830475330352783,-0.5005662441253662,-0.15821325778961183,0.9863283634185791,-0.08249008655548096,-0.4108017683029175,-0.3120771646499634,-0.23640453815460206,-0.7365291118621826,-0.8355004787445068,-0.8378877639770508,0.26576706767082217,0.5557594299316406,0.2729193866252899,0.10005271434783936,0.4565405547618866,-0.10718166828155518,0.15198004245758058,-0.7933597564697266,0.34102365374565127,0.541877269744873,0.8095223903656006,-0.3913196325302124,-0.9876761436462402,0.2745225131511688,-0.5644183158874512,0.576789140701294,-0.7705221176147461,-0.04158651828765869,0.4640979468822479,-0.6947829723358154,0.7264299392700195,-0.6161799430847168,0.45780059695243838,-0.8995182514190674,0.6424777507781982,0.3063056170940399,0.573458194732666,0.17066943645477296,-0.5127475261688232,-0.4337517023086548,0.361742228269577,0.48439380526542666,0.9138567447662354,-0.7146596908569336,0.11364734172821045,0.19525492191314698,0.7042114734649658,-0.0008274316787719727,-0.7007477283477783,0.6887645721435547,0.766979455947876,0.7001845836639404,0.4275068938732147,-0.1922067403793335,0.07689416408538819,-0.028368115425109865,0.00722658634185791,0.09256970882415772,0.8074686527252197,-0.39941179752349856,0.7945735454559326,0.8792645931243897,0.3111409842967987,0.9599475860595703,0.37282559275627139,0.8393082618713379,0.852431058883667,-0.6816666126251221,-0.5024421215057373,-0.8362734317779541,0.2601923644542694,-0.7182645797729492,0.9142580032348633,-0.5022721290588379,0.24065816402435304,0.6718666553497315,-0.788719654083252,0.35378000140190127,-0.7713074684143066,-0.5274918079376221,-0.9308290481567383,-0.9991238117218018,-0.8588581085205078,0.6845724582672119,0.9490976333618164,-0.4281677007675171,-0.5616786479949951,-0.9453370571136475,-0.10529816150665283,-0.8891208171844482,-0.573188304901123,-0.9912624359130859,-0.3026355504989624,0.04443967342376709,0.9224941730499268,-0.5366833209991455,0.004814267158508301,0.5055291652679443,-0.9408752918243408,0.15766561031341554,-0.7972447872161865,0.6825437545776367,-0.3167070150375366,0.8088605403900147,0.4590015113353729,0.06251680850982666,-0.15992724895477296,-0.7775089740753174,-0.44159257411956789,0.3790569007396698,0.04133427143096924,-0.4650017023086548,0.943131685256958,0.2494739294052124,-0.08712327480316162,0.7074582576751709,-0.927647590637207,0.5420966148376465,-0.5540313720703125,0.022193074226379396,0.7769086360931397,-0.9401562213897705,-0.9132332801818848,-0.061785101890563968,-0.6425437927246094,-0.41723954677581789,-0.47496163845062258,0.09038650989532471,-0.6228992938995361,-0.44416654109954836,0.4004530608654022,0.8566832542419434,0.7616991996765137,0.31470510363578799,0.24819600582122804,-0.0864330530166626,-0.6683628559112549,0.8745601177215576,-0.36252009868621828,-0.5212278366088867,-0.31100594997406008,0.8608920574188232,-0.30009663105010989,-0.9390552043914795,-0.9557075500488281,0.737668514251709,-0.8719799518585205,0.07475054264068604,0.8709557056427002,-0.6105506420135498,-0.5215046405792236,-0.8916471004486084,-0.9656546115875244,-0.18244707584381104,-0.3365429639816284,0.771648645401001,0.8977329730987549,-0.058307766914367679,0.20389115810394288]},{"fitness":0.36175495386123659,"currentPopulationID":0,"currentEntityID":14,"parentPopulationID":-1,"parentEntityID":-1,"layers":[9,15,5,1],"flattendedWeights":[-0.04569590091705322,-0.3120800256729126,-0.24700534343719483,0.9598524570465088,-0.33125436305999758,-0.9555037021636963,0.7162213325500488,-0.118599534034729,0.5583868026733398,0.21887743473052979,0.4851245582103729,-0.5320725440979004,0.6888689994812012,0.22576987743377686,0.24879419803619386,0.26896020770072939,0.5080897808074951,-0.1372619867324829,-0.36645638942718508,-0.5477461814880371,0.6867067813873291,0.6801407337188721,0.4872264564037323,0.976757287979126,-0.1478968858718872,0.27558180689811709,-0.3346182107925415,-0.4784477949142456,0.10722076892852783,-0.6298253536224365,-0.9877996444702148,-0.8221631050109863,-0.4889563322067261,-0.3354696035385132,-0.40969955921173098,0.6932430267333984,0.7887520790100098,-0.13778364658355714,-0.2235316038131714,-0.151971697807312,0.505852460861206,-0.37045609951019289,-0.20275652408599854,-0.14823758602142335,0.6537082195281982,-0.6019115447998047,0.6979856491088867,-0.5992345809936523,-0.4705590009689331,-0.8892524242401123,-0.9951357841491699,0.7030849456787109,-0.08930504322052002,-0.2250899076461792,0.9399330615997315,0.9285480976104736,0.09820544719696045,-0.6453990936279297,-0.34855496883392336,0.7260699272155762,-0.7212924957275391,0.25197336077690127,-0.256435751914978,0.16845285892486573,0.483138769865036,0.7142655849456787,-0.1508702039718628,-0.5467691421508789,0.34430262446403506,-0.057674288749694827,0.6229965686798096,0.49442169070243838,0.8947818279266357,0.5746569633483887,0.31185290217399599,0.6716592311859131,0.9716384410858154,0.42644330859184267,0.18698036670684815,-0.4975985288619995,-0.28869855403900149,0.9147241115570068,-0.03134024143218994,-0.3111013174057007,0.026709437370300294,0.5025732517242432,-0.36441028118133547,-0.14105641841888429,0.452177494764328,0.6750278472900391,0.6993868350982666,-0.3479241132736206,-0.6585390567779541,-0.12127530574798584,0.5793850421905518,-0.3633326292037964,0.3560313880443573,-0.8426892757415772,-0.860281229019165,0.2316528558731079,-0.7937436103820801,-0.09089648723602295,0.38898441195487978,0.1375025510787964,0.40034219622612,-0.5403504371643066,-0.7484261989593506,-0.8860476016998291,-0.7141525745391846,0.03637564182281494,-0.7456557750701904,0.2460721731185913,-0.6602146625518799,0.015138506889343262,0.9671885967254639,-0.3158186674118042,0.5042226314544678,0.5639235973358154,0.28891894221305849,-0.5966832637786865,-0.8869976997375488,-0.36909186840057375,-0.29647862911224368,-0.9806609153747559,-0.1371058225631714,0.8764891624450684,-0.6501567363739014,-0.32874906063079836,0.27150484919548037,0.8045344352722168,0.5270488262176514,0.014416337013244629,0.6858522891998291,-0.9547572135925293,0.11261475086212158,-0.1813722848892212,-0.9098546504974365,0.601646900177002,-0.7268879413604736,0.35472676157951357,0.4339084327220917,0.1286858320236206,0.33353158831596377,-0.33581411838531496,-0.32797300815582278,-0.7169857025146484,-0.44592249393463137,0.7647204399108887,0.479065865278244,0.6099157333374023,-0.6891863346099854,0.8756062984466553,-0.615168571472168,0.2315434217453003,0.13889849185943604,-0.9108469486236572,-0.5515449047088623,-0.6963474750518799,-0.789567232131958,0.8445394039154053,0.6843571662902832,-0.35743916034698489,-0.8186948299407959,-0.8603847026824951,0.5184342861175537,0.6921381950378418,0.6891605854034424,0.15192711353302003,-0.3948453664779663,0.4009799659252167,0.9637196063995361,-0.6251885890960693,-0.8210687637329102,0.11712181568145752,-0.009694457054138184,-0.5286238193511963,0.25362321734428408,-0.9827377796173096,0.9930763244628906,-0.33973610401153567,-0.584444522857666,-0.5037643909454346,0.9176061153411865,-0.7910470962524414,-0.07540023326873779,-0.47724592685699465,0.39218398928642275,-0.7300097942352295,-0.2955836057662964,-0.788895845413208,-0.2769244909286499,0.14125597476959229,-0.8771960735321045,0.8515939712524414,-0.261863112449646,-0.9126443862915039,0.7437465190887451,0.803675651550293,0.29698511958122256,0.6538076400756836,-0.7324175834655762,0.17245757579803468,-0.4120098352432251,-0.7429986000061035,0.9817814826965332,-0.9124634265899658,-0.6397790908813477,0.590522289276123,0.1686464548110962,0.07896935939788819,0.14077270030975343,0.508387565612793,0.5473523139953613,0.9460551738739014,-0.8897049427032471]},{"fitness":0.47665590047836306,"currentPopulationID":0,"currentEntityID":15,"parentPopulationID":-1,"parentEntityID":-1,"layers":[9,15,5,1],"flattendedWeights":[0.33512088656425478,0.9487833976745606,0.46091553568840029,0.5482282638549805,-0.8469171524047852,-0.46613895893096926,-0.4704970121383667,0.5383965969085693,0.6206088066101074,-0.22195732593536378,-0.6785275936126709,0.19621455669403077,-0.06291091442108154,-0.7454748153686523,0.6386594772338867,0.8251535892486572,0.1396418809890747,0.37922403216362,-0.2597759962081909,-0.90470290184021,-0.08776724338531494,-0.6735372543334961,0.05194723606109619,0.5746912956237793,0.20627820491790772,0.36337849497795107,-0.5151245594024658,-0.9532496929168701,0.41979238390922549,0.7952468395233154,-0.7705516815185547,0.6576573848724365,-0.5010392665863037,-0.16735589504241944,0.8099472522735596,-0.008629679679870606,-0.39561378955841067,-0.6593399047851563,-0.8877527713775635,-0.8889832496643066,0.11533081531524658,0.504464864730835,-0.978438138961792,0.5864522457122803,-0.7876434326171875,0.6146302223205566,-0.12319982051849365,0.3945333659648895,0.16282737255096436,-0.30970513820648196,0.5006704330444336,0.6841833591461182,-0.7383990287780762,-0.022685885429382325,-0.5639016628265381,-0.44897162914276125,0.6413469314575195,-0.9551303386688232,0.48729583621025088,-0.8586773872375488,-0.6920146942138672,-0.3091851472854614,-0.3674067258834839,-0.07386410236358643,-0.4760357141494751,-0.02691185474395752,0.7997913360595703,-0.11569297313690186,0.7183146476745606,-0.4196978807449341,-0.8260440826416016,0.26062270998954775,0.025316834449768068,0.18367135524749757,-0.2244488000869751,-0.8050298690795898,-0.663637638092041,-0.5831263065338135,0.04159557819366455,-0.7083356380462647,0.4712841212749481,0.711876392364502,-0.8949389457702637,-0.3231261968612671,0.40396353602409365,0.6840524673461914,-0.005217909812927246,-0.8991458415985107,0.5383095741271973,0.6317212581634522,0.5889542102813721,0.841480016708374,0.8443846702575684,-0.5063905715942383,-0.8722293376922607,0.5731639862060547,0.6988973617553711,0.3973986804485321,0.7273194789886475,-0.9908607006072998,-0.31445610523223879,-0.34689581394195559,0.5622553825378418,-0.8961434364318848,0.2842726409435272,-0.42918550968170168,-0.21631133556365968,0.25079891085624697,0.5433940887451172,0.546048641204834,-0.6647155284881592,-0.7752106189727783,-0.9551324844360352,0.2251826524734497,-0.8397345542907715,-0.691939115524292,0.34227845072746279,-0.18397438526153565,-0.7791383266448975,0.3455214202404022,0.05660736560821533,-0.30785906314849856,0.2142544984817505,-0.12254559993743897,-0.6228454113006592,-0.3835209608078003,0.49194952845573428,0.09546172618865967,-0.057090163230895999,0.142220139503479,0.009582877159118653,0.9290165901184082,-0.16619789600372315,0.02735769748687744,0.9989743232727051,0.8789725303649902,-0.13650238513946534,-0.2883795499801636,-0.6488256454467773,-0.21165907382965089,-0.37827765941619875,0.526139497756958,0.6670997142791748,0.46457526087760928,-0.5016129016876221,-0.3292657136917114,0.7603719234466553,0.30157801508903506,0.6182706356048584,-0.025951504707336427,0.8233282566070557,-0.8876702785491943,-0.9259297847747803,-0.209936261177063,0.2745475471019745,-0.539954423904419,0.12759864330291749,0.18180525302886964,-0.04493105411529541,-0.2127906084060669,-0.48743736743927,0.4786836802959442,-0.02823960781097412,0.014921307563781739,0.3186154067516327,-0.6699910163879395,-0.7561893463134766,0.8335959911346436,0.621530294418335,0.5206141471862793,-0.4165409803390503,0.20522987842559815,-0.24186241626739503,-0.27570950984954836,0.9555110931396484,0.9564709663391113,0.8695774078369141,-0.5761027336120606,-0.555809497833252,0.18008935451507569,0.45866867899894717,0.6239731311798096,0.10948288440704346,0.18417370319366456,0.46136853098869326,-0.4529684782028198,0.46693965792655947,0.8849344253540039,-0.7400715351104736,-0.02950751781463623,-0.36562907695770266,-0.6270287036895752,-0.7709639072418213,-0.437198281288147,0.46369263529777529,-0.841977596282959,-0.47125351428985598,0.5988974571228027,0.10648167133331299,-0.07177340984344483,-0.7907207012176514,-0.7209258079528809,-0.5767881870269775,0.4074849784374237,0.43690845370292666,-0.006277918815612793,-0.9686169624328613,0.03358423709869385,-0.15836107730865479,0.6497626304626465,-0.15680229663848878,-0.18988549709320069,-0.10019886493682862,0.5293006896972656,0.30571600794792178]},{"fitness":0.43793433904647829,"currentPopulationID":0,"currentEntityID":16,"parentPopulationID":-1,"parentEntityID":-1,"layers":[9,15,5,1],"flattendedWeights":[0.3119485080242157,-0.3315843343734741,0.5959682464599609,-0.03570997714996338,-0.4905592203140259,0.785914421081543,-0.03044283390045166,0.7305629253387451,0.27863308787345889,0.4733271300792694,0.9659037590026856,-0.13735616207122804,0.3195490539073944,-0.41639721393585207,0.04060947895050049,-0.1506890058517456,-0.6475460529327393,0.5123903751373291,0.37532302737236025,0.23887288570404054,-0.04033982753753662,-0.10078585147857666,-0.9809403419494629,-0.8290059566497803,0.6155393123626709,-0.368738055229187,0.8694584369659424,-0.08973944187164307,0.32958218455314639,-0.7864923477172852,0.8426694869995117,0.0036426782608032228,0.948509693145752,0.8692741394042969,0.04053008556365967,0.027550101280212404,-0.1992865800857544,0.8453311920166016,0.1916898488998413,-0.33804285526275637,0.6279504299163818,0.46431609988212588,0.29277798533439639,0.9803216457366943,0.6850912570953369,0.30228039622306826,-0.4040619134902954,0.9950985908508301,0.23450696468353272,0.4490339457988739,-0.8297028541564941,0.5278031826019287,0.19207346439361573,-0.5384511947631836,-0.7354888916015625,0.17744553089141847,0.14689218997955323,0.8914830684661865,-0.3888179063796997,0.2091730833053589,0.03237569332122803,0.10746347904205322,0.256526917219162,0.7565686702728272,0.4395439326763153,0.13164865970611573,0.7810893058776856,-0.6517484188079834,-0.6588418483734131,-0.563103199005127,0.3122565448284149,-0.27467358112335207,0.9104714393615723,0.6952576637268066,0.7763972282409668,0.5823423862457275,-0.5457441806793213,-0.2784467935562134,-0.06836068630218506,0.2785472571849823,-0.650381326675415,-0.37613046169281008,0.4043686091899872,0.41835710406303408,0.766632080078125,0.9609341621398926,-0.38033950328826907,-0.6971786022186279,0.490718811750412,0.009351134300231934,0.5465257167816162,0.02316129207611084,0.07053911685943604,0.16700685024261475,-0.2606316804885864,0.12364757061004639,-0.397652268409729,-0.4448748826980591,-0.1465686559677124,-0.049695611000061038,0.19450771808624268,-0.9966673851013184,-0.8739593029022217,-0.4819079637527466,0.33697769045829775,0.934077262878418,0.6665821075439453,0.1825348138809204,0.4716767966747284,-0.08788406848907471,-0.495033860206604,0.74161696434021,0.42828962206840517,0.8506412506103516,-0.4925130605697632,-0.7753655910491943,0.4415547549724579,-0.6877830028533936,-0.6843547821044922,0.7441322803497315,-0.9000678062438965,-0.3400832414627075,-0.8227362632751465,-0.6144754886627197,0.48827096819877627,0.8949470520019531,0.9783759117126465,0.3458192050457001,0.7972490787506104,0.624929666519165,0.4889039695262909,-0.07777202129364014,0.6455914974212647,-0.6730952262878418,-0.6220841407775879,-0.7363169193267822,0.6903128623962402,-0.8958890438079834,-0.5812418460845947,-0.33941733837127688,0.7321734428405762,-0.1768742799758911,0.03866899013519287,0.7791426181793213,-0.7135393619537354,0.07857787609100342,0.5865919589996338,0.5406663417816162,-0.8576929569244385,-0.7946212291717529,0.715761661529541,-0.3701821565628052,-0.8839337825775147,-0.8035948276519775,0.7361907958984375,-0.5094919204711914,0.39833375811576846,-0.8630070686340332,-0.21526658535003663,-0.5919888019561768,-0.10704100131988526,0.08836925029754639,-0.8847534656524658,-0.6428577899932861,0.5324397087097168,0.35783740878105166,-0.23434245586395265,0.9576916694641113,0.49687954783439639,-0.8092396259307861,0.3257574737071991,0.7678251266479492,-0.8557107448577881,0.053453803062438968,-0.600104808807373,-0.2703815698623657,-0.49638402462005618,0.5799236297607422,-0.8252122402191162,-0.4657505750656128,0.4860541522502899,-0.4350212812423706,-0.528339147567749,-0.4056166410446167,0.4316050708293915,0.6516997814178467,0.06991541385650635,-0.2954188585281372,-0.9466409683227539,-0.8106088638305664,0.7198596000671387,0.1138695478439331,0.28233978152275088,0.37676379084587099,-0.3271678686141968,0.45824405550956728,-0.736886739730835,-0.5034644603729248,0.7169668674468994,0.06409060955047608,0.8305149078369141,-0.8090105056762695,-0.5392646789550781,0.10323941707611084,0.42578479647636416,0.37976643443107607,-0.9013082981109619,-0.28804147243499758,0.998239278793335,-0.9968035221099854,-0.995229959487915,0.02573263645172119,0.32214757800102236,-0.297817587852478,-0.9064605236053467]},{"fitness":0.3947169780731201,"currentPopulationID":0,"currentEntityID":17,"parentPopulationID":-1,"parentEntityID":-1,"layers":[9,15,5,1],"flattendedWeights":[0.35083910822868349,-0.6439423561096191,0.053389906883239749,0.23504912853240968,0.8706924915313721,-0.9602141380310059,0.6569106578826904,-0.7839088439941406,0.1819542646408081,0.6587555408477783,-0.7336812019348145,-0.1407700777053833,-0.6845817565917969,-0.8778495788574219,0.5528609752655029,-0.49636757373809817,-0.9065020084381104,0.644228458404541,0.776982307434082,0.585463285446167,-0.13864576816558839,-0.8689141273498535,-0.8602941036224365,0.062024474143981937,-0.9435007572174072,-0.6437385082244873,-0.05198252201080322,-0.2970188856124878,-0.38334739208221438,-0.6064705848693848,0.9805545806884766,-0.6514496803283691,-0.6131877899169922,0.25287386775016787,-0.7791352272033691,-0.32548701763153078,-0.5447571277618408,0.9612975120544434,0.8367676734924316,0.9077081680297852,-0.536506175994873,0.708453893661499,-0.9210071563720703,-0.23734581470489503,0.00205075740814209,-0.7372934818267822,0.2575637996196747,0.7637495994567871,0.8094971179962158,-0.2907518148422241,0.4527759253978729,-0.14373981952667237,0.8418400287628174,-0.9059460163116455,-0.8940408229827881,-0.6105811595916748,0.887977123260498,-0.33276689052581789,-0.62589430809021,-0.3267122507095337,-0.43918073177337649,-0.4611920118331909,-0.5820143222808838,-0.7515847682952881,-0.574608564376831,0.1801544427871704,-0.50026535987854,0.04682266712188721,0.08496272563934326,0.15835034847259522,-0.5273888111114502,-0.10417258739471436,-0.8082611560821533,-0.40005719661712649,-0.8791844844818115,0.8366203308105469,0.6323301792144775,0.963768482208252,0.7937612533569336,0.9778211116790772,-0.4526618719100952,0.7218177318572998,-0.7398207187652588,0.5468847751617432,0.190743088722229,-0.32907187938690188,-0.8466627597808838,0.4215645492076874,0.12036192417144776,-0.09298670291900635,0.8967511653900147,-0.6830146312713623,-0.9831089973449707,-0.6749200820922852,0.367707222700119,-0.6027827262878418,0.8147118091583252,-0.04691898822784424,-0.9701833724975586,-0.23553907871246339,-0.7741079330444336,0.1544119119644165,0.18615353107452393,-0.567922830581665,-0.41740739345550539,0.09963667392730713,-0.24175536632537843,0.5819125175476074,-0.7332923412322998,0.7537524700164795,-0.607452392578125,-0.13493359088897706,-0.35553109645843508,-0.5410959720611572,0.9955456256866455,0.7480065822601318,-0.7662754058837891,0.3382701575756073,-0.21891939640045167,0.16558492183685304,-0.154563307762146,0.5620524883270264,-0.8196570873260498,-0.9434599876403809,0.27290841937065127,0.26415154337882998,0.4180550277233124,-0.08602869510650635,0.7236831188201904,-0.6872529983520508,0.31709524989128115,-0.5093910694122315,0.6998953819274902,-0.913259744644165,0.07895147800445557,0.8951399326324463,0.3989808261394501,-0.15200603008270265,0.34703800082206728,0.3988654315471649,0.6989595890045166,-0.48951923847198489,0.0715101957321167,0.9670195579528809,-0.664583683013916,-0.927786111831665,-0.7934789657592773,-0.2560051679611206,0.4597892463207245,-0.5055458545684815,-0.8032255172729492,-0.07568275928497315,-0.24958956241607667,-0.7408852577209473,-0.7561531066894531,-0.7217280864715576,-0.6313574314117432,-0.06180918216705322,-0.26124703884124758,-0.660062313079834,0.49733540415763857,-0.6377694606781006,0.823326587677002,-0.5899803638458252,-0.44197165966033938,0.7453501224517822,0.2560088336467743,0.6199288368225098,-0.08721339702606201,0.20651519298553468,-0.15474188327789308,0.804018497467041,0.7684106826782227,0.44130679965019228,-0.7033827304840088,-0.5841813087463379,-0.3878124952316284,-0.5496847629547119,-0.777151346206665,-0.06217300891876221,0.6456952095031738,-0.21642935276031495,-0.37714946269989016,0.7422823905944824,0.6361308097839356,-0.7621126174926758,-0.8987011909484863,-0.22804701328277589,0.7577743530273438,0.7720956802368164,0.6678123474121094,0.1592463254928589,0.9867291450500488,-0.32176005840301516,0.0273362398147583,0.007446646690368652,0.49372145533561709,-0.15986311435699464,-0.16641533374786378,0.3466915786266327,-0.6228761672973633,-0.9597222805023193,0.23749840259552003,0.05113112926483154,-0.030560851097106935,-0.8006954193115234,-0.3155590295791626,-0.8012034893035889,-0.12347733974456787,0.3444204032421112,-0.21862351894378663,-0.4329320192337036,0.9400746822357178,0.062160372734069827,0.4891512095928192]},{"fitness":0.41452300548553469,"currentPopulationID":0,"currentEntityID":18,"parentPopulationID":-1,"parentEntityID":-1,"layers":[9,15,5,1],"flattendedWeights":[0.8103699684143066,0.5734150409698486,-0.7695460319519043,-0.9631056785583496,-0.9644238948822022,0.6583101749420166,-0.32848942279815676,-0.046553730964660647,0.584143877029419,-0.16951215267181397,0.211495041847229,-0.733130931854248,-0.9076516628265381,0.3582722842693329,0.10894596576690674,0.2463763952255249,0.9241542816162109,0.7580177783966065,0.37101122736930849,0.6489348411560059,-0.20614492893218995,-0.04220306873321533,0.5858900547027588,-0.704134464263916,0.43433400988578799,-0.6794769763946533,-0.412051796913147,-0.9675648212432861,-0.2357252836227417,0.4365791976451874,-0.1018151044845581,-0.6923761367797852,0.0025368928909301759,-0.8081173896789551,-0.2624741792678833,-0.5331876277923584,-0.9950037002563477,0.2628600299358368,0.4716939628124237,0.18523752689361573,-0.19667494297027589,0.6013596057891846,0.5593006610870361,-0.9859364032745361,-0.21694552898406983,0.08788716793060303,0.8950390815734863,-0.261311411857605,0.2437828779220581,-0.9414303302764893,-0.32308638095855715,0.8668761253356934,-0.6253402233123779,-0.9784307479858398,-0.938838005065918,-0.10828673839569092,-0.5333797931671143,-0.33593499660491946,0.7046411037445068,-0.9444749355316162,0.6556131839752197,0.4231264293193817,0.001900315284729004,-0.19176828861236573,-0.3891855478286743,-0.8996996879577637,-0.8475399017333984,0.43912455439567568,-0.9119770526885986,0.22762048244476319,-0.6796832084655762,0.38231489062309267,-0.8898799419403076,0.1082226037979126,0.43688294291496279,-0.6371269226074219,0.686722993850708,0.33273646235466006,0.26338931918144228,-0.2397245168685913,-0.9905633926391602,-0.29344046115875246,0.47789451479911806,0.6726219654083252,-0.12244021892547608,-0.5968348979949951,0.050458550453186038,-0.8625962734222412,-0.49059903621673586,0.18906152248382569,-0.10040485858917237,-0.6584479808807373,-0.9137067794799805,-0.5119383335113525,0.5656392574310303,0.5759153366088867,0.6140751838684082,0.9409394264221191,0.6487839221954346,0.8154561519622803,0.6397867202758789,0.8929979801177979,0.3374180495738983,-0.9972186088562012,-0.2932366132736206,-0.6660747528076172,0.9029762744903565,0.5160284042358398,0.4325961768627167,0.12937843799591065,-0.9646596908569336,-0.9325127601623535,0.7482342720031738,-0.1536177396774292,-0.22082746028900147,0.0972672700881958,0.4876722991466522,-0.04809129238128662,0.19140851497650147,-0.3686031103134155,-0.7803709506988525,-0.8573877811431885,-0.15713679790496827,0.5798530578613281,0.44208666682243349,0.8687970638275147,0.8919332027435303,0.8652491569519043,0.8291709423065186,-0.2611275911331177,0.10003435611724854,0.7670547962188721,0.3826462924480438,0.04122269153594971,-0.10895264148712158,-0.94287109375,0.4977409541606903,0.09375941753387451,0.4966273009777069,-0.2708832025527954,-0.601097822189331,0.7482850551605225,-0.534900426864624,-0.29945051670074465,0.47689005732536318,0.9242527484893799,0.6775326728820801,-0.5549061298370361,0.38991162180900576,0.4478268325328827,-0.15739238262176515,0.5256898403167725,-0.42445409297943118,0.5694499015808106,0.055291056632995608,0.8250958919525147,-0.6107683181762695,0.11115562915802002,-0.1004863977432251,-0.8951146602630615,0.6634683609008789,-0.1995753049850464,0.8519749641418457,0.7892093658447266,0.011566996574401856,0.8379743099212647,-0.024328112602233888,0.08921182155609131,-0.8651819229125977,0.6415190696716309,-0.6390824317932129,0.7640829086303711,0.8771398067474365,0.7735838890075684,-0.9619553089141846,0.39113280177116396,0.6115877628326416,-0.946772575378418,0.202386736869812,-0.41439616680145266,-0.037654995918273929,-0.8821060657501221,0.5944693088531494,-0.5645596981048584,-0.8635814189910889,0.6942682266235352,0.3364207446575165,0.4864961802959442,0.5228946208953857,-0.796778678894043,0.47127529978752139,-0.6132581233978272,0.2840521037578583,0.3142397105693817,0.6138086318969727,0.5477490425109863,-0.9086649417877197,0.38141748309135439,-0.3342486619949341,0.35193607211112978,-0.7427301406860352,-0.9731016159057617,-0.22491180896759034,-0.5387988090515137,0.13560426235198975,0.9995651245117188,-0.44789135456085207,-0.9453139305114746,0.703977108001709,0.35544607043266299,-0.8345072269439697,-0.08852088451385498,0.20183861255645753,0.19485414028167725,0.588200569152832]},{"fitness":0.4011699855327606,"currentPopulationID":0,"currentEntityID":19,"parentPopulationID":-1,"parentEntityID":-1,"layers":[9,15,5,1],"flattendedWeights":[-0.4917370080947876,-0.37422454357147219,-0.5764400959014893,-0.05536234378814697,-0.15026485919952393,-0.038866400718688968,-0.615257740020752,-0.2424222230911255,0.5665826797485352,-0.31485044956207278,0.7306821346282959,0.6681995391845703,-0.5084829330444336,0.7214348316192627,-0.9394428730010986,-0.5799827575683594,0.679746150970459,-0.8759021759033203,-0.27563560009002688,-0.14592373371124268,-0.6029655933380127,0.6608045101165772,-0.998786211013794,-0.29313409328460696,-0.6938948631286621,-0.39813339710235598,0.9300844669342041,0.08022677898406983,-0.7988898754119873,0.2040320634841919,0.636857271194458,0.3871259391307831,0.6415703296661377,0.34808847308158877,0.6925315856933594,-0.38742053508758547,0.36475011706352236,-0.41719090938568118,0.3441908061504364,-0.42677271366119387,-0.44619882106781008,0.9930486679077148,-0.5914278030395508,-0.2766803503036499,0.09957301616668701,0.7813887596130371,0.07696688175201416,0.7070269584655762,-0.9687941074371338,-0.3482857942581177,0.5985085964202881,-0.86635422706604,-0.11356699466705322,0.9668664932250977,-0.3575400114059448,-0.572357177734375,0.5628373622894287,0.5948200225830078,-0.19915711879730225,-0.6578185558319092,0.7971410751342773,0.27914735674858096,-0.9352602958679199,-0.22632825374603272,0.6808245182037354,-0.9434177875518799,-0.15446603298187257,-0.21066319942474366,-0.05514204502105713,-0.4563862085342407,-0.4866892099380493,0.5580360889434815,0.2313143014907837,0.9589977264404297,-0.9079723358154297,-0.7196757793426514,0.2239779233932495,-0.6656479835510254,0.582876443862915,0.8767468929290772,-0.6934938430786133,0.00586545467376709,0.374390572309494,-0.13929831981658936,0.5318481922149658,0.562021017074585,0.591839075088501,0.5860984325408936,0.30231401324272158,-0.41120922565460207,0.0035201311111450197,-0.30682671070098879,-0.8831396102905273,-0.9307417869567871,0.806814432144165,-0.044298529624938968,-0.9498500823974609,0.33400246500968935,0.3121292293071747,-0.2950941324234009,-0.7847437858581543,0.018087267875671388,-0.7304885387420654,0.9378626346588135,0.6088173389434815,-0.11822116374969483,0.09114325046539307,0.1172257661819458,-0.24415075778961183,0.9842214584350586,0.5485336780548096,-0.7453749179840088,0.8577921390533447,-0.23781025409698487,0.06429708003997803,0.7452723979949951,0.26733943819999697,0.10932624340057373,-0.5659503936767578,-0.3308781385421753,0.4508621394634247,-0.9834051132202148,0.38632509112358096,0.4751412570476532,-0.5976152420043945,-0.3905249834060669,0.11451089382171631,-0.4130200147628784,-0.23117172718048097,-0.4131048917770386,-0.8187079429626465,-0.983346700668335,-0.5939919948577881,0.2612731158733368,-0.4974328279495239,0.960029125213623,-0.6999568939208984,0.1574610471725464,0.43198511004447939,0.9961655139923096,0.11307132244110108,-0.46342170238494875,-0.8482098579406738,0.2651533782482147,-0.257609486579895,0.7692553997039795,-0.8224575519561768,-0.11661708354949951,-0.8259162902832031,-0.6812536716461182,0.43129679560661318,-0.17673861980438233,-0.6144740581512451,0.8724691867828369,0.6674191951751709,-0.3011883497238159,0.020627856254577638,-0.3973449468612671,-0.49927961826324465,0.4598664939403534,0.7705655097961426,-0.48745739459991457,0.14611876010894776,-0.9993493556976318,-0.7158033847808838,0.15272724628448487,-0.5771908760070801,-0.37332117557525637,-0.31956946849823,-0.8049049377441406,0.6936244964599609,0.6175537109375,0.46453210711479189,-0.48152434825897219,0.955664873123169,-0.881105899810791,-0.5306246280670166,-0.2683216333389282,-0.8571267127990723,-0.4944692850112915,0.02276313304901123,-0.04632413387298584,0.8631374835968018,0.4438941180706024,0.0465320348739624,0.509880542755127,-0.6057732105255127,0.5913424491882324,-0.5288760662078857,0.47559210658073428,-0.5151698589324951,-0.0076264142990112309,-0.46572697162628176,0.5832991600036621,0.30956003069877627,0.54746413230896,-0.9415123462677002,-0.311989426612854,0.18449890613555909,-0.01830160617828369,0.4925386607646942,-0.24026834964752198,0.8872630596160889,0.5264692306518555,-0.8066623210906982,-0.4603220224380493,0.24462997913360597,-0.05161082744598389,-0.4740957021713257,-0.2972949743270874,0.6152422428131104,-0.8176572322845459,-0.2773844003677368,-0.6207923889160156,-0.17393386363983155]},{"fitness":0.3977881371974945,"currentPopulationID":0,"currentEntityID":20,"parentPopulationID":-1,"parentEntityID":-1,"layers":[9,15,5,1],"flattendedWeights":[-0.8086073398590088,0.45241257548332217,-0.897965669631958,-0.817659854888916,-0.5808334350585938,-0.9091198444366455,0.64314866065979,0.20248782634735108,0.35405799746513369,0.2534591853618622,0.11573421955108643,0.13437211513519288,0.9014649391174316,0.9439177513122559,0.5625433921813965,0.7256667613983154,-0.04828441143035889,-0.7404031753540039,-0.15877044200897218,0.12946093082427979,-0.6091670989990234,-0.24833357334136964,-0.7736859321594238,0.07835185527801514,-0.307963490486145,-0.1597367525100708,0.4155225455760956,-0.3060961961746216,0.4578687846660614,0.733914852142334,0.997828483581543,0.8920309543609619,-0.4585481882095337,0.15395820140838624,0.7242553234100342,0.23850810527801515,-0.9635765552520752,0.30602404475212099,-0.4931372404098511,0.34868237376213076,0.6272730827331543,0.1793440580368042,0.5729985237121582,-0.2851148843765259,-0.5500986576080322,-0.24453198909759522,0.810967206954956,0.2335125207901001,0.5939247608184815,-0.396509051322937,-0.9266245365142822,0.49905964732170107,-0.5164363384246826,0.21003878116607667,-0.4037061929702759,0.03336751461029053,0.2419666051864624,-0.5631351470947266,0.1212693452835083,-0.11495864391326904,0.26482436060905459,-0.6734235286712647,0.5310113430023193,-0.8139503002166748,-0.049327731132507327,-0.023166775703430177,-0.7293879985809326,0.30607935786247256,-0.7363874912261963,0.956718921661377,0.01988351345062256,-0.5898110866546631,-0.6284873485565186,0.11493575572967529,-0.722416877746582,0.2543966472148895,-0.3778442144393921,-0.7450110912322998,-0.06410419940948487,0.4599780738353729,0.7059929370880127,0.8766067028045654,-0.5185508728027344,0.8091230392456055,0.07845699787139893,0.5347766876220703,-0.1341332197189331,-0.7367653846740723,0.83139967918396,0.595674991607666,0.45998117327690127,0.903634786605835,0.861152172088623,-0.534207820892334,-0.12882745265960694,0.08468067646026612,0.3756255805492401,-0.5322365760803223,-0.47873079776763918,-0.8453080654144287,0.4924437701702118,0.6285915374755859,-0.5866203308105469,0.5536127090454102,-0.21857869625091554,0.16003286838531495,-0.7110366821289063,0.7050364017486572,-0.9636712074279785,0.6802117824554443,0.5018088817596436,-0.8504586219787598,0.4591345489025116,-0.008512616157531739,0.14726459980010987,-0.604468822479248,0.8482956886291504,-0.7261250019073486,-0.8592619895935059,0.6997106075286865,0.7482872009277344,-0.44453394412994387,-0.19051897525787354,0.40311023592948916,0.2603470981121063,0.6783177852630615,0.11169707775115967,-0.8874001502990723,0.32309696078300478,-0.5542783737182617,-0.7886035442352295,-0.13828623294830323,0.12136542797088623,-0.8619961738586426,-0.22894227504730225,0.7960083484649658,-0.5037779808044434,-0.3624635934829712,-0.9537935256958008,0.8453423976898193,-0.7262976169586182,-0.6691584587097168,0.9066007137298584,-0.15582025051116944,-0.06962954998016358,-0.6444058418273926,-0.4766043424606323,0.0891796350479126,-0.5037589073181152,-0.6260027885437012,-0.5114917755126953,0.7173480987548828,-0.6646182537078857,0.08578813076019287,0.6701874732971191,0.6336531639099121,0.46049997210502627,0.3886110484600067,0.7132363319396973,-0.46730339527130129,0.13067543506622315,-0.6139342784881592,0.9775691032409668,0.8054757118225098,0.7110140323638916,-0.602170467376709,-0.1580134630203247,-0.8412420749664307,-0.886688232421875,-0.4171344041824341,-0.15179622173309327,-0.5136797428131104,0.8480138778686523,0.24395668506622315,0.6474082469940186,0.9751780033111572,0.7530896663665772,-0.21958744525909425,-0.3659411668777466,0.42685338854789736,0.4526025950908661,0.9220089912414551,-0.1507648229598999,0.9811437129974365,0.3796658217906952,0.13498461246490479,0.5997886657714844,0.21029698848724366,-0.7801947593688965,0.4884438216686249,-0.8165550231933594,-0.583920955657959,-0.7903811931610107,0.42424413561820986,-0.454837441444397,0.34450003504753115,0.055718302726745608,0.17593252658843995,0.04795801639556885,-0.9461450576782227,0.31465551257133486,-0.05525839328765869,-0.16693627834320069,-0.682448148727417,0.050339579582214358,-0.476812481880188,0.8564908504486084,-0.34783732891082766,0.30507132411003115,-0.3177107572555542,-0.8998575210571289,-0.009884238243103028,-0.860055685043335,0.6132407188415527,-0.9076056480407715]},{"fitness":0.45773011445999148,"currentPopulationID":0,"currentEntityID":21,"parentPopulationID":-1,"parentEntityID":-1,"layers":[9,15,5,1],"flattendedWeights":[0.4141535460948944,-0.7641592025756836,-0.9048995971679688,0.7247402667999268,0.8715922832489014,-0.3884202241897583,0.29771682620048525,-0.755847692489624,-0.5140140056610107,-0.3944352865219116,0.11272585391998291,0.29861852526664736,-0.3995412588119507,0.07996618747711182,-0.2513490915298462,-0.09664642810821533,0.05774223804473877,-0.6518385410308838,0.4212281405925751,0.4273628890514374,0.3177594840526581,-0.7124326229095459,-0.11981785297393799,0.09849536418914795,0.706510066986084,-0.2735210657119751,0.3520948588848114,-0.999035120010376,-0.01849687099456787,0.9213194847106934,0.3469958007335663,0.479692667722702,-0.760988712310791,-0.6745083332061768,0.5761983394622803,-0.5350956916809082,-0.6252806186676025,0.8329100608825684,0.19776976108551026,0.9389998912811279,-0.7250714302062988,0.8039000034332275,-0.8699886798858643,0.6715869903564453,-0.26051056385040285,-0.49050843715667727,0.7581408023834229,0.12424027919769287,0.17656385898590089,-0.7386500835418701,-0.43055593967437746,-0.3020704984664917,-0.8382158279418945,-0.40597569942474368,-0.1488262414932251,0.5411326885223389,-0.26803410053253176,-0.3559800386428833,0.6515841484069824,-0.14610755443572999,-0.5290732383728027,0.8202130794525147,0.027847647666931154,0.18810760974884034,0.05421149730682373,0.5693657398223877,-0.32572782039642336,-0.9999902248382568,0.46843287348747256,0.9384112358093262,-0.5388364791870117,-0.5410268306732178,-0.38551461696624758,0.3152587115764618,0.2511388957500458,-0.23961174488067628,0.633784294128418,0.31444522738456728,-0.17134630680084229,0.8495888710021973,0.5009644031524658,-0.2757209539413452,-0.6490142345428467,0.7109239101409912,-0.24966061115264893,-0.5064425468444824,0.5256209373474121,-0.8995382785797119,0.09376204013824463,-0.5050065517425537,-0.11226189136505127,0.06143224239349365,0.15096962451934815,0.1985546350479126,0.6215658187866211,-0.7878859043121338,0.20839416980743409,-0.1503063440322876,-0.021403193473815919,0.8204596042633057,-0.7099792957305908,0.7556760311126709,-0.7516436576843262,-0.2525981664657593,-0.2704523801803589,-0.5295810699462891,-0.36149704456329348,0.9362037181854248,0.5106856822967529,-0.17712152004241944,0.04532754421234131,-0.652350902557373,-0.507230281829834,0.41431018710136416,-0.8489892482757568,-0.5713419914245606,0.7418112754821777,-0.06253683567047119,0.7553861141204834,0.6920497417449951,-0.18489348888397218,-0.8797552585601807,-0.8167176246643066,-0.7491073608398438,0.6322774887084961,-0.8440103530883789,0.9718377590179443,0.22284328937530518,-0.7384581565856934,-0.22730815410614015,-0.0768972635269165,0.42297717928886416,0.703275203704834,0.868302583694458,0.6718666553497315,-0.729733943939209,-0.4762915372848511,0.677182674407959,-0.04115760326385498,0.5503184795379639,-0.8962886333465576,0.06255948543548584,0.8827800750732422,0.6353106498718262,-0.80240797996521,-0.005333304405212402,0.05302774906158447,-0.41229331493377688,-0.7298595905303955,-0.7437572479248047,-0.64717698097229,0.1507192850112915,-0.01715695858001709,0.10030186176300049,0.9291298389434815,0.8067827224731445,-0.9392447471618652,0.8792531490325928,-0.17851722240447999,0.8870632648468018,-0.1412264108657837,-0.7575533390045166,-0.3472961187362671,-0.11060583591461182,0.44853946566581728,-0.14086878299713136,0.21270835399627686,-0.575852632522583,-0.7499949932098389,-0.4741579294204712,0.08780300617218018,-0.1914001703262329,0.2412961721420288,0.3027805984020233,-0.9250597953796387,-0.37545669078826907,0.9130849838256836,0.2624041736125946,-0.2678111791610718,0.5140039920806885,-0.04293262958526611,0.10730135440826416,-0.25491440296173098,-0.5229883193969727,0.6376514434814453,-0.014212250709533692,0.620638370513916,-0.05623781681060791,-0.30359041690826418,0.861961841583252,0.006843924522399902,0.9588456153869629,0.7301068305969238,0.90962815284729,-0.4138733148574829,0.8687074184417725,-0.4363793134689331,-0.5352325439453125,-0.08810269832611084,0.04416096210479736,0.20369946956634522,-0.31607210636138918,0.4608921706676483,-0.38772428035736086,0.03820359706878662,-0.5794854164123535,0.8862087726593018,-0.7359836101531982,-0.3885716199874878,-0.6532649993896484,0.5460050106048584,-0.5075347423553467,-0.22348105907440186,0.16102349758148194,0.37695810198783877]},{"fitness":0.41669005155563357,"currentPopulationID":0,"currentEntityID":22,"parentPopulationID":-1,"parentEntityID":-1,"layers":[9,15,5,1],"flattendedWeights":[-0.1655060052871704,-0.18569409847259522,-0.6043806076049805,-0.10094726085662842,-0.8397414684295654,-0.021465182304382325,-0.10454428195953369,-0.030804753303527833,-0.793010950088501,0.22968900203704835,0.4694533050060272,0.4729914367198944,-0.9853494167327881,-0.5334444046020508,-0.9850659370422363,0.698641300201416,-0.35010087490081789,-0.2056196928024292,-0.883073091506958,-0.18246567249298097,-0.4100762605667114,-0.6709225177764893,0.15452730655670167,-0.5813195705413818,0.1615208387374878,0.5300889015197754,-0.6569616794586182,-0.5590419769287109,0.2704720199108124,0.968386173248291,0.5559070110321045,-0.6930005550384522,0.22036230564117433,0.42247769236564639,0.08870947360992432,-0.20047152042388917,0.98354172706604,-0.32797276973724368,0.2869863212108612,-0.6903963088989258,0.6258020401000977,-0.36971914768218996,0.7559113502502441,-0.38638389110565188,-0.26002275943756106,0.010898709297180176,0.5308339595794678,0.05174553394317627,0.338377445936203,0.6615808010101318,0.8269987106323242,0.07634389400482178,0.8112356662750244,0.6608431339263916,0.8823788166046143,-0.29202091693878176,0.5987718105316162,-0.2396148443222046,0.7931013107299805,0.7639625072479248,0.7104873657226563,-0.18625032901763917,-0.9767129421234131,0.05109608173370361,0.9367811679840088,-0.7711360454559326,0.9528465270996094,-0.8036017417907715,-0.61761474609375,-0.042435526847839358,-0.728302001953125,-0.9815564155578613,-0.3342474699020386,-0.8940339088439941,-0.16114366054534913,0.6806306838989258,-0.6811060905456543,0.707827091217041,-0.03587377071380615,0.6444079875946045,-0.8671011924743652,0.1406937837600708,-0.785059928894043,-0.19181311130523683,-0.14848721027374268,-0.1214524507522583,-0.8462386131286621,-0.8249073028564453,-0.6342644691467285,-0.7365612983703613,0.7573373317718506,0.5338945388793945,-0.09893643856048584,-0.6263723373413086,-0.3034287691116333,-0.24055159091949464,-0.4305797815322876,-0.3761788606643677,-0.3976517915725708,-0.7960617542266846,-0.03373396396636963,-0.4356330633163452,-0.03621327877044678,-0.7136363983154297,0.07016360759735108,0.2587377727031708,0.12581384181976319,-0.45236194133758547,-0.8103044033050537,0.02875339984893799,-0.6973593235015869,-0.5690045356750488,-0.10229289531707764,0.9065761566162109,0.07103312015533447,-0.44741570949554446,0.17831552028656007,0.1798938512802124,-0.3213285207748413,0.8632545471191406,0.3033110797405243,0.8705344200134277,-0.2537285089492798,0.4466409385204315,-0.03999602794647217,0.3616141974925995,-0.7729260921478272,0.9905800819396973,-0.2090364694595337,0.1980952024459839,-0.4776819944381714,0.4860839545726776,-0.4612346887588501,0.1525956392288208,-0.9966862201690674,0.41150304675102236,-0.3941463232040405,