{"entities":[{"fitness":0.3974376618862152,"currentPopulationID":0,"currentEntityID":0,"parentPopulationID":-1,"parentEntityID":-1,"layers":[9,5,1],"flattendedWeights":[-0.20451748371124268,0.5063426494598389,0.8042027950286865,-0.303036093711853,0.7325637340545654,-0.522566556930542,0.175073504447937,-0.934178352355957,0.6427526473999023,-0.11129319667816162,-0.40551912784576418,-0.4309653043746948,-0.6263880729675293,0.3239302337169647,0.3056914508342743,0.867753267288208,-0.46531903743743899,0.01765143871307373,-0.06394994258880615,0.3184175193309784,0.008617520332336426,-0.8298213481903076,-0.771559476852417,-0.7859630584716797,-0.4279853105545044,0.47567984461784365,-0.3402808904647827,0.824664831161499,-0.9501211643218994,0.4338991343975067,-0.6914362907409668,0.18531763553619386,0.5746533870697022,0.9988977909088135,-0.5050685405731201,0.7457361221313477,-0.17514026165008546,-0.7082223892211914,0.2781469523906708,-0.7678556442260742,0.30418989062309267,-0.5881526470184326,-0.08738219738006592,0.7306547164916992,0.28198978304862978,-0.16851294040679933,0.813284158706665,-0.5089643001556397,-0.8801214694976807,-0.10619866847991944]},{"fitness":0.45288699865341189,"currentPopulationID":0,"currentEntityID":1,"parentPopulationID":-1,"parentEntityID":-1,"layers":[9,5,1],"flattendedWeights":[-0.3609050512313843,-0.5707263946533203,0.33679959177970889,-0.45492637157440188,0.4838733375072479,-0.14667260646820069,0.8716094493865967,0.8730711936950684,-0.4090489149093628,-0.010493874549865723,-0.27866852283477785,0.2431727647781372,0.20718681812286378,0.930908203125,-0.9905819892883301,0.2726854979991913,-0.1310657262802124,0.796900749206543,0.4794747531414032,0.966834306716919,0.14611971378326417,0.4206380546092987,-0.8699345588684082,0.8310940265655518,-0.33053553104400637,-0.6562740802764893,0.35683128237724306,-0.6693165302276611,0.7753219604492188,0.31007644534111025,-0.10284340381622315,0.019533514976501466,0.18197238445281983,-0.7777245044708252,0.5110030174255371,0.20918643474578858,-0.5646088123321533,-0.661513090133667,0.545626163482666,-0.957155704498291,0.10181224346160889,-0.6755304336547852,-0.307475209236145,0.7847316265106201,-0.21100032329559327,-0.07081186771392822,0.9080793857574463,0.9892435073852539,-0.4744764566421509,0.16197597980499268]},{"fitness":0.4229678213596344,"currentPopulationID":0,"currentEntityID":2,"parentPopulationID":-1,"parentEntityID":-1,"layers":[9,5,1],"flattendedWeights":[0.08679091930389404,0.1836014986038208,-0.6142289638519287,0.7323992252349854,0.7927563190460205,0.8073840141296387,0.4343275725841522,-0.5846467018127441,-0.8202986717224121,0.4585699737071991,0.2813551127910614,-0.7964577674865723,0.5674350261688232,0.5178847312927246,0.5259609222412109,-0.731572151184082,-0.7207596302032471,-0.9916996955871582,-0.3724137544631958,-0.5918893814086914,0.4168846309185028,-0.5167520046234131,0.39461156725883486,0.262038916349411,-0.13771402835845948,0.2577507197856903,-0.6420478820800781,0.34685489535331728,0.35635897517204287,-0.6806693077087402,-0.9491865634918213,-0.11238181591033936,-0.3109666109085083,-0.9721469879150391,-0.036441683769226077,0.6916053295135498,-0.9238839149475098,0.5486111640930176,0.8330080509185791,0.6947157382965088,-0.13406097888946534,-0.8375627994537354,-0.7999513149261475,-0.9273717403411865,0.08423197269439697,-0.5885155200958252,0.04905593395233154,0.11143314838409424,-0.3543936014175415,-0.7387502193450928]},{"fitness":0.3922087550163269,"currentPopulationID":0,"currentEntityID":3,"parentPopulationID":-1,"parentEntityID":-1,"layers":[9,5,1],"flattendedWeights":[-0.22479522228240968,-0.8177690505981445,-0.395168662071228,-0.025940775871276857,0.3235141932964325,-0.7633752822875977,0.889153003692627,-0.971961259841919,0.7064106464385986,-0.525972843170166,0.01437675952911377,-0.07977592945098877,-0.4189218282699585,-0.658038854598999,0.8827676773071289,0.5709240436553955,0.5171351432800293,0.4044756591320038,0.9697470664978027,-0.8585350513458252,0.5206778049468994,-0.5612516403198242,0.15259873867034913,0.9477171897888184,0.3716716468334198,0.7081859111785889,-0.8892514705657959,-0.0645226240158081,0.42553970217704775,-0.7995152473449707,0.04668223857879639,0.7434985637664795,0.24733507633209229,0.7478606700897217,0.22121703624725343,-0.9259085655212402,0.9786224365234375,0.6310181617736816,0.7751333713531494,0.32196590304374697,-0.27740538120269778,0.8109734058380127,-0.4057067632675171,-0.144861102104187,-0.2634652853012085,0.5692965984344482,0.4869231879711151,0.9710164070129395,-0.9190387725830078,-0.9827628135681152]},{"fitness":0.37914013862609866,"currentPopulationID":0,"currentEntityID":4,"parentPopulationID":-1,"parentEntityID":-1,"layers":[9,5,1],"flattendedWeights":[-0.8545143604278565,-0.7626779079437256,-0.01323854923248291,-0.7387597560882568,0.02462589740753174,-0.8206582069396973,-0.7955117225646973,0.44063040614128115,-0.33992040157318118,0.24489986896514893,0.978717565536499,-0.006258845329284668,0.9228451251983643,0.43915578722953799,-0.16056787967681886,0.037131667137145999,0.9199051856994629,0.7618510723114014,0.0018624067306518555,0.7947983741760254,0.9731900691986084,0.1757580041885376,0.5402235984802246,-0.9048876762390137,-0.32667076587677,0.8427622318267822,-0.1541081666946411,0.5944526195526123,0.6498465538024902,0.599987268447876,0.6840038299560547,-0.6265668869018555,0.6026525497436523,0.66001296043396,-0.4758516550064087,-0.14179503917694093,0.11520183086395264,0.6213884353637695,0.8133656978607178,0.04069507122039795,-0.7994461059570313,-0.5574357509613037,-0.10589277744293213,0.4507105052471161,-0.7936570644378662,-0.4813584089279175,0.9463739395141602,-0.7068130970001221,-0.15452873706817628,0.366054505109787]},{"fitness":0.3979286551475525,"currentPopulationID":0,"currentEntityID":5,"parentPopulationID":-1,"parentEntityID":-1,"layers":[9,5,1],"flattendedWeights":[-0.335901141166687,-0.2837480306625366,0.3989124000072479,-0.9037091732025147,-0.275631308555603,-0.7730729579925537,0.4648761451244354,-0.05947220325469971,-0.5343339443206787,0.5099434852600098,0.18037354946136475,-0.3004986047744751,0.7145919799804688,-0.5910515785217285,-0.4487541913986206,0.697106122970581,-0.41536223888397219,-0.623711347579956,-0.4815744161605835,-0.1228564977645874,0.555584192276001,0.3409375846385956,0.7842011451721191,0.7078166007995606,-0.20625078678131104,-0.6631941795349121,0.22709238529205323,-0.3410278558731079,-0.43002545833587649,0.4666714370250702,-0.12201035022735596,0.2905900180339813,-0.3484097719192505,0.12124669551849365,0.5874361991882324,-0.7008340358734131,-0.5306663513183594,0.42217251658439639,0.5519673824310303,-0.5534436702728272,0.47281572222709658,-0.7834312915802002,-0.9982166290283203,0.8150794506072998,0.8027052879333496,0.5615453720092773,0.7313857078552246,0.09889781475067139,-0.23081719875335694,0.28777143359184267]},{"fitness":0.3911246061325073,"currentPopulationID":0,"currentEntityID":6,"parentPopulationID":-1,"parentEntityID":-1,"layers":[9,5,1],"flattendedWeights":[0.18081843852996827,0.6642119884490967,-0.7639369964599609,-0.668583869934082,-0.6834020614624023,0.9785428047180176,-0.6618781089782715,0.3955704867839813,0.8699297904968262,0.7176775932312012,0.5086324214935303,-0.40289628505706789,0.8356802463531494,-0.5408720970153809,-0.7952010631561279,-0.41107189655303957,0.7302207946777344,-0.13953077793121339,-0.2552598714828491,-0.010278820991516114,-0.9341366291046143,-0.28286921977996828,0.3474278151988983,0.9112980365753174,-0.11583507061004639,-0.5128276348114014,0.2285853624343872,-0.8635034561157227,0.015057682991027832,0.6884679794311523,-0.5107488632202148,0.3814661204814911,-0.9472851753234863,-0.920241117477417,0.4926552474498749,0.609137773513794,0.019406914710998536,0.716266393661499,-0.5235247611999512,0.7012956142425537,0.2779216468334198,-0.7946808338165283,0.5105347633361816,0.9224679470062256,0.9446852207183838,-0.5102367401123047,-0.9744794368743897,-0.6383683681488037,0.013500571250915528,0.8050191402435303]},{"fitness":0.400032103061676,"currentPopulationID":0,"currentEntityID":7,"parentPopulationID":-1,"parentEntityID":-1,"layers":[9,5,1],"flattendedWeights":[0.5116722583770752,0.11642897129058838,0.00865018367767334,0.041488051414489749,-0.5636556148529053,-0.3465794324874878,0.939497709274292,-0.2486189603805542,0.9072432518005371,-0.5105800628662109,0.7619874477386475,-0.2220093011856079,0.5712409019470215,-0.3745182752609253,0.36967965960502627,0.2862822711467743,-0.36759626865386965,0.9113953113555908,0.9966375827789307,0.5915911197662354,0.6584110260009766,-0.8233516216278076,-0.21140587329864503,-0.11413228511810303,0.2792365252971649,-0.9790201187133789,-0.6988391876220703,-0.9110410213470459,0.028197169303894044,-0.027225613594055177,-0.2894169092178345,-0.5505802631378174,0.0697559118270874,-0.05574214458465576,-0.47791779041290285,0.8106405735015869,0.6163976192474365,0.00048530101776123047,0.13715898990631104,-0.7414662837982178,-0.8211686611175537,0.0797814130783081,-0.4364057779312134,-0.5105752944946289,0.34276410937309267,0.08453500270843506,0.9172322750091553,0.180730938911438,0.0005115270614624023,0.5906779766082764]},{"fitness":0.39842647314071658,"currentPopulationID":0,"currentEntityID":8,"parentPopulationID":-1,"parentEntityID":-1,"layers":[9,5,1],"flattendedWeights":[0.03851616382598877,0.7793948650360107,0.9829223155975342,0.9437479972839356,0.7979352474212647,-0.6351709365844727,0.08749854564666748,0.8869285583496094,0.9511473178863525,0.6201491355895996,0.3004905879497528,-0.6733729839324951,0.7183170318603516,0.6648409366607666,-0.542076826095581,0.3390321433544159,-0.35495150089263918,-0.30846989154815676,-0.7652440071105957,-0.4063183069229126,-0.6780331134796143,0.293518990278244,0.09441912174224854,-0.951134204864502,-0.8640553951263428,-0.5314357280731201,-0.7527930736541748,-0.16305029392242433,-0.9738965034484863,0.8752157688140869,0.8692302703857422,-0.11449730396270752,-0.543917179107666,0.2277587652206421,0.6555275917053223,0.6885807514190674,0.90804123878479,-0.8432879447937012,-0.9850881099700928,0.26924607157707217,0.1474522352218628,0.33244726061820986,0.13315975666046143,0.04248011112213135,-0.02752363681793213,0.4616689383983612,0.6470153331756592,-0.6662747859954834,0.7149307727813721,0.4392697513103485]},{"fitness":0.43574222922325137,"currentPopulationID":0,"currentEntityID":9,"parentPopulationID":-1,"parentEntityID":-1,"layers":[9,5,1],"flattendedWeights":[-0.15997493267059327,0.43411919474601748,0.7896182537078857,-0.0663067102432251,0.5068769454956055,0.3038320243358612,0.0015805959701538087,0.616753339767456,-0.13713586330413819,0.669344425201416,0.3507404029369354,0.7445452213287354,-0.004003167152404785,-0.4782603979110718,0.843670129776001,0.7188835144042969,0.2128969430923462,-0.6844792366027832,0.9883933067321777,0.8324911594390869,-0.000531315803527832,-0.20772063732147218,0.5187745094299316,-0.25938093662261965,0.9896917343139648,0.0833519697189331,-0.3159526586532593,0.254085510969162,-0.4130614995956421,-0.9661953449249268,-0.08425009250640869,0.7416269779205322,0.12420570850372315,0.8640732765197754,-0.9831376075744629,0.8148136138916016,0.04565441608428955,0.20994246006011964,0.2966916263103485,-0.23964083194732667,0.928941011428833,0.025707602500915529,-0.023178935050964357,-0.46720778942108157,-0.7313041687011719,0.8115296363830566,0.336748331785202,-0.9786930084228516,0.7799258232116699,0.7056708335876465]},{"fitness":0.28069159388542178,"currentPopulationID":0,"currentEntityID":10,"parentPopulationID":-1,"parentEntityID":-1,"layers":[9,5,1],"flattendedWeights":[-0.1270688772201538,-0.4822314977645874,-0.8268656730651856,-0.3181875944137573,0.47537776827812197,-0.5464270114898682,-0.7243869304656982,-0.8248095512390137,-0.8311161994934082,0.8720438480377197,0.5992679595947266,-0.2291926145553589,-0.6555459499359131,0.8413515090942383,-0.1012345552444458,-0.999854326248169,-0.9201931953430176,-0.7986655235290527,-0.03891408443450928,0.7422924041748047,-0.7391452789306641,0.39139315485954287,-0.767805814743042,0.07059800624847412,-0.28140366077423098,0.9128897190093994,-0.07118570804595947,-0.7902488708496094,-0.4908846616744995,-0.974468469619751,-0.2511404752731323,-0.09402501583099365,0.13628089427947999,-0.6726932525634766,0.8164408206939697,0.9486954212188721,0.6500453948974609,0.4956226050853729,-0.10849106311798096,0.07876217365264893,0.8594233989715576,0.5634701251983643,-0.9530978202819824,0.5562820434570313,0.9641034603118897,-0.5144813060760498,0.7983884811401367,0.4735526740550995,-0.03155553340911865,0.422758549451828]},{"fitness":0.36490052938461306,"currentPopulationID":0,"currentEntityID":11,"parentPopulationID":-1,"parentEntityID":-1,"layers":[9,5,1],"flattendedWeights":[-0.7752270698547363,-0.2278820276260376,0.28987619280815127,-0.3610175848007202,-0.336908221244812,-0.04006350040435791,0.6081392765045166,-0.9353122711181641,0.018094897270202638,-0.45588910579681399,-0.8822484016418457,0.8200118541717529,0.38182374835014346,0.9488499164581299,-0.654343843460083,0.6385364532470703,0.29658862948417666,0.13070261478424073,0.9909965991973877,-0.9200654029846191,-0.06133544445037842,0.29041096568107607,0.5393130779266357,-0.8462576866149902,0.37147805094718935,0.8516960144042969,0.42311689257621767,0.2989484965801239,-0.8397750854492188,-0.621070146560669,-0.6328251361846924,0.1698092222213745,-0.014615893363952637,-0.1356421709060669,0.03217661380767822,-0.8544273376464844,-0.5913548469543457,0.40308400988578799,-0.2959181070327759,0.1524273157119751,-0.052297234535217288,-0.17409765720367433,-0.0408862829208374,0.5715947151184082,-0.890995979309082,0.9126505851745606,0.36517950892448428,0.2191678285598755,-0.394267201423645,0.17961442470550538]},{"fitness":0.40052419900894167,"currentPopulationID":0,"currentEntityID":12,"parentPopulationID":-1,"parentEntityID":-1,"layers":[9,5,1],"flattendedWeights":[0.4498705565929413,-0.9375383853912354,0.11964595317840576,-0.9049942493438721,0.8549261093139648,-0.3623708486557007,0.6294212341308594,0.9764125347137451,0.8877885341644287,-0.06905496120452881,0.20362603664398194,-0.8869714736938477,0.3463127315044403,0.6632003784179688,-0.2991446256637573,-0.14415991306304933,0.024444937705993654,-0.8365077972412109,-0.4877537488937378,0.5891296863555908,-0.13344228267669679,0.7491574287414551,0.6404743194580078,-0.41597235202789309,-0.17279112339019776,0.5465183258056641,-0.6776776313781738,-0.4952796697616577,-0.9930496215820313,-0.12370622158050537,0.5118591785430908,0.29545900225639346,-0.1325453519821167,-0.9287323951721191,0.3957824409008026,-0.8237974643707275,-0.6210887432098389,0.4375593364238739,0.4184245765209198,0.18915998935699464,0.5224766731262207,-0.7427821159362793,-0.7206881046295166,0.8893404006958008,-0.095084547996521,-0.5672821998596191,0.6117033958435059,-0.7425806522369385,-0.828956127166748,0.9513025283813477]},{"fitness":0.37079018354415896,"currentPopulationID":0,"currentEntityID":13,"parentPopulationID":-1,"parentEntityID":-1,"layers":[9,5,1],"flattendedWeights":[0.0410996675491333,-0.6722066402435303,-0.47520720958709719,-0.24979817867279054,-0.5083775520324707,-0.9723107814788818,0.1324225664138794,0.18174731731414796,0.3296951949596405,0.5963213443756104,0.6507833003997803,-0.6996035575866699,0.858856201171875,-0.07895362377166748,0.7017605304718018,0.3530440032482147,-0.2997835874557495,-0.35209929943084719,-0.6236355304718018,-0.3255819082260132,0.10986721515655518,-0.6821107864379883,0.5968658924102783,0.6049816608428955,-0.4267827272415161,0.7315256595611572,0.12397515773773194,0.3247353732585907,0.6890020370483398,-0.3867872953414917,-0.36224329471588137,-0.4580885171890259,-0.2301088571548462,-0.30961358547210696,-0.7600555419921875,-0.6675078868865967,0.5410158634185791,0.9228551387786865,0.9003176689147949,-0.5857946872711182,0.574437141418457,-0.9711899757385254,0.29895278811454775,0.3130442798137665,0.21400821208953858,0.423763245344162,-0.9189350605010986,-0.0395740270614624,0.585658073425293,-0.30905306339263918]},{"fitness":0.40660279989242556,"currentPopulationID":0,"currentEntityID":14,"parentPopulationID":-1,"parentEntityID":-1,"layers":[9,5,1],"flattendedWeights":[-0.472589373588562,0.004089951515197754,0.39491793513298037,-0.026050448417663575,0.8975129127502441,-0.4387434720993042,-0.4141596555709839,0.7442243099212647,-0.579085111618042,-0.11119210720062256,0.6801025867462158,-0.9961678981781006,-0.14138710498809815,0.9668338298797607,0.4433538615703583,-0.9176876544952393,-0.6164693832397461,0.692061185836792,-0.1875516176223755,-0.8463895320892334,-0.7853908538818359,0.45427677035331728,0.9853408336639404,0.7881565093994141,0.46828338503837588,-0.09663522243499756,0.7399158477783203,-0.8287079334259033,-0.1750432252883911,-0.3753899335861206,0.2929064929485321,-0.6720786094665527,0.7396538257598877,-0.5363953113555908,0.11598670482635498,-0.9275641441345215,-0.6114599704742432,-0.6540825366973877,0.31971022486686709,-0.7949895858764648,-0.7023429870605469,0.12804734706878663,-0.8566827774047852,0.37371084094047549,-0.5309407711029053,0.7115788459777832,-0.5599987506866455,0.3568281829357147,0.39649698138237,0.777461051940918]},{"fitness":0.43367454409599306,"currentPopulationID":0,"currentEntityID":15,"parentPopulationID":-1,"parentEntityID":-1,"layers":[9,5,1],"flattendedWeights":[-0.26745378971099856,0.31059667468070986,0.357634037733078,-0.48407208919525149,0.6807572841644287,-0.07547461986541748,-0.8933835029602051,0.10848510265350342,0.1131829023361206,0.023482203483581544,-0.3635309934616089,0.4351293742656708,-0.0960308313369751,0.8806922435760498,-0.08819735050201416,-0.12034404277801514,-0.961106538772583,0.24560248851776124,0.3881013095378876,0.8829114437103272,0.7305433750152588,0.2909810245037079,-0.2170325517654419,-0.19430983066558839,0.7334761619567871,0.30710193514823916,-0.5408658981323242,0.15207040309906007,-0.6154806613922119,-0.05120980739593506,-0.7115182876586914,0.5843696594238281,0.9390184879302979,-0.2024625539779663,0.7535443305969238,-0.5014550685882568,-0.8540256023406982,-0.782141923904419,-0.1256011724472046,-0.16320455074310304,0.08355462551116944,0.04899609088897705,-0.7583277225494385,0.24710309505462647,-0.8408961296081543,-0.32241666316986086,0.06903946399688721,0.30039092898368838,-0.5721867084503174,-0.628474235534668]},{"fitness":0.4359341859817505,"currentPopulationID":0,"currentEntityID":16,"parentPopulationID":-1,"parentEntityID":-1,"layers":[9,5,1],"flattendedWeights":[0.5705983638763428,0.8121850490570068,-0.5578811168670654,0.5559718608856201,-0.9035313129425049,-0.17411410808563233,0.518768310546875,-0.7398922443389893,0.027103781700134279,-0.5624988079071045,0.7225852012634277,0.7022271156311035,0.13951265811920167,-0.7538478374481201,0.3337862193584442,0.39118143916130068,-0.24381005764007569,-0.6623902320861816,-0.5400469303131104,-0.007600903511047363,-0.7007427215576172,0.6307375431060791,0.033211350440979007,-0.8254315853118897,-0.5078945159912109,0.35460731387138369,0.48155543208122256,0.41440317034721377,0.0589977502822876,0.8461387157440186,0.04359424114227295,-0.5624120235443115,0.9187731742858887,0.6207849979400635,0.5799844264984131,-0.046434998512268069,0.10546815395355225,-0.38730037212371828,0.5717630386352539,-0.08987367153167725,0.7007887363433838,0.16688835620880128,0.6626088619232178,0.8914780616760254,0.3312685191631317,0.527496337890625,-0.08644425868988037,-0.7150578498840332,-0.8538875579833984,-0.9606449604034424]},{"fitness":0.3896731436252594,"currentPopulationID":0,"currentEntityID":17,"parentPopulationID":-1,"parentEntityID":-1,"layers":[9,5,1],"flattendedWeights":[0.27239081263542178,-0.8708672523498535,0.7437481880187988,0.20901024341583253,-0.3837782144546509,-0.5293591022491455,-0.7704203128814697,0.538358211517334,0.926112174987793,0.17105448246002198,-0.4805968999862671,0.1600562334060669,0.10891449451446533,-0.72334885597229,0.6088089942932129,-0.6704788208007813,0.5207772254943848,-0.6251351833343506,-0.9134800434112549,-0.21505486965179444,-0.14149892330169679,0.9789018630981445,0.32346388697624209,0.14993536472320558,0.40100762248039248,0.21518957614898683,0.7442281246185303,-0.3213142156600952,0.023833632469177247,-0.09389173984527588,-0.034797072410583499,0.5837621688842773,-0.307597279548645,-0.6158425807952881,-0.3147977590560913,0.09807002544403076,0.7686967849731445,-0.9019973278045654,-0.5666403770446777,-0.8483374118804932,-0.3286646604537964,-0.41481149196624758,0.7570762634277344,-0.9568259716033936,-0.6494739055633545,0.7800393104553223,0.09540283679962158,0.22074830532073975,-0.709766149520874,0.3073258101940155]},{"fitness":0.38933974504470827,"currentPopulationID":0,"currentEntityID":18,"parentPopulationID":-1,"parentEntityID":-1,"layers":[9,5,1],"flattendedWeights":[0.9233541488647461,0.3688485324382782,0.6879582405090332,-0.7751271724700928,-0.25724875926971438,-0.09809410572052002,-0.5321853160858154,-0.019930720329284669,0.05070149898529053,-0.7747390270233154,0.7885243892669678,0.8443858623504639,0.09505569934844971,0.05877792835235596,0.2819335162639618,0.9909286499023438,-0.5509476661682129,-0.09996664524078369,-0.6165285110473633,0.8150036334991455,0.4266907870769501,-0.045685410499572757,0.49521157145500185,0.5561397075653076,0.715212345123291,0.32986971735954287,-0.4822896718978882,-0.08349120616912842,0.7804841995239258,-0.7746288776397705,0.8553328514099121,0.48175832629203799,-0.33956801891326907,0.6815323829650879,0.26694199442863467,-0.6617558002471924,-0.7141118049621582,-0.4520024061203003,-0.9470841884613037,0.8007757663726807,0.05248749256134033,-0.252663254737854,-0.10177695751190186,0.9703283309936523,0.37412187457084658,0.3726198375225067,-0.14015257358551026,0.2105499505996704,-0.40298712253570559,-0.9079630374908447]},{"fitness":0.3775416314601898,"currentPopulationID":0,"currentEntityID":19,"parentPopulationID":-1,"parentEntityID":-1,"layers":[9,5,1],"flattendedWeights":[-0.7655386924743652,-0.6514084339141846,0.6296002864837647,-0.4482001066207886,-0.47624385356903078,-0.622143030166626,0.9403035640716553,-0.9084725379943848,0.03204643726348877,0.9242885112762451,0.15538060665130616,-0.47851884365081789,0.1798325777053833,0.2832307517528534,0.9389283657073975,-0.0076743364334106449,0.6933026313781738,-0.41113269329071047,0.5442855358123779,0.23288357257843018,0.22080814838409425,-0.36502301692962649,-0.5210182666778565,0.8224031925201416,-0.038875460624694827,0.8067107200622559,0.5879404544830322,0.9755539894104004,0.5906684398651123,-0.2931467294692993,0.8971881866455078,0.6373753547668457,-0.6465139389038086,0.2783779799938202,0.5503866672515869,0.30229589343070986,-0.21084821224212647,0.360488623380661,0.17671263217926026,0.5087673664093018,0.5399038791656494,-0.988994836807251,0.07443749904632569,0.1947559118270874,0.9708354473114014,0.3651547133922577,0.29676124453544619,-0.4304541349411011,0.6703710556030273,-0.3506835699081421]},{"fitness":0.4123135805130005,"currentPopulationID":0,"currentEntityID":20,"parentPopulationID":-1,"parentEntityID":-1,"layers":[9,5,1],"flattendedWeights":[-0.5662326812744141,-0.8116991519927979,-0.4694715738296509,0.9458673000335693,0.836899995803833,-0.94386887550354,-0.9452664852142334,0.4300636947154999,0.7522008419036865,0.19868838787078858,0.174322247505188,-0.756915807723999,-0.8038680553436279,0.23785674571990968,0.24717462062835694,-0.16069114208221436,-0.6054942607879639,0.9654951095581055,0.26552578806877139,0.5024361610412598,-0.6435165405273438,0.6561081409454346,-0.5817720890045166,-0.267372727394104,0.7838592529296875,-0.6386168003082275,-0.918414831161499,0.2898866832256317,-0.0088576078414917,-0.2982598543167114,0.3519584834575653,-0.8087739944458008,-0.9131231307983398,-0.03293287754058838,0.7412395477294922,-0.7836389541625977,0.8999142646789551,0.7516272068023682,-0.3634876012802124,0.06710636615753174,0.80295729637146,-0.9601218700408936,0.6732237339019775,-0.7335317134857178,-0.3103214502334595,0.19771850109100343,0.8458471298217773,0.4578110873699188,-0.9555320739746094,-0.6286880970001221]},{"fitness":0.39994731545448305,"currentPopulationID":0,"currentEntityID":21,"parentPopulationID":-1,"parentEntityID":-1,"layers":[9,5,1],"flattendedWeights":[-0.432439923286438,0.10940515995025635,0.1719115972518921,0.01216113567352295,-0.12440168857574463,0.8380899429321289,-0.605759859085083,-0.5328066349029541,-0.564138650894165,0.5036153793334961,0.7969114780426025,0.33904287219047549,-0.26086246967315676,-0.6787841320037842,-0.31813037395477297,-0.5585441589355469,-0.3454385995864868,0.9668495655059815,0.2402857542037964,-0.6222970485687256,-0.6022710800170898,0.9688637256622315,-0.11638367176055908,-0.09282910823822022,0.8888070583343506,0.374939888715744,0.5456583499908447,-0.3655503988265991,-0.39576613903045657,0.15464484691619874,0.11848866939544678,0.7333085536956787,0.3676881492137909,0.1267167329788208,-0.46980226039886477,-0.44185030460357668,-0.3877159357070923,-0.569704532623291,-0.7167325019836426,-0.49623048305511477,-0.6249659061431885,0.4747020900249481,0.08034312725067139,0.2310236692428589,-0.17602956295013429,-0.4734548330307007,0.4118048846721649,0.40904828906059267,-0.9679868221282959,0.6298596858978272]},{"fitness":0.615923285484314,"currentPopulationID":0,"currentEntityID":22,"parentPopulationID":-1,"parentEntityID":-1,"layers":[9,5,1],"flattendedWeights":[0.8297343254089356,0.4274906814098358,0.3380567729473114,-0.38911712169647219,-0.6981830596923828,0.2998144328594208,0.8595008850097656,-0.9635977745056152,-0.24422705173492433,-0.05526435375213623,0.007471442222595215,0.11413395404815674,-0.6956968307495117,-0.1814509630203247,0.8019719123840332,-0.7354896068572998,-0.1810976266860962,0.8429081439971924,-0.588491678237915,-0.2237330675125122,0.15771090984344483,0.11978328227996826,0.882439136505127,-0.39303863048553469,-0.5728781223297119,0.07586061954498291,0.337645024061203,0.9700720310211182,-0.49473702907562258,0.6440978050231934,-0.6651713848114014,-0.4535261392593384,0.24023878574371339,-0.8066613674163818,-0.765789270401001,0.10195672512054444,-0.12216365337371826,-0.8080391883850098,0.017679810523986818,0.9906423091888428,-0.07287585735321045,-0.6484873294830322,0.7780194282531738,-0.3577154874801636,-0.5180234909057617,0.20665180683135987,0.23225891590118409,0.0037463903427124025,0.6110198497772217,-0.06374537944793701]},{"fitness":0.3747425675392151,"currentPopulationID":0,"currentEntityID":23,"parentPopulationID":-1,"parentEntityID":-1,"layers":[9,5,1],"flattendedWeights":[0.8380436897277832,-0.036026835441589358,-0.3264874219894409,0.29416796565055849,-0.17098915576934815,-0.4925729036331177,0.6755797863006592,0.032979607582092288,0.4572593867778778,0.5037076473236084,0.29047295451164248,0.5169594287872315,-0.6419353485107422,-0.513103723526001,0.2514190375804901,-0.1687861680984497,0.3320562541484833,0.5055532455444336,-0.16609561443328858,-0.3202627897262573,0.5598361492156982,-0.9619083404541016,-0.9859883785247803,-0.39282453060150149,-0.24045288562774659,-0.021064162254333497,0.13273584842681886,0.28118082880973818,-0.8764917850494385,0.849036455154419,0.4993261992931366,0.013115525245666504,0.8499865531921387,0.19674265384674073,-0.6615159511566162,-0.9673557281494141,-0.5411539077758789,-0.5348851680755615,0.42151209712028506,-0.3029595613479614,-0.04996955394744873,-0.7236707210540772,-0.27114593982696535,-0.4279855489730835,0.32790014147758486,0.5112943649291992,0.770822286605835,-0.801485538482666,-0.5947465896606445,0.7219130992889404]},{"fitness":0.46398311853408816,"currentPopulationID":0,"currentEntityID":24,"parentPopulationID":-1,"parentEntityID":-1,"layers":[9,5,1],"flattendedWeights":[0.829157829284668,0.7537577152252197,-0.13537728786468507,-0.9129843711853027,-0.2624248266220093,0.6250729560852051,-0.20292556285858155,-0.3077815771102905,-0.09369122982025147,-0.4385608434677124,0.6551005840301514,-0.4831610918045044,-0.09308850765228272,0.9504373073577881,0.4832100570201874,-0.8154418468475342,0.7813739776611328,-0.44460785388946535,-0.5765674114227295,-0.2838984727859497,0.361066073179245,-0.7712476253509522,-0.08169472217559815,-0.40840423107147219,0.874258279800415,0.3406362235546112,-0.2487391233444214,0.7132000923156738,0.2569086253643036,-0.6824030876159668,-0.34320175647735598,-0.1797395944595337,-0.7995936870574951,-0.21777284145355225,-0.2390536069869995,-0.08235275745391846,0.23130929470062257,0.49955984950065615,-0.3015979528427124,-0.7857043743133545,-0.44703972339630129,-0.5188882350921631,0.017853140830993654,0.33631250262260439,-0.21390116214752198,0.6259984970092773,-0.9083948135375977,0.7115769386291504,0.23544061183929444,-0.8088893890380859]},{"fitness":0.1634281426668167,"currentPopulationID":0,"currentEntityID":25,"parentPopulationID":-1,"parentEntityID":-1,"layers":[9,5,1],"flattendedWeights":[-0.4847911596298218,-0.5145859718322754,-0.4144939184188843,-0.017738699913024904,-0.24610674381256104,-0.02299511432647705,0.6318459510803223,-0.5779953002929688,0.5344264507293701,-0.019214272499084474,-0.7574348449707031,0.5160572528839111,-0.1071239709854126,-0.8608176708221436,0.04409348964691162,0.9951329231262207,0.47672006487846377,-0.9395053386688232,0.5030455589294434,-0.48490726947784426,0.5250861644744873,0.7033300399780273,0.3983759582042694,-0.4416900873184204,0.9144220352172852,0.9947080612182617,0.430620402097702,-0.5228085517883301,0.4742748439311981,-0.413810133934021,0.5220582485198975,0.4424271285533905,-0.18450653553009034,0.04178917407989502,0.38750383257865908,-0.3510357141494751,-0.5499532222747803,0.8158888816833496,0.6053421497344971,-0.9250016212463379,0.3968367278575897,-0.1838904619216919,-0.49299156665802,0.03824484348297119,0.8412165641784668,-0.6397695541381836,-0.7213344573974609,0.6191420555114746,0.9510378837585449,0.48503872752189639]},{"fitness":0.47056376934051516,"currentPopulationID":0,"currentEntityID":26,"parentPopulationID":-1,"parentEntityID":-1,"layers":[9,5,1],"flattendedWeights":[-0.4733089208602905,-0.6364669799804688,0.29538294672966006,0.34390589594841006,0.6135015487670898,-0.7855710983276367,0.0837022066116333,-0.8142070770263672,0.1886059045791626,-0.010819077491760254,0.8689553737640381,0.8056001663208008,-0.9428505897521973,0.1373049020767212,0.14701807498931886,0.3118605315685272,-0.4813941717147827,0.1977020502090454,-0.16086995601654054,0.8290996551513672,0.13517582416534425,-0.46330082416534426,-0.6403508186340332,-0.9196903705596924,-0.6385531425476074,0.37871214747428896,0.05448329448699951,0.9693014621734619,-0.0047866106033325199,-0.8876290321350098,0.28673240542411806,0.41619083285331728,-0.9504451751708984,-0.4338587522506714,0.1311875581741333,-0.7891764640808106,0.9822597503662109,-0.11239326000213623,0.8563523292541504,-0.8935861587524414,-0.30978167057037356,0.2702431380748749,-0.12036621570587158,-0.421441912651062,0.5659997463226318,-0.06705296039581299,-0.31588757038116457,0.17222273349761964,-0.6135971546173096,0.4160303771495819]},{"fitness":0.3436294496059418,"currentPopulationID":0,"currentEntityID":27,"parentPopulationID":-1,"parentEntityID":-1,"layers":[9,5,1],"flattendedWeights":[-0.6803479194641113,-0.26467597484588625,0.45125195384025576,0.8823068141937256,0.6683287620544434,-0.7427644729614258,0.21313464641571046,0.3785555064678192,0.8674023151397705,0.08188045024871826,0.5650932788848877,0.5240626335144043,-0.7068021297454834,-0.48550260066986086,0.868260383605957,-0.9170863628387451,0.15017902851104737,0.23536241054534913,-0.4156433343887329,-0.6494119167327881,0.3837530314922333,-0.8245007991790772,0.0244828462600708,0.33917972445487978,0.5129368305206299,-0.39500486850738528,0.7956466674804688,-0.245461106300354,0.20855605602264405,-0.7908992767333984,-0.112998366355896,0.6414790153503418,-0.0844506025314331,0.12106072902679444,-0.7267427444458008,0.5173611640930176,-0.3349040746688843,-0.20011556148529054,-0.7063450813293457,-0.04243886470794678,0.28157827258110049,0.029656052589416505,0.8608496189117432,-0.4485570192337036,0.22078359127044679,-0.9727039337158203,0.44141003489494326,0.19989168643951417,-0.7085914611816406,-0.29376542568206789]},{"fitness":0.40424180030822756,"currentPopulationID":0,"currentEntityID":28,"parentPopulationID":-1,"parentEntityID":-1,"layers":[9,5,1],"flattendedWeights":[-0.21399128437042237,-0.9266750812530518,0.7295558452606201,-0.4341353178024292,-0.23344004154205323,0.5449874401092529,0.038338303565979007,-0.042714476585388187,0.8299973011016846,0.4777772128582001,-0.022782206535339357,-0.09198319911956787,0.5614817142486572,0.595416784286499,0.16530311107635499,0.6925668716430664,-0.613497257232666,-0.4609586000442505,0.7441282272338867,0.798830509185791,-0.3382009267807007,-0.8850231170654297,-0.280619740486145,0.6329119205474854,0.14650976657867433,0.3475970923900604,-0.5260822772979736,0.22970545291900636,0.5359179973602295,-0.6417882442474365,-0.9867241382598877,0.16850507259368897,0.33213087916374209,0.09102857112884522,0.817704439163208,0.16881287097930909,0.036049485206604007,-0.3581620454788208,-0.19978034496307374,-0.6576070785522461,-0.178291916847229,0.9198477268218994,-0.6949248313903809,-0.7498316764831543,0.37426111102104189,-0.6569445133209229,0.4394166171550751,0.8443782329559326,0.6262829303741455,0.2689318358898163]},{"fitness":0.414503276348114,"currentPopulationID":0,"currentEntityID":29,"parentPopulationID":-1,"parentEntityID":-1,"layers":[9,5,1],"flattendedWeights":[0.39366385340690615,-0.2691904306411743,-0.5673470497131348,0.23440206050872804,0.057056307792663577,0.8482840061187744,-0.9960768222808838,-0.17797625064849854,-0.8798387050628662,0.953223466873169,0.8905668258666992,0.8434789180755615,0.766488790512085,-0.787971019744873,-0.3715609312057495,-0.6708414554595947,-0.4898179769515991,0.9713828563690186,0.010531067848205567,0.9273421764373779,0.45238468050956728,0.5460996627807617,0.9944169521331787,-0.878767728805542,-0.9050905704498291,0.32471296191215517,0.8532314300537109,-0.6499326229095459,-0.014571785926818848,-0.25637781620025637,0.6964511871337891,0.4268159568309784,-0.99263596534729,0.9676167964935303,-0.5433094501495361,0.9253780841827393,-0.20038330554962159,-0.3325897455215454,0.8209807872772217,0.4708077609539032,0.45412203669548037,0.3433530032634735,-0.9486362934112549,0.6569852828979492,0.02313530445098877,0.8819591999053955,0.2532975375652313,0.20985138416290284,0.6938891410827637,0.3018459975719452]},{"fitness":0.42068010568618777,"currentPopulationID":0,"currentEntityID":30,"parentPopulationID":-1,"parentEntityID":-1,"layers":[9,5,1],"flattendedWeights":[0.02624809741973877,0.7858796119689941,0.5686450004577637,-0.2819713354110718,0.6255490779876709,-0.49742162227630618,-0.8218622207641602,-0.23617923259735108,0.8076038360595703,0.1720644235610962,-0.7868618965148926,-0.056386351585388187,0.33478042483329775,0.7335317134857178,0.6187207698822022,0.03457152843475342,0.6742677688598633,-0.1820436716079712,0.3218354880809784,0.9859609603881836,-0.3221932649612427,-0.8450524806976318,-0.7739572525024414,-0.3030470609664917,-0.10649764537811279,-0.5658419132232666,0.8894083499908447,0.2500273883342743,0.40382120013237,-0.31704938411712649,0.442095011472702,0.8212335109710693,-0.7427017688751221,0.4983954131603241,0.09999334812164307,0.6303818225860596,-0.038922667503356937,-0.9182391166687012,0.6322388648986816,-0.8205702304840088,-0.10038149356842041,0.7885591983795166,0.2354198694229126,-0.3506268262863159,-0.1956852674484253,-0.8225245475769043,-0.21226990222930909,-0.6153256893157959,0.8074209690093994,-0.9263134002685547]},{"fitness":0.38801753520965578,"currentPopulationID":0,"currentEntityID":31,"parentPopulationID":-1,"parentEntityID":-1,"layers":[9,5,1],"flattendedWeights":[0.7875421047210693,-0.41217219829559328,0.0851668119430542,-0.685497522354126,-0.7151615619659424,-0.8637561798095703,0.7175090312957764,-0.4901639223098755,0.11794984340667725,-0.231284499168396,-0.27918946743011477,-0.5451092720031738,-0.0975257158279419,-0.6282684803009033,0.6604018211364746,0.22404038906097413,-0.5276083946228027,0.378749817609787,-0.48268258571624758,-0.6361746788024902,0.546832799911499,0.33598706126213076,0.37100693583488467,-0.8915643692016602,-0.9227538108825684,0.7870585918426514,-0.5725274085998535,0.38680240511894228,-0.5717332363128662,0.1868687868118286,0.3248738944530487,-0.9657800197601318,-0.7759191989898682,0.5786087512969971,0.1498028039932251,0.2577023208141327,0.1749202013015747,0.649284839630127,-0.444438099861145,0.5430431365966797,-0.20212328433990479,0.21124565601348878,-0.9084913730621338,-0.5339856147766113,0.08198821544647217,0.07269227504730225,-0.42873990535736086,-0.3089503049850464,-0.2430633306503296,-0.8615827560424805]},{"fitness":0.39053332805633547,"currentPopulationID":0,"currentEntityID":32,"parentPopulationID":-1,"parentEntityID":-1,"layers":[9,5,1],"flattendedWeights":[-0.4197779893875122,0.5735538005828857,-0.43173444271087649,-0.9768080711364746,0.48731157183647158,0.1651686429977417,-0.020764946937561036,-0.5970020294189453,-0.4327124357223511,0.6402146816253662,-0.5556702613830566,-0.9034271240234375,-0.8480126857757568,-0.9878311157226563,0.8813741207122803,-0.6931896209716797,0.7584969997406006,-0.7351207733154297,-0.2676020860671997,0.7367639541625977,-0.49009978771209719,-0.7419099807739258,-0.8624866008758545,0.48738476634025576,0.8295340538024902,0.5830967426300049,-0.3541184663772583,0.7312650680541992,0.9323110580444336,0.683297872543335,0.001773238182067871,0.40682145953178408,-0.5964639186859131,-0.08767688274383545,0.6985762119293213,0.23196589946746827,-0.8620274066925049,0.5241124629974365,-0.48177897930145266,-0.7839593887329102,0.8264269828796387,-0.5432240962982178,-0.08281147480010987,-0.11640727519989014,0.5357880592346191,-0.24676883220672608,0.6875109672546387,0.23542487621307374,0.43355342745780947,0.6652982234954834]},{"fitness":0.3633910119533539,"currentPopulationID":0,"currentEntityID":33,"parentPopulationID":-1,"parentEntityID":-1,"layers":[9,5,1],"flattendedWeights":[-0.014796853065490723,-0.42518341541290285,0.39696165919303896,0.5275478363037109,0.3291570842266083,0.4357299506664276,0.656196117401123,0.7793188095092773,-0.9783949851989746,0.94826340675354,-0.6069808006286621,-0.03200209140777588,0.03673708438873291,-0.7052648067474365,0.07164227962493897,0.5575411319732666,0.5914661884307861,-0.2190793752670288,-0.0258713960647583,0.7564892768859863,-0.4587463140487671,-0.4227052927017212,-0.4737182855606079,0.29511114954948428,0.1842273473739624,-0.8493499755859375,0.875643253326416,0.459107369184494,0.11309731006622315,-0.8726179599761963,0.6533992290496826,-0.28960955142974856,0.3219709098339081,-0.4736865758895874,0.08388292789459229,0.9359779357910156,0.18359363079071046,0.05810558795928955,-0.907583475112915,0.6515543460845947,0.2158743143081665,0.24078476428985597,0.40610501170158389,-0.38735949993133547,0.27663466334342959,0.9828152656555176,-0.6591980457305908,-0.10329735279083252,0.5729520320892334,0.314188688993454]},{"fitness":0.38158389925956728,"currentPopulationID":0,"currentEntityID":34,"parentPopulationID":-1,"parentEntityID":-1,"layers":[9,5,1],"flattendedWeights":[0.1040276288986206,0.43587610125541689,-0.5063788890838623,-0.6358165740966797,0.9512021541595459,-0.23806965351104737,0.7906086444854736,-0.20438110828399659,0.4930278956890106,-0.06601989269256592,-0.11198198795318604,0.12564504146575929,-0.6083474159240723,-0.5328521728515625,-0.4706076383590698,-0.8055534362792969,0.16154491901397706,-0.8357136249542236,-0.5896921157836914,0.8776764869689941,-0.8032324314117432,0.5993771553039551,-0.34474074840545657,-0.08337104320526123,-0.7401342391967773,-0.42242324352264407,0.9362938404083252,-0.14265382289886475,0.06666338443756104,-0.3981412649154663,-0.21838152408599854,-0.2101353406906128,0.6963977813720703,-0.0020133256912231447,0.07051956653594971,-0.4622262716293335,-0.15275967121124268,0.2216554880142212,-0.7840111255645752,0.7323794364929199,0.310667484998703,0.44849058985710146,0.8971073627471924,0.4658944308757782,-0.583371639251709,-0.08644402027130127,0.46895167231559756,0.30820247530937197,0.5086584091186523,0.0780097246170044]},{"fitness":0.4018409252166748,"currentPopulationID":0,"currentEntityID":35,"parentPopulationID":-1,"parentEntityID":-1,"layers":[9,5,1],"flattendedWeights":[0.20109689235687257,-0.3155430555343628,-0.04511439800262451,-0.7306685447692871,-0.016968607902526857,-0.22125470638275147,-0.7226212024688721,0.6136972904205322,0.9873311519622803,-0.049585700035095218,-0.640282392501831,0.22842752933502198,-0.7461094856262207,0.13898050785064698,0.675121545791626,-0.7829527854919434,0.6841235160827637,-0.029137492179870607,0.23999249935150147,-0.07261049747467041,0.8564503192901611,-0.4111090898513794,0.18044602870941163,-0.5785770416259766,0.42912885546684267,-0.3599358797073364,0.5887539386749268,0.7070503234863281,0.7124776840209961,0.3675996959209442,0.6264209747314453,-0.033299803733825687,0.13586437702178956,-0.8082027435302734,-0.30978238582611086,-0.9225082397460938,0.008427977561950684,0.5257503986358643,0.10767495632171631,-0.4901849031448364,0.00022780895233154297,0.6459670066833496,-0.05567777156829834,0.33618971705436709,-0.2090843915939331,0.7529239654541016,-0.02076542377471924,0.10713827610015869,-0.8673841953277588,-0.8137052059173584]},{"fitness":0.4171363115310669,"currentPopulationID":0,"currentEntityID":36,"parentPopulationID":-1,"parentEntityID":-1,"layers":[9,5,1],"flattendedWeights":[-0.507392168045044,-0.11677014827728272,-0.6447551250457764,-0.2542787790298462,-0.9991698265075684,-0.8413360118865967,0.17612707614898683,-0.9033164978027344,-0.045886874198913577,-0.852393627166748,0.29749199748039248,-0.2636169195175171,0.619096040725708,-0.3684769868850708,-0.7316808700561523,-0.62373948097229,-0.6610088348388672,0.2778322398662567,0.6741461753845215,0.8152439594268799,-0.27691471576690676,0.8921618461608887,0.5123133659362793,0.7853124141693115,0.6435279846191406,-0.3596740961074829,0.5310306549072266,0.846660852432251,0.06861531734466553,0.6979153156280518,-0.5784461498260498,-0.3306525945663452,0.028322577476501466,0.6404821872711182,0.777137279510498,-0.9481077194213867,0.8750274181365967,-0.5202066898345947,0.8275001049041748,0.531867504119873,0.9676792621612549,0.8530502319335938,-0.2010418176651001,-0.28292858600616457,-0.6772787570953369,0.983802318572998,-0.23531758785247804,-0.868077278137207,0.6994788646697998,0.5252065658569336]},{"fitness":0.4451645016670227,"currentPopulationID":0,"currentEntityID":37,"parentPopulationID":-1,"parentEntityID":-1,"layers":[9,5,1],"flattendedWeights":[-0.7707409858703613,-0.4354311227798462,-0.2938307523727417,0.02155625820159912,0.5994837284088135,0.8902072906494141,0.5152852535247803,-0.5832173824310303,0.2573988139629364,0.5400476455688477,-0.37302863597869875,0.2419651746749878,0.41951486468315127,-0.4741889238357544,-0.0031746625900268556,-0.9089653491973877,-0.44178545475006106,0.008066058158874512,-0.7067301273345947,0.977288007736206,0.5481078624725342,-0.5270838737487793,-0.6277186870574951,-0.5409562587738037,0.6276159286499023,-0.6664602756500244,-0.37219321727752688,0.9548225402832031,-0.7288517951965332,-0.10266578197479248,0.45209071040153506,-0.06718885898590088,-0.7841813564300537,-0.6553616523742676,0.7772297859191895,0.7312352657318115,0.5960414409637451,0.7057385444641113,0.9152138233184815,-0.4740852117538452,-0.8817648887634277,0.5236585140228272,0.9148778915405273,0.5145487785339356,0.19731462001800538,0.9801709651947022,-0.7674083709716797,0.25722262263298037,-0.649590253829956,0.548377513885498]},{"fitness":0.37802842259407046,"currentPopulationID":0,"currentEntityID":38,"parentPopulationID":-1,"parentEntityID":-1,"layers":[9,5,1],"flattendedWeights":[0.1660376787185669,-0.47605669498443606,0.671288251876831,-0.9891307353973389,0.8936002254486084,0.9238128662109375,-0.2860976457595825,-0.2863849401473999,-0.05340898036956787,-0.37528741359710696,-0.35304582118988039,0.7162184715270996,-0.4175926446914673,0.20446288585662843,-0.5087165832519531,-0.7055017948150635,0.09124696254730225,-0.18817412853240968,0.5710461139678955,0.0996478796005249,-0.13058531284332276,-0.9064531326293945,0.45853516459465029,-0.28196561336517336,-0.8868892192840576,0.7074897289276123,0.6020917892456055,0.20059645175933839,0.7458641529083252,-0.33286964893341067,0.26239654421806338,-0.8991196155548096,0.7599155902862549,-0.8020429611206055,0.15985572338104249,-0.007953047752380371,0.11016571521759033,-0.2761906385421753,0.9057557582855225,-0.730182409286499,0.3097984492778778,0.9628391265869141,0.3220174014568329,0.7643773555755615,0.37573835253715517,0.48787423968315127,0.7626910209655762,0.18620336055755616,0.08000457286834717,0.44555899500846865]},{"fitness":0.43673020601272585,"currentPopulationID":0,"currentEntityID":39,"parentPopulationID":-1,"parentEntityID":-1,"layers":[9,5,1],"flattendedWeights":[-0.9270098209381104,-0.9876987934112549,0.6749463081359863,-0.7651448249816895,0.4301769435405731,-0.4402726888656616,0.6484668254852295,0.2930435836315155,0.6467726230621338,-0.8669886589050293,0.33798953890800478,0.6561059951782227,-0.015181183815002442,0.7201626300811768,-0.3433758020401001,-0.14080679416656495,-0.9014859199523926,-0.2557462453842163,0.8704166412353516,-0.6606869697570801,0.7480802536010742,0.8006770610809326,-0.5314998626708984,-0.4991823434829712,-0.8778064250946045,-0.7318787574768066,-0.8072166442871094,0.5881402492523193,-0.4569467306137085,-0.9288904666900635,0.8896405696868897,-0.6760969161987305,0.9972732067108154,-0.6911735534667969,-0.2068241834640503,-0.554307222366333,-0.8027234077453613,-0.6816341876983643,-0.8872926235198975,-0.776444673538208,0.306427925825119,0.06481873989105225,0.3191656768321991,0.5557761192321777,-0.40365374088287356,-0.9749312400817871,0.27233073115348818,-0.4661186933517456,-0.7308340072631836,0.8308796882629395]},{"fitness":0.3966490626335144,"currentPopulationID":0,"currentEntityID":40,"parentPopulationID":-1,"parentEntityID":-1,"layers":[9,5,1],"flattendedWeights":[-0.7416572570800781,-0.17590653896331788,0.7964930534362793,0.9042360782623291,0.18847286701202393,-0.8676488399505615,-0.5426952838897705,0.8767893314361572,0.5182056427001953,-0.06152784824371338,-0.6375746726989746,0.4707305133342743,0.32935234904289248,0.2755539119243622,0.044031739234924319,-0.8804266452789307,-0.8267538547515869,0.31296536326408389,-0.6428506374359131,-0.727656364440918,-0.7894077301025391,-0.46220433712005618,-0.20820438861846925,-0.8042802810668945,0.13946735858917237,-0.6396172046661377,-0.07364141941070557,0.32034680247306826,-0.5936720371246338,-0.05301463603973389,0.5565178394317627,-0.1841200590133667,-0.1076585054397583,0.03326714038848877,-0.9099955558776856,0.9288146495819092,-0.3861576318740845,-0.29249584674835207,-0.8510711193084717,0.23462116718292237,0.83927321434021,-0.4825173616409302,-0.028758645057678224,-0.943962812423706,-0.7373099327087402,0.7645432949066162,-0.6695637702941895,-0.9310970306396484,-0.990445613861084,0.4117102324962616]},{"fitness":0.6950182914733887,"currentPopulationID":0,"currentEntityID":41,"parentPopulationID":-1,"parentEntityID":-1,"layers":[9,5,1],"flattendedWeights":[-0.8405146598815918,-0.8309469223022461,0.5302059650421143,0.7671499252319336,-0.08536398410797119,-0.6880035400390625,0.9786262512207031,-0.16658484935760499,-0.8110024929046631,-0.7604198455810547,0.006742596626281738,0.4656519591808319,-0.8308353424072266,-0.9312546253204346,0.41378089785575869,0.810983419418335,0.4987957179546356,-0.7931315898895264,0.8331592082977295,-0.6285700798034668,0.38641735911369326,-0.0024100542068481447,0.5584249496459961,0.4739665687084198,0.2666263282299042,-0.5275819301605225,0.8947076797485352,-0.8619153499603272,-0.31831538677215578,0.6519145965576172,0.7036983966827393,-0.1735454797744751,-0.7071323394775391,-0.624661922454834,0.33663269877433779,-0.962226152420044,-0.5165514945983887,-0.3821655511856079,-0.4523099660873413,-0.9120082855224609,0.856208324432373,-0.36781322956085207,0.5457141399383545,-0.26415812969207766,-0.8008339405059815,0.5725536346435547,0.4230639636516571,-0.43472516536712649,0.6477437019348145,-0.04460132122039795]},{"fitness":0.3988611698150635,"currentPopulationID":0,"currentEntityID":42,"parentPopulationID":-1,"parentEntityID":-1,"layers":[9,5,1],"flattendedWeights":[-0.25439226627349856,0.43739721179008486,0.9734692573547363,-0.12684333324432374,0.007508397102355957,0.6275687217712402,-0.10170853137969971,0.3493287265300751,-0.06174743175506592,-0.16815483570098878,-0.5185022354125977,0.034489989280700687,0.7088630199432373,-0.14455807209014893,-0.9051814079284668,0.7874751091003418,0.9252073764801025,0.8003828525543213,-0.6528315544128418,-0.5937826633453369,0.41963908076286318,0.6878664493560791,0.810863733291626,0.8166642189025879,-0.9306759834289551,-0.739055871963501,-0.18728268146514893,0.11489760875701904,0.6588835716247559,0.40459343791007998,-0.6915009021759033,0.40122219920158389,-0.8738124370574951,-0.20690429210662843,-0.3809546232223511,0.6549172401428223,0.732001781463623,0.17187535762786866,0.1135181188583374,-0.2600160837173462,0.8244848251342773,0.6797170639038086,0.4618177115917206,0.30551573634147646,0.4194593131542206,0.05444824695587158,0.04094088077545166,0.44115397334098818,0.7759768962860107,0.4186658561229706]},{"fitness":0.41008397936820986,"currentPopulationID":0,"currentEntityID":43,"parentPopulationID":-1,"parentEntityID":-1,"layers":[9,5,1],"flattendedWeights":[0.10627353191375733,-0.1168750524520874,-0.479042649269104,0.3715531527996063,0.12120091915130615,0.6054396629333496,-0.39706504344940188,0.3376767337322235,-0.07659637928009033,-0.053372979164123538,0.7327051162719727,-0.5055859088897705,0.8830618858337402,0.4664253890514374,0.865767240524292,0.6114857196807861,-0.026789069175720216,-0.21448171138763429,-0.33180296421051028,0.4645828902721405,0.5819003582000732,0.13411200046539308,-0.48342835903167727,0.013785243034362793,-0.49082863330841067,0.8162269592285156,-0.7828648090362549,-0.8507730960845947,-0.10108077526092529,-0.6740002632141113,0.7239184379577637,-0.20602881908416749,-0.43104588985443118,-0.7087597846984863,-0.5337004661560059,-0.025550246238708497,0.503201961517334,-0.40675270557403567,0.801124095916748,0.45736977458000185,-0.4825938940048218,0.5220761299133301,-0.42088067531585696,0.06863391399383545,0.02121436595916748,0.8841469287872315,0.7873227596282959,-0.44454848766326907,0.6914081573486328,-0.1887730360031128]},{"fitness":2.790351390838623,"currentPopulationID":0,"currentEntityID":44,"parentPopulationID":-1,"parentEntityID":-1,"layers":[9,5,1],"flattendedWeights":[-0.3510493040084839,-0.42355287075042727,-0.2657207250595093,0.3484964072704315,-0.7666325569152832,-0.5382504463195801,0.5914638042449951,-0.26223576068878176,0.48944970965385439,-0.40869247913360598,0.9748060703277588,-0.4542750120162964,-0.29180610179901125,-0.37861764430999758,0.618187665939331,-0.48521125316619875,-0.2909353971481323,0.30406877398490908,0.720494270324707,-0.21613895893096925,-0.2505398988723755,0.5714981555938721,0.6655046939849854,-0.9153292179107666,0.19005978107452393,-0.9742658138275147,-0.7351682186126709,0.9718611240386963,0.4150833785533905,-0.75699782371521,-0.21206915378570558,-0.329891562461853,-0.8984534740447998,0.028966546058654786,0.5121636390686035,-0.5004427433013916,-0.031051278114318849,0.7334132194519043,-0.9813344478607178,0.4136910140514374,-0.3386155366897583,0.3073141276836395,-0.9751250743865967,-0.7078852653503418,0.1731654405593872,0.17078626155853272,-0.23102056980133058,0.6652920246124268,0.23891818523406983,-0.14316976070404054]},{"fitness":0.43871206045150759,"currentPopulationID":0,"currentEntityID":45,"parentPopulationID":-1,"parentEntityID":-1,"layers":[9,5,1],"flattendedWeights":[0.660630464553833,0.9957883358001709,0.32115837931632998,0.6504361629486084,-0.08424961566925049,0.5762529373168945,0.10206758975982666,0.5342540740966797,0.3033239543437958,0.7339401245117188,-0.2055598497390747,0.6912586688995361,-0.5696070194244385,0.5888645648956299,0.8883984088897705,0.3328261077404022,0.685990571975708,-0.2517305612564087,0.27673932909965517,0.8662047386169434,-0.2278062105178833,0.6642420291900635,0.1655665636062622,-0.276239275932312,-0.8639817237854004,-0.8704485893249512,-0.06422221660614014,0.8011825084686279,0.33456656336784365,0.905860185623169,-0.7827341556549072,-0.36105024814605715,0.6290340423583984,-0.7434368133544922,-0.549309492111206,0.6056654453277588,-0.17454946041107179,0.4796898066997528,0.9577326774597168,0.43339893221855166,-0.29602229595184328,0.9466109275817871,-0.31161415576934817,-0.8447678089141846,-0.9070014953613281,-0.8895037174224854,0.9030947685241699,-0.572498083114624,-0.060449957847595218,0.3339662253856659]},{"fitness":0.4282454550266266,"currentPopulationID":0,"currentEntityID":46,"parentPopulationID":-1,"parentEntityID":-1,"layers":[9,5,1],"flattendedWeights":[0.5379848480224609,-0.22880709171295167,-0.3053818941116333,-0.5302140712738037,-0.9708108901977539,0.3542599380016327,-0.41952526569366457,0.22598206996917725,-0.03668177127838135,-0.7932729721069336,0.9372720718383789,0.22047626972198487,-0.5275859832763672,-0.5320885181427002,-0.9283790588378906,0.2421807050704956,-0.9611833095550537,0.8534145355224609,0.6442441940307617,0.28061816096305849,0.4933783710002899,0.3225097358226776,-0.4150289297103882,0.3336758315563202,-0.09272444248199463,-0.818368673324585,-0.6086909770965576,-0.48649919033050539,0.774949312210083,-0.5132629871368408,0.6070942878723145,0.551175594329834,0.9965903759002686,-0.7455770969390869,-0.7476880550384522,-0.6942179203033447,-0.22021853923797608,0.11371386051177979,0.7159476280212402,-0.3338371515274048,0.7630569934844971,0.17636597156524659,-0.19903814792633058,0.7352161407470703,0.29636117815971377,-0.26430022716522219,-0.18306505680084229,-0.7895064353942871,0.34781643748283389,0.8193864822387695]},{"fitness":0.42437514662742617,"currentPopulationID":0,"currentEntityID":47,"parentPopulationID":-1,"parentEntityID":-1,"layers":[9,5,1],"flattendedWeights":[0.000008463859558105469,-0.05604207515716553,-0.3975459337234497,-0.04682457447052002,0.8086378574371338,0.39281246066093447,0.4485263526439667,-0.9131698608398438,0.6326370239257813,-0.0752485990524292,-0.29205429553985598,-0.5980360507965088,-0.3565765619277954,0.3402874171733856,0.7126133441925049,-0.06633555889129639,0.1561976671218872,0.1716979742050171,-0.23588359355926515,0.9664537906646729,-0.6539947986602783,-0.5745978355407715,-0.4592396020889282,-0.34527766704559328,-0.09432852268218994,-0.8308625221252441,0.7290732860565186,-0.6548371315002441,0.4422895610332489,0.8620800971984863,0.2992677390575409,0.4479179084300995,0.09441125392913819,-0.9191820621490479,-0.5866460800170898,-0.083229660987854,0.5561702251434326,-0.9898161888122559,-0.24484312534332276,0.22404611110687257,0.15070569515228272,0.10029494762420654,0.535977840423584,0.9348540306091309,0.5592179298400879,0.053400635719299319,0.5565085411071777,-0.10735905170440674,-0.13090980052947999,-0.4115949869155884]},{"fitness":0.38964903354644778,"currentPopulationID":0,"currentEntityID":48,"parentPopulationID":-1,"parentEntityID":-1,"layers":[9,5,1],"flattendedWeights":[-0.9993977546691895,0.13656795024871827,-0.15434777736663819,0.8630921840667725,-0.5696811676025391,-0.481533408164978,-0.16156184673309327,0.2613191306591034,-0.324604868888855,-0.8793988227844238,0.8080925941467285,-0.2016671895980835,0.5034844875335693,0.7618114948272705,-0.19622528553009034,0.7486305236816406,-0.07412850856781006,-0.6829264163970947,0.7463552951812744,-0.1179894208908081,-0.4174100160598755,0.5033745765686035,-0.12683522701263429,0.16122853755950929,-0.22103655338287354,0.27313968539237978,0.864356279373169,-0.7295539379119873,-0.5118515491485596,0.042358994483947757,0.0468674898147583,0.24530136585235597,0.21720802783966065,0.82407546043396,0.9283068180084229,-0.5128481388092041,-0.1598430871963501,0.9900922775268555,0.2511279284954071,-0.3335615396499634,-0.039801716804504397,-0.44715559482574465,-0.8444581031799316,-0.4034186601638794,-0.9379520416259766,0.33226677775382998,-0.10562026500701904,0.606865406036377,-0.9667868614196777,-0.42984068393707278]},{"fitness":0.3986692428588867,"currentPopulationID":0,"currentEntityID":49,"parentPopulationID":-1,"parentEntityID":-1,"layers":[9,5,1],"flattendedWeights":[-0.10709583759307862,0.33128949999809267,0.7469863891601563,0.09456193447113037,-0.7330036163330078,0.05683290958404541,-0.2655752897262573,0.44978973269462588,0.4564611613750458,-0.3681560754776001,-0.050559163093566897,0.3477480113506317,0.7244653701782227,-0.718505859375,0.9841418266296387,0.022221684455871583,-0.13783323764801026,0.11732685565948487,-0.2485126256942749,0.5142307281494141,-0.7975606918334961,-0.367730975151062,0.9916908740997315,-0.9217562675476074,-0.3293863534927368,0.6616766452789307,0.6025834083557129,-0.4748302698135376,0.5967686176300049,-0.35763561725616457,-0.9500017166137695,0.960468053817749,-0.3965674638748169,0.018370509147644044,0.726374626159668,-0.330785870552063,0.6798021793365479,0.23932397365570069,-0.8125982284545898,-0.7255303859710693,0.9832110404968262,-0.6507546901702881,-0.35343778133392336,-0.12241232395172119,0.3536979854106903,-0.7823500633239746,-0.7954533100128174,0.13884985446929933,-0.4311307668685913,-0.30986058712005618]},{"fitness":0.4068908393383026,"currentPopulationID":0,"currentEntityID":50,"parentPopulationID":-1,"parentEntityID":-1,"layers":[9,5,1],"flattendedWeights":[0.340990275144577,0.08152711391448975,-0.40670764446258547,0.9809243679046631,-0.7097806930541992,-0.7936584949493408,-0.8183562755584717,0.469919890165329,-0.8960075378417969,0.6510794162750244,0.8511295318603516,-0.6172811985015869,-0.7281293869018555,-0.3018144369125366,0.9032344818115234,-0.257839560508728,0.1328808069229126,-0.11073744297027588,0.47786638140678408,0.7238583564758301,-0.14131057262420655,0.9456772804260254,0.7347548007965088,-0.5204868316650391,0.27209779620170596,-0.22844946384429933,-0.3763326406478882,0.9392552375793457,-0.5767862796783447,0.8747425079345703,-0.3718799352645874,-0.9416100978851318,0.3888237178325653,-0.3035382032394409,-0.6415951251983643,-0.6346390247344971,-0.7778453826904297,-0.6214694976806641,0.9221572875976563,0.5461843013763428,0.32306548953056338,-0.6242127418518066,-0.23229563236236573,0.2716357409954071,0.9787981510162354,0.7091491222381592,-0.5018723011016846,-0.3191109895706177,0.6777520179748535,0.9124460220336914]},{"fitness":0.3785693645477295,"currentPopulationID":0,"currentEntityID":51,"parentPopulationID":-1,"parentEntityID":-1,"layers":[9,5,1],"flattendedWeights":[0.025085806846618654,-0.7997298240661621,-0.9594542980194092,0.29146310687065127,-0.05993759632110596,0.48675939440727236,0.6875996589660645,0.7650473117828369,0.826319694519043,-0.590162992477417,-0.6116158962249756,-0.3019934892654419,0.7018206119537354,0.8786501884460449,-0.6416780948638916,-0.42834150791168215,0.12180054187774658,0.08078515529632569,0.3798341453075409,0.48016664385795596,-0.6362650394439697,0.7477867603302002,-0.09132707118988037,0.7176566123962402,-0.7830126285552979,0.35139819979667666,0.5512521266937256,-0.4452899694442749,-0.3890777826309204,-0.011891961097717286,0.46910688281059267,-0.5740523338317871,-0.37665021419525149,0.09126508235931397,-0.13451111316680909,0.8426597118377686,-0.7858140468597412,-0.2604156732559204,0.8029968738555908,0.5798821449279785,0.6448686122894287,-0.7768344879150391,-0.6481728553771973,0.9572598934173584,-0.5782344341278076,-0.27809107303619387,0.7142033576965332,0.20301973819732667,0.8957433700561523,0.15252912044525147]},{"fitness":0.42720913887023928,"currentPopulationID":0,"currentEntityID":52,"parentPopulationID":-1,"parentEntityID":-1,"layers":[9,5,1],"flattendedWeights":[0.5578680038452148,0.9572012424468994,0.14335644245147706,0.24893105030059815,0.5588240623474121,-0.24675261974334718,0.370054692029953,0.039899468421936038,-0.6152594089508057,-0.9753565788269043,0.332377165555954,-0.7757959365844727,0.6412379741668701,-0.03865015506744385,0.44449588656425478,-0.2955533266067505,-0.6184947490692139,0.7647855281829834,0.20664870738983155,-0.8977587223052979,-0.4050828218460083,-0.8049392700195313,0.43897172808647158,0.07408440113067627,0.32668110728263857,-0.2291637659072876,0.1359187364578247,-0.925156831741333,0.3847188651561737,-0.6980984210968018,-0.13871562480926515,-0.5581436157226563,0.674917459487915,-0.20117104053497315,0.9787077903747559,0.964979887008667,0.2775716483592987,-0.2136160135269165,0.6444175243377686,-0.90228271484375,0.5082912445068359,-0.6847350597381592,-0.7878599166870117,0.9104089736938477,0.026497721672058107,-0.6092290878295898,0.5497112274169922,-0.6692001819610596,0.2855376899242401,-0.29809844493865969]},{"fitness":0.37405887246131899,"currentPopulationID":0,"currentEntityID":53,"parentPopulationID":-1,"parentEntityID":-1,"layers":[9,5,1],"flattendedWeights":[0.8109149932861328,0.6570203304290772,0.8726630210876465,0.9281244277954102,0.7560546398162842,-0.3192840814590454,0.3164176642894745,0.05308520793914795,0.5932011604309082,-0.7888729572296143,-0.39213693141937258,0.2579946219921112,0.7210638523101807,-0.5164675712585449,0.029238581657409669,0.7157950401306152,0.2721717059612274,0.0006102323532104492,0.48018571734428408,0.5520904064178467,0.43994542956352236,0.7947852611541748,-0.9122819900512695,0.9541656970977783,-0.5281839370727539,-0.32060062885284426,-0.37647902965545657,0.10076773166656494,-0.06757462024688721,-0.07011044025421143,0.3651687800884247,0.6738724708557129,0.11875832080841065,0.6141071319580078,0.3416745364665985,-0.3852952718734741,-0.4113835096359253,-0.4719606637954712,-0.7058589458465576,-0.7808215618133545,0.6626579761505127,-0.4543341398239136,-0.8423202037811279,0.8828816413879395,-0.3103224039077759,0.5080652236938477,-0.08868157863616944,0.7529265880584717,-0.39317381381988528,0.6652989387512207]},{"fitness":0.36611098051071169,"currentPopulationID":0,"currentEntityID":54,"parentPopulationID":-1,"parentEntityID":-1,"layers":[9,5,1],"flattendedWeights":[0.8854491710662842,-0.26544010639190676,-0.23868024349212647,-0.5078253746032715,0.8903369903564453,0.6944093704223633,0.023526787757873536,0.7397110462188721,0.8784148693084717,-0.25411975383758547,0.7240118980407715,-0.8726873397827148,0.8009891510009766,-0.8326983451843262,0.5559005737304688,0.7998595237731934,0.17509472370147706,0.07316815853118897,0.682671308517456,0.9969992637634277,0.5406479835510254,0.7781405448913574,-0.6471123695373535,0.3661806285381317,-0.37404119968414309,0.37828823924064639,-0.0673445463180542,-0.7585031986236572,0.6966390609741211,0.07296454906463623,0.5114433765411377,0.6406605243682861,-0.4674471616744995,-0.36416733264923098,-0.05691182613372803,-0.7484374046325684,-0.8240351676940918,0.9236085414886475,0.013232111930847168,0.5670108795166016,0.10173356533050537,-0.027601122856140138,0.46465012431144717,0.24192273616790772,-0.9719696044921875,0.41857263445854189,-0.4487038850784302,0.4521348178386688,-0.9704091548919678,0.7736577987670898]},{"fitness":0.35095763206481936,"currentPopulationID":0,"currentEntityID":55,"parentPopulationID":-1,"parentEntityID":-1,"layers":[9,5,1],"flattendedWeights":[0.9113879203796387,-0.44996726512908938,-0.726691722869873,-0.7609617710113525,-0.7088432312011719,0.41985198855400088,0.332182377576828,0.16183269023895265,-0.7437489032745361,0.30862686038017275,0.8675358295440674,-0.7508103847503662,0.22505438327789308,-0.8493237495422363,-0.9474008083343506,0.5616259574890137,-0.9510815143585205,-0.6664948463439941,0.0892714262008667,0.6523678302764893,-0.23092734813690186,-0.05324089527130127,-0.27925050258636477,-0.9024343490600586,-0.4828702211380005,0.02345097064971924,0.9767355918884277,-0.6021292209625244,-0.9262456893920898,0.3787526786327362,0.06210148334503174,-0.1560291051864624,-0.01075279712677002,-0.08476316928863526,-0.34870612621307375,0.7339143753051758,0.10913407802581787,-0.6760854721069336,-0.1135627031326294,-0.21915042400360108,-0.5820064544677734,-0.11537086963653565,-0.39386284351348879,0.23936307430267335,-0.7293436527252197,0.9465286731719971,-0.09826910495758057,-0.7432925701141357,0.23119866847991944,-0.43272674083709719]},{"fitness":0.4978753328323364,"currentPopulationID":0,"currentEntityID":56,"parentPopulationID":-1,"parentEntityID":-1,"layers":[9,5,1],"flattendedWeights":[-0.4012948274612427,0.6405022144317627,0.5175249576568604,0.7690205574035645,-0.5130429267883301,-0.5369007587432861,0.37055227160453799,-0.7911674976348877,0.613365650177002,0.3615710437297821,-0.7820053100585938,-0.5971565246582031,0.8738396167755127,-0.8697290420532227,0.21400678157806397,-0.6767656803131104,0.8554027080535889,0.823336124420166,0.6484804153442383,-0.8641393184661865,0.5128984451293945,0.4034864604473114,0.4960136115550995,-0.24966156482696534,-0.8722872734069824,-0.7586407661437988,-0.14015161991119386,-0.30679166316986086,0.046946167945861819,-0.3356529474258423,-0.8892085552215576,-0.019834160804748536,0.8085029125213623,0.04516565799713135,-0.836198091506958,-0.2670079469680786,-0.9316880702972412,0.0016564130783081055,-0.04840743541717529,-0.6592249870300293,0.4561104476451874,0.15878045558929444,-0.9380967617034912,-0.3390761613845825,0.0701218843460083,0.12356460094451904,0.9365434646606445,-0.24316871166229249,0.30793043971061709,-0.850820779800415]},{"fitness":0.421217143535614,"currentPopulationID":0,"currentEntityID":57,"parentPopulationID":-1,"parentEntityID":-1,"layers":[9,5,1],"flattendedWeights":[0.009497284889221192,0.5993630886077881,-0.3270374536514282,0.9339601993560791,-0.38979876041412356,-0.9709608554840088,0.6084082126617432,0.2803969085216522,0.006631016731262207,0.6930961608886719,-0.9525496959686279,-0.7808291912078857,-0.2283412218093872,-0.8682351112365723,-0.08152472972869873,0.4589404761791229,0.09137976169586182,0.077506422996521,-0.3091949224472046,0.9047291278839111,0.9442100524902344,0.6408863067626953,0.4540362060070038,0.6501510143280029,-0.33587968349456789,0.5932340621948242,0.04269683361053467,-0.6299033164978027,-0.27288877964019778,-0.5474255084991455,0.47063252329826357,-0.5611996650695801,-0.9985907077789307,-0.39796698093414309,0.1336115598678589,-0.9959635734558106,0.30898234248161318,-0.5871329307556152,0.4842331111431122,-0.6919784545898438,0.4058930575847626,-0.6771249771118164,0.298326700925827,-0.13126671314239503,-0.9249577522277832,-0.08017432689666748,0.9293146133422852,0.19611585140228272,0.13761627674102784,0.9876577854156494]},{"fitness":0.330676794052124,"currentPopulationID":0,"currentEntityID":58,"parentPopulationID":-1,"parentEntityID":-1,"layers":[9,5,1],"flattendedWeights":[-0.6804690361022949,-0.5774357318878174,0.08235681056976319,-0.1503697633743286,-0.5530149936676025,-0.3197985887527466,-0.4440265893936157,0.17936646938323975,-0.49177372455596926,-0.3415948152542114,0.5725216865539551,-0.43543875217437746,-0.5149118900299072,-0.1577683687210083,0.4225434958934784,-0.9887306690216065,0.11760151386260987,-0.9670507907867432,-0.593524694442749,0.6241586208343506,-0.7066261768341065,-0.27082765102386477,-0.5443167686462402,-0.8747496604919434,0.5229840278625488,0.31486961245536806,0.5474159717559815,0.5691666603088379,0.682896614074707,0.07675111293792725,0.7522256374359131,0.8837251663208008,0.6015560626983643,-0.7504227161407471,-0.7864553928375244,-0.6925573348999023,-0.04053628444671631,0.6227438449859619,0.5161569118499756,-0.4229840040206909,0.39530059695243838,0.2638525664806366,-0.33674466609954836,-0.2742506265640259,0.2244628667831421,-0.2525843381881714,-0.005218863487243652,0.10345685482025147,0.9162967205047607,0.19024646282196046]},{"fitness":0.3904763162136078,"currentPopulationID":0,"currentEntityID":59,"parentPopulationID":-1,"parentEntityID":-1,"layers":[9,5,1],"flattendedWeights":[-0.07696020603179932,-0.6581737995147705,-0.4334601163864136,0.51027512550354,-0.7778136730194092,-0.21832072734832765,0.24833571910858155,0.7062849998474121,-0.6150774955749512,0.5140175819396973,0.4945692718029022,0.7393398284912109,-0.1576467752456665,-0.5309352874755859,-0.23551404476165772,0.3901467025279999,-0.3273712396621704,-0.31301724910736086,0.8906135559082031,-0.4096568822860718,-0.09647738933563233,0.18062245845794679,-0.10748493671417237,-0.9250447750091553,0.17537057399749757,0.5161051750183106,0.3264255225658417,0.9414520263671875,-0.4561988115310669,0.6325194835662842,0.44963547587394717,0.7048285007476807,0.023724675178527833,0.3012206256389618,0.9833076000213623,0.20330274105072022,-0.25247013568878176,0.8593294620513916,0.586453914642334,-0.12349379062652588,-0.05637991428375244,0.45443984866142275,-0.6779739856719971,0.703364372253418,0.05879795551300049,0.5685560703277588,0.5867512226104736,-0.34153759479522707,-0.8676133155822754,0.5810308456420898]},{"fitness":0.42087170481681826,"currentPopulationID":0,"currentEntityID":60,"parentPopulationID":-1,"parentEntityID":-1,"layers":[9,5,1],"flattendedWeights":[-0.9917008876800537,-0.48002302646636965,-0.45629847049713137,-0.9575161933898926,0.05114734172821045,-0.9617304801940918,0.09252941608428955,-0.10939562320709229,-0.5839588642120361,-0.5420956611633301,-0.5535073280334473,-0.32902610301971438,-0.5616042613983154,0.9816994667053223,0.4987194240093231,-0.5727832317352295,-0.7835631370544434,-0.15502703189849854,0.9342021942138672,0.3208899199962616,0.160589337348938,-0.421122670173645,0.20068132877349854,0.9441025257110596,-0.6868984699249268,0.16950833797454835,-0.1983855962753296,-0.7765028476715088,-0.2849360704421997,-0.11939966678619385,-0.15034997463226319,0.23386991024017335,-0.9640753269195557,-0.44586122035980227,0.849757194519043,-0.004588007926940918,0.9255275726318359,-0.807706356048584,0.18099534511566163,-0.9369919300079346,0.775646448135376,-0.777184247970581,0.8408117294311523,-0.9602887630462647,-0.5237345695495606,-0.24566233158111573,0.13777458667755128,0.6181988716125488,0.8002405166625977,0.7100498676300049]},{"fitness":0.38882356882095339,"currentPopulationID":0,"currentEntityID":61,"parentPopulationID":-1,"parentEntityID":-1,"layers":[9,5,1],"flattendedWeights":[-0.7733261585235596,0.23420250415802003,0.2663075625896454,-0.8961663246154785,-0.8562328815460205,-0.9829301834106445,-0.7969098091125488,-0.33114731311798098,0.041864752769470218,0.6711077690124512,0.5486047267913818,0.943065881729126,-0.28003203868865969,0.858776330947876,0.7471818923950195,0.7298667430877686,-0.6536905765533447,0.845465898513794,0.5188522338867188,0.6135103702545166,0.6688742637634277,-0.7786219120025635,0.8223521709442139,0.41486379504203799,-0.3518258333206177,0.0927203893661499,0.6469206809997559,-0.2613900899887085,0.47074052691459658,-0.10292661190032959,-0.9141016006469727,-0.34896934032440188,0.33893653750419619,0.5943033695220947,0.2961980998516083,-0.2851210832595825,-0.2083810567855835,-0.9138846397399902,-0.9094197750091553,-0.41816389560699465,0.6479926109313965,0.6678829193115234,0.6413519382476807,0.04032027721405029,0.33575865626335146,0.998481273651123,-0.8965630531311035,-0.5755867958068848,0.4055154025554657,-0.9742107391357422]},{"fitness":0.4396894574165344,"currentPopulationID":0,"currentEntityID":62,"parentPopulationID":-1,"parentEntityID":-1,"layers":[9,5,1],"flattendedWeights":[0.6546382904052734,-0.19980180263519288,-0.7226815223693848,-0.5392959117889404,-0.11797630786895752,-0.9405386447906494,-0.41111910343170168,0.2166680097579956,-0.2342897653579712,0.8990340232849121,-0.5098733901977539,-0.3645671606063843,-0.036563754081726077,0.43225976824760439,-0.7438864707946777,0.5045881271362305,-0.7098255157470703,0.7661333084106445,0.289715975522995,0.8694539070129395,0.8497588634490967,-0.21436870098114015,0.1935328245162964,0.4701513946056366,0.9237885475158691,0.5157887935638428,-0.4126986265182495,-0.7847785949707031,-0.42091548442840578,-0.023233532905578615,0.9417481422424316,-0.6541426181793213,0.8614706993103027,0.3943903148174286,0.013757824897766114,-0.767514705657959,-0.6552917957305908,-0.42135727405548098,0.7253727912902832,0.32550451159477236,-0.10641252994537354,0.09566175937652588,-0.7736873626708984,0.3945722281932831,-0.4061187505722046,-0.11432826519012451,0.16110122203826905,-0.38252103328704836,-0.6010205745697022,-0.8574059009552002]},{"fitness":0.35339149832725527,"currentPopulationID":0,"currentEntityID":63,"parentPopulationID":-1,"parentEntityID":-1,"layers":[9,5,1],"flattendedWeights":[0.2893929183483124,0.6044023036956787,0.8276894092559815,0.6373326778411865,-0.21985232830047608,-0.6265428066253662,0.2400914430618286,0.6759994029998779,0.014592528343200684,-0.6961562633514404,0.746222972869873,0.9200456142425537,-0.8658838272094727,-0.2961317300796509,0.2322179079055786,0.8038489818572998,0.4957091510295868,-0.6544859409332275,-0.08261716365814209,0.6040093898773193,-0.4750121831893921,0.2156311273574829,-0.07318294048309326,-0.009584784507751465,-0.5746209621429443,-0.9932310581207275,0.09797108173370362,-0.6372101306915283,0.281326025724411,0.4251677691936493,-0.9713470935821533,0.7235205173492432,0.2246164083480835,0.8463642597198486,0.7949151992797852,0.880439043045044,0.3922695815563202,-0.6137611865997315,0.9593935012817383,0.5765836238861084,-0.3912147283554077,0.4850327670574188,0.7762165069580078,-0.4379943609237671,0.6352705955505371,0.2742891013622284,0.7347252368927002,0.027997851371765138,0.44348475337028506,-0.29995930194854739]},{"fitness":0.43175196647644045,"currentPopulationID":0,"currentEntityID":64,"parentPopulationID":-1,"parentEntityID":-1,"layers":[9,5,1],"flattendedWeights":[0.8656876087188721,-0.02247607707977295,0.8337421417236328,0.9762718677520752,-0.09002697467803955,0.5155069828033447,-0.14736735820770265,0.11985361576080322,0.6053950786590576,0.10665500164031983,-0.05090487003326416,-0.0946434736251831,0.04011738300323486,0.12334144115447998,0.4976808726787567,-0.7045018672943115,-0.6798064708709717,0.1399286985397339,0.7530374526977539,-0.8584189414978027,-0.13282597064971925,0.3870997130870819,0.32083413004875185,-0.0749274492263794,0.01163184642791748,0.5847015380859375,-0.3573991060256958,-0.8278727531433106,0.671989917755127,0.5814952850341797,0.09860503673553467,0.24972975254058839,0.43897363543510439,-0.23759829998016358,-0.3447195291519165,0.867807149887085,0.23756492137908936,0.3365456759929657,0.5816266536712647,0.5658745765686035,0.23341691493988038,-0.1583794355392456,0.620680570602417,0.6731586456298828,0.5755980014801025,0.042572617530822757,0.8983495235443115,-0.6170434951782227,0.3722207248210907,-0.7744140625]},{"fitness":0.3977586030960083,"currentPopulationID":0,"currentEntityID":65,"parentPopulationID":-1,"parentEntityID":-1,"layers":[9,5,1],"flattendedWeights":[-0.5090241432189941,-0.43700110912323,-0.18431198596954347,0.8258540630340576,0.2559761703014374,-0.9141464233398438,0.8293116092681885,0.9328370094299316,0.872581958770752,0.19250261783599854,-0.7635395526885986,-0.559246301651001,0.6917064189910889,0.9528484344482422,-0.8812947273254395,-0.10982620716094971,-0.036310791969299319,-0.9563863277435303,0.5842020511627197,0.20674145221710206,-0.36097753047943118,-0.2894517183303833,-0.5477604866027832,0.3334049880504608,-0.7369139194488525,0.22254860401153565,-0.4585005044937134,-0.3266063928604126,-0.8080611228942871,0.9875562191009522,-0.22833526134490968,-0.3280857801437378,-0.3319157361984253,0.6681740283966065,0.7850306034088135,0.11317384243011475,-0.0007268190383911133,-0.7947444915771484,-0.32718193531036379,-0.6656966209411621,-0.5987691879272461,0.06717550754547119,0.3990635573863983,0.2985388934612274,0.6161706447601318,-0.3082629442214966,0.7465808391571045,0.20068204402923585,-0.5701603889465332,0.5628883838653565]},{"fitness":0.4290999472141266,"currentPopulationID":0,"currentEntityID":66,"parentPopulationID":-1,"parentEntityID":-1,"layers":[9,5,1],"flattendedWeights":[-0.6210379600524902,0.838430643081665,-0.6978843212127686,-0.257834792137146,-0.6723723411560059,0.791961669921875,0.05704653263092041,-0.6560468673706055,0.047270894050598147,0.2948865592479706,-0.11355817317962647,-0.959766149520874,-0.6950197219848633,0.2143186330795288,-0.6437592506408691,0.2866348922252655,0.27382203936576846,-0.633408784866333,-0.1343449354171753,-0.7987871170043945,0.7405931949615479,0.22641360759735108,-0.5901367664337158,-0.19186127185821534,0.23459231853485108,0.47247979044914248,0.3878726661205292,-0.8943939208984375,-0.414530873298645,0.39400455355644228,-0.28076183795928957,0.43382641673088076,-0.2444533109664917,0.8653204441070557,0.04717671871185303,0.6946818828582764,-0.22885262966156007,0.6641852855682373,-0.25905096530914309,0.478197306394577,0.49034616351127627,-0.006421923637390137,0.4010884463787079,0.921337366104126,0.6950716972351074,-0.005811333656311035,0.03820335865020752,0.24626648426055909,0.9807405471801758,-0.02170693874359131]},{"fitness":0.44947904348373415,"currentPopulationID":0,"currentEntityID":67,"parentPopulationID":-1,"parentEntityID":-1,"layers":[9,5,1],"flattendedWeights":[-0.5660040378570557,-0.8531482219696045,-0.33657920360565188,0.8042585849761963,-0.5749416351318359,-0.06600010395050049,0.08329737186431885,0.0596851110458374,0.21880781650543214,0.6470389366149902,-0.31728994846343996,0.057399630546569827,0.8745887279510498,-0.10776150226593018,0.0885246992111206,0.4108714759349823,-0.881011962890625,-0.6624083518981934,0.0819317102432251,0.06660592555999756,-0.3790990114212036,-0.8338572978973389,-0.5264236927032471,0.7262482643127441,-0.6536750793457031,-0.03660714626312256,0.7195966243743897,0.19660937786102296,0.670496940612793,-0.5800316333770752,-0.031153559684753419,0.7744882106781006,-0.37327444553375246,0.0074950456619262699,-0.9146866798400879,0.4481217563152313,-0.9410068988800049,-0.1280454397201538,0.5254271030426025,0.4930257499217987,-0.6849780082702637,-0.29088127613067629,0.8902840614318848,-0.6089937686920166,-0.15722262859344483,0.23787128925323487,-0.02100813388824463,-0.7433443069458008,-0.15400850772857667,-0.24473726749420167]},{"fitness":0.38702675700187685,"currentPopulationID":0,"currentEntityID":68,"parentPopulationID":-1,"parentEntityID":-1,"layers":[9,5,1],"flattendedWeights":[0.5864245891571045,-0.11776721477508545,-0.2650705575942993,-0.5923538208007813,-0.7569825649261475,-0.89890456199646,0.4248912036418915,0.25111791491508486,0.8550152778625488,-0.03364527225494385,-0.2121213674545288,0.2599434554576874,-0.20733892917633058,0.20417916774749757,-0.03934919834136963,0.6603200435638428,0.49533936381340029,-0.2303992509841919,0.4167892634868622,-0.985753059387207,-0.6232597827911377,-0.423195481300354,0.1971508264541626,-0.3856722116470337,0.6035428047180176,0.23109948635101319,-0.11538422107696533,-0.4556790590286255,0.016669631004333497,0.09995019435882569,0.7800953388214111,0.6184933185577393,-0.2001582384109497,0.571373701095581,-0.5114631652832031,-0.8798396587371826,0.45166441798210146,0.492965430021286,-0.22061002254486085,0.7640979290008545,-0.5996623039245606,-0.4715031385421753,-0.0367506742477417,-0.7366113662719727,-0.42634475231170657,-0.8987767696380615,0.03558814525604248,0.48770424723625185,0.7065901756286621,-0.5936670303344727]},{"fitness":0.4069296717643738,"currentPopulationID":0,"currentEntityID":69,"parentPopulationID":-1,"parentEntityID":-1,"layers":[9,5,1],"flattendedWeights":[-0.16902053356170655,-0.13697421550750733,0.07994568347930908,-0.6331429481506348,-0.08337557315826416,0.06988203525543213,-0.23443496227264405,0.9675393104553223,-0.8914163112640381,0.6573727130889893,-0.1483064889907837,0.3857216536998749,0.5323047637939453,-0.1353849172592163,0.19934189319610597,-0.14834487438201905,0.7555418014526367,0.027922987937927247,-0.1651982069015503,-0.3285139799118042,-0.23008835315704347,-0.45400846004486086,0.6404716968536377,0.03897082805633545,0.7492766380310059,0.6265966892242432,-0.9062416553497315,0.058478713035583499,-0.11452209949493408,-0.46330416202545168,-0.5740048885345459,0.2453991174697876,-0.49728572368621828,-0.16740715503692628,-0.08558070659637451,-0.5979533195495606,0.5642402172088623,0.8085088729858398,0.9207534790039063,0.8451688289642334,0.6408143043518066,-0.38417088985443118,-0.25926029682159426,0.3330833613872528,0.8503961563110352,0.8126559257507324,-0.26172935962677,-0.4791954755783081,-0.355615496635437,-0.3256460428237915]},{"fitness":0.4358901083469391,"currentPopulationID":0,"currentEntityID":70,"parentPopulationID":-1,"parentEntityID":-1,"layers":[9,5,1],"flattendedWeights":[0.8640928268432617,0.452891081571579,0.7473039627075195,-0.9312887191772461,0.8039774894714356,0.34285423159599306,0.2546519935131073,0.36199089884757998,0.8972072601318359,0.8480713367462158,0.2281585931777954,0.2568974196910858,0.5878241062164307,-0.5164964199066162,0.8414883613586426,-0.22779452800750733,-0.9587271213531494,0.25154516100883486,-0.5250096321105957,-0.4306446313858032,0.7084717750549316,0.14465200901031495,0.11585533618927002,0.08122885227203369,-0.6954300403594971,0.19014298915863038,-0.6919925212860107,-0.005891680717468262,-0.6544616222381592,-0.35505521297454836,-0.6657984256744385,0.31156107783317568,-0.32118022441864016,0.5556972026824951,0.000005125999450683594,-0.815868616104126,0.7944910526275635,0.40435120463371279,0.5555732250213623,-0.6497559547424316,-0.7650578022003174,0.6281907558441162,0.7364161014556885,-0.29489362239837649,-0.8645787239074707,-0.46153390407562258,-0.7784900665283203,0.9846251010894775,-0.23243606090545655,-0.8796365261077881]},{"fitness":0.3840385675430298,"currentPopulationID":0,"currentEntityID":71,"parentPopulationID":-1,"parentEntityID":-1,"layers":[9,5,1],"flattendedWeights":[0.7365827560424805,0.6428790092468262,-0.5573625564575195,-0.7250525951385498,-0.027782559394836427,0.8850400447845459,0.4396054446697235,0.33755871653556826,0.697608470916748,0.1594918966293335,0.08158481121063233,-0.6745688915252686,-0.7990665435791016,0.990894079208374,0.34577032923698428,-0.34283769130706789,-0.36827361583709719,0.5596282482147217,-0.056256890296936038,0.8703818321228027,0.08887255191802979,0.8297414779663086,0.3075117766857147,0.6078076362609863,-0.11340034008026123,0.3176588714122772,-0.4626361131668091,0.6759967803955078,0.371791809797287,0.9740705490112305,0.04514420032501221,0.4748058021068573,-0.35363972187042239,-0.9992902278900147,0.6799588203430176,-0.6309988498687744,-0.3712805509567261,-0.3604048490524292,0.33872219920158389,0.029445767402648927,0.5632638931274414,-0.92659592628479,0.3013140857219696,-0.43825018405914309,0.0766834020614624,-0.9003326892852783,-0.7114853858947754,-0.8508651256561279,0.8262813091278076,0.13444340229034425]},{"fitness":0.3884744942188263,"currentPopulationID":0,"currentEntityID":72,"parentPopulationID":-1,"parentEntityID":-1,"layers":[9,5,1],"flattendedWeights":[0.9600963592529297,0.16928517818450929,0.07156097888946533,0.8022217750549316,-0.9160048961639404,-0.4788879156112671,-0.9599025249481201,-0.5350255966186523,0.5443625450134277,-0.6743810176849365,0.31149908900260928,-0.131003737449646,-0.8716449737548828,0.6381688117980957,0.9889883995056152,0.35347434878349306,-0.8068959712982178,0.9269967079162598,0.9623126983642578,0.1438223123550415,-0.24659383296966554,0.5996088981628418,-0.7709124088287354,0.8820037841796875,-0.847832202911377,0.7272078990936279,-0.21035611629486085,0.7184836864471436,0.23857009410858155,0.7811923027038574,0.8068609237670898,0.8591909408569336,0.9926924705505371,0.5717906951904297,0.8681938648223877,-0.910733699798584,0.8000586032867432,0.36957332491874697,0.09698665142059326,0.5063984394073486,0.4183816611766815,0.8776586055755615,-0.21457374095916749,-0.6610105037689209,0.07863461971282959,-0.8842575550079346,-0.8780488967895508,-0.28219592571258547,-0.05152237415313721,-0.5859127044677734]},{"fitness":3.101015329360962,"currentPopulationID":0,"currentEntityID":73,"parentPopulationID":-1,"parentEntityID":-1,"layers":[9,5,1],"flattendedWeights":[-0.5808300971984863,-0.08408486843109131,-0.7840399742126465,0.29766198992729189,0.5961315631866455,-0.629349946975708,-0.5197815895080566,-0.7861647605895996,0.7499275207519531,-0.17558705806732179,-0.46733033657073977,-0.05403792858123779,0.5485873222351074,0.3840131461620331,-0.13970887660980225,-0.1600881814956665,0.6204886436462402,-0.09849965572357178,0.600285530090332,-0.1413506269454956,0.23019945621490479,-0.45690810680389407,-0.14721500873565675,0.5483815670013428,0.4848577678203583,0.5754439830780029,0.8113105297088623,-0.06834089756011963,0.9233520030975342,0.12522423267364503,-0.735478401184082,0.16508400440216065,-0.14534175395965577,0.15698397159576417,-0.6814439296722412,0.16049587726593018,0.48529550433158877,-0.7575297355651856,-0.3407653570175171,-0.9284398555755615,0.8604769706726074,0.862816572189331,0.8362154960632324,0.003603339195251465,0.9561047554016113,-0.1151496171951294,-0.4677842855453491,0.2342594861984253,0.7993996143341065,0.425746887922287]},{"fitness":0.41002508997917178,"currentPopulationID":0,"currentEntityID":74,"parentPopulationID":-1,"parentEntityID":-1,"layers":[9,5,1],"flattendedWeights":[-0.9616894721984863,-0.3297947645187378,-0.29529869556427,0.6389641761779785,0.4677083194255829,-0.3414109945297241,-0.23677003383636475,0.20564424991607667,0.3442823588848114,-0.0982738733291626,-0.647050142288208,-0.6787984371185303,0.6691410541534424,-0.5720782279968262,0.9849481582641602,0.2168341875076294,0.8109068870544434,0.36093851923942568,-0.4967912435531616,0.749824047088623,-0.8595621585845947,-0.3749300241470337,0.7139782905578613,0.30732056498527529,-0.8935801982879639,-0.4717334508895874,-0.36537420749664309,-0.9735586643218994,0.152199387550354,-0.5490272045135498,0.8395142555236816,-0.07564961910247803,-0.316745400428772,0.02310812473297119,-0.6763615608215332,-0.2958875894546509,-0.44121253490448,-0.9065172672271729,0.17354214191436768,-0.9099247455596924,0.45866867899894717,0.5642404556274414,-0.8267471790313721,0.9068503379821777,-0.042809367179870608,0.42759987711906435,-0.9231047630310059,-0.20375597476959229,0.7493760585784912,0.8799331188201904]},{"fitness":0.3972941040992737,"currentPopulationID":0,"currentEntityID":75,"parentPopulationID":-1,"parentEntityID":-1,"layers":[9,5,1],"flattendedWeights":[-0.544877290725708,-0.7575161457061768,0.48480579257011416,-0.2619093656539917,-0.2924457788467407,-0.8958463668823242,0.8474833965301514,-0.4016000032424927,0.4826464354991913,0.12061679363250733,-0.8775007724761963,-0.9344112873077393,0.3664996325969696,0.11317646503448487,-0.21286404132843018,-0.20132076740264893,0.41980764269828799,0.5002315044403076,-0.02065885066986084,-0.6778764724731445,-0.508047342300415,-0.6121916770935059,-0.35928213596343996,-0.631411075592041,0.2680208384990692,-0.06662976741790772,-0.7556319236755371,-0.7858858108520508,0.15510880947113038,-0.638131856918335,-0.19865667819976808,-0.5904512405395508,-0.24080264568328858,-0.6073703765869141,-0.7703037261962891,-0.8938627243041992,0.9663634300231934,-0.3490206003189087,-0.37832343578338625,-0.7906339168548584,0.666466474533081,-0.0740441083908081,-0.811105489730835,0.02894604206085205,-0.9726920127868652,-0.8885643482208252,0.7618036270141602,-0.21838748455047608,-0.8198690414428711,0.4790594279766083]},{"fitness":0.4209398925304413,"currentPopulationID":0,"currentEntityID":76,"parentPopulationID":-1,"parentEntityID":-1,"layers":[9,5,1],"flattendedWeights":[-0.827232837677002,0.9858355522155762,-0.3732208013534546,-0.4533184766769409,0.2099093198776245,0.3252095878124237,-0.708519697189331,-0.6618461608886719,-0.7683093547821045,0.5009691715240479,0.023409247398376466,-0.9621157646179199,-0.3026970624923706,0.9725766181945801,-0.8327963352203369,0.13613498210906983,-0.191139817237854,-0.21131622791290284,0.06850588321685791,0.7086775302886963,-0.3925238847732544,-0.8798079490661621,0.40939947962760928,0.7659397125244141,0.09916818141937256,-0.8573224544525147,0.6339583396911621,0.49103686213493349,-0.5618524551391602,0.5190699100494385,0.20290100574493409,0.8987452983856201,0.6599857807159424,-0.9429459571838379,0.43435904383659365,0.31730911135673525,0.24689829349517823,0.5839922428131104,0.7552850246429443,0.4122724235057831,-0.24409377574920655,0.2952246367931366,-0.6900501251220703,-0.9968461990356445,0.8563652038574219,0.27273938059806826,-0.28360068798065188,-0.2955585718154907,0.06550467014312744,-0.18235242366790772]},{"fitness":2.6179354190826418,"currentPopulationID":0,"currentEntityID":77,"parentPopulationID":-1,"parentEntityID":-1,"layers":[9,5,1],"flattendedWeights":[0.6879432201385498,0.13285934925079347,-0.942188024520874,-0.6661100387573242,-0.015574336051940918,-0.7969512939453125,-0.1757744550704956,0.11346614360809326,0.0832129716873169,0.6060290336608887,0.6294238567352295,-0.9307756423950195,0.04825317859649658,-0.2256261110305786,-0.8574018478393555,-0.0338209867477417,-0.3660653829574585,0.13897335529327393,-0.016560912132263185,-0.12940990924835206,0.48517200350761416,0.17381060123443604,0.09490644931793213,-0.3237539529800415,0.704200029373169,0.7662849426269531,0.3260895907878876,-0.07916033267974854,0.530869722366333,-0.15249192714691163,-0.03239929676055908,0.4542364776134491,-0.21125304698944093,0.6032130718231201,0.14048373699188233,0.42305728793144228,0.42473527789115908,-0.3630329370498657,0.14663922786712647,-0.807736873626709,0.009994149208068848,0.9290459156036377,0.4456882178783417,0.8749732971191406,0.9287214279174805,-0.6289839744567871,-0.9393410682678223,0.968630313873291,0.1202017068862915,-0.00531923770904541]},{"fitness":0.43246033787727358,"currentPopulationID":0,"currentEntityID":78,"parentPopulationID":-1,"parentEntityID":-1,"layers":[9,5,1],"flattendedWeights":[0.8028867244720459,-0.08936488628387451,-0.49728119373321535,0.3316311538219452,-0.5259857177734375,-0.05678284168243408,0.42780801653862,0.04436695575714111,-0.5993611812591553,-0.852128267288208,-0.9934406280517578,0.5642895698547363,0.5009212493896484,-0.3966156244277954,-0.6726968288421631,0.02319157123565674,-0.5099127292633057,0.49713894724845889,-0.2893561124801636,-0.15135538578033448,0.8647849559783936,-0.5284278392791748,-0.19930970668792725,-0.9791731834411621,-0.801077127456665,-0.3514493703842163,-0.6580686569213867,0.2545582950115204,-0.12374699115753174,0.022292256355285646,-0.9492404460906982,-0.9982857704162598,0.5810763835906982,-0.4761885404586792,0.6163220405578613,-0.4977911710739136,-0.24620592594146729,-0.5197834968566895,0.0976186990737915,0.6801934242248535,0.7758896350860596,-0.4892615079879761,0.900623083114624,0.8413543701171875,0.6595504283905029,-0.9400999546051025,0.9836459159851074,-0.7127280235290527,0.06272399425506592,-0.5960659980773926]},{"fitness":0.4552059471607208,"currentPopulationID":0,"currentEntityID":79,"parentPopulationID":-1,"parentEntityID":-1,"layers":[9,5,1],"flattendedWeights":[0.016241908073425294,0.8856079578399658,-0.48958098888397219,0.8093690872192383,-0.12343895435333252,-0.8770022392272949,-0.5825169086456299,0.5937178134918213,0.9464573860168457,-0.12263762950897217,0.43152233958244326,0.7379276752471924,-0.854841947555542,-0.6366727352142334,-0.8194015026092529,-0.7861697673797607,0.26589319109916689,-0.4316939115524292,0.7155401706695557,-0.3885229825973511,-0.8215782642364502,0.10922491550445557,-0.5972390174865723,-0.25222766399383547,0.006981492042541504,-0.35978448390960696,0.3391554057598114,0.09393274784088135,-0.14538919925689698,0.7722444534301758,-0.555025577545166,-0.283687949180603,0.28550073504447939,-0.5367093086242676,0.909982442855835,0.28732892870903017,0.2877781093120575,-0.4056469202041626,0.9384865760803223,0.9514033794403076,0.12768471240997315,0.7237632274627686,0.08591306209564209,-0.11346447467803955,-0.37590205669403078,-0.30684006214141848,0.7322368621826172,-0.06602323055267334,0.7075881958007813,0.8297984600067139]},{"fitness":0.4295614957809448,"currentPopulationID":0,"currentEntityID":80,"parentPopulationID":-1,"parentEntityID":-1,"layers":[9,5,1],"flattendedWeights":[0.046115994453430179,0.36905285716056826,-0.46807563304901125,0.24835550785064698,0.3014955222606659,-0.9215185642242432,0.8447895050048828,-0.18023169040679933,-0.11460387706756592,0.35524722933769228,0.9445643424987793,-0.7166597843170166,0.9734165668487549,0.9020230770111084,-0.3461836576461792,-0.8184034824371338,0.2961678206920624,-0.14839541912078858,-0.42605745792388918,-0.5560317039489746,-0.3255969285964966,-0.1631256341934204,-0.811316967010498,-0.6414892673492432,0.06061375141143799,0.5223679542541504,-0.7284691333770752,0.7533857822418213,0.497331827878952,0.26496025919914248,-0.038292527198791507,0.994713544845581,-0.736757755279541,-0.522963285446167,-0.4971369504928589,0.6823122501373291,-0.3435467481613159,-0.6234636306762695,0.24462854862213136,0.48681923747062685,0.3618623912334442,-0.06123530864715576,0.18166768550872804,0.8181507587432861,-0.04083883762359619,-0.5125100612640381,0.356976717710495,-0.6211545467376709,0.958967924118042,-0.5511398315429688]},{"fitness":0.42027562856674197,"currentPopulationID":0,"currentEntityID":81,"parentPopulationID":-1,"parentEntityID":-1,"layers":[9,5,1],"flattendedWeights":[-0.3786104917526245,0.101798415184021,-0.44354450702667239,0.5375897884368897,-0.5469262599945068,-0.24424469470977784,0.2052520513534546,-0.3142741918563843,0.9880530834197998,-0.5330793857574463,-0.17399966716766358,0.8576083183288574,-0.9630179405212402,0.25931188464164736,0.640728235244751,-0.7987070083618164,-0.40589964389801028,-0.05435788631439209,0.9764270782470703,0.9916045665740967,0.594313383102417,-0.10737931728363037,0.26412221789360049,0.7392945289611816,0.6585314273834229,0.20698368549346925,-0.8326108455657959,0.05207216739654541,-0.4732903242111206,-0.6641330718994141,-0.07138383388519287,-0.3054386377334595,0.6351497173309326,0.5692880153656006,-0.4404102563858032,0.3751241862773895,-0.38769710063934328,-0.642035961151123,-0.351467490196228,0.6811769008636475,0.5896978378295898,0.0017496347427368165,0.8260753154754639,0.3717188537120819,0.7843739986419678,-0.4632183313369751,0.6228959560394287,-0.23541200160980225,-0.8547482490539551,0.42045876383781435]},{"fitness":0.39929744601249697,"currentPopulationID":0,"currentEntityID":82,"parentPopulationID":-1,"parentEntityID":-1,"layers":[9,5,1],"flattendedWeights":[-0.5763635635375977,0.7763724327087402,-0.5739991664886475,-0.9468255043029785,-0.00010645389556884766,0.8842270374298096,-0.44448697566986086,-0.9845418930053711,0.7788631916046143,-0.9770684242248535,0.930311918258667,-0.40303146839141848,-0.7115888595581055,-0.6161155700683594,0.6001331806182861,0.6799452304840088,0.960667610168457,-0.3909963369369507,0.6346259117126465,-0.25779640674591067,-0.5888631343841553,0.8125588893890381,0.6513824462890625,0.6410367488861084,0.5665621757507324,0.8372690677642822,-0.8331303596496582,0.6492350101470947,0.4264521300792694,-0.2802037000656128,-0.825606107711792,0.6912572383880615,0.28172585368156435,0.055878520011901858,0.45747968554496767,0.4388408362865448,0.7925529479980469,0.335586279630661,0.5548698902130127,0.16983354091644288,-0.5587737560272217,-0.19192945957183839,-0.8329882621765137,0.651397705078125,-0.5848052501678467,0.04336440563201904,-0.5005326271057129,0.5834059715270996,0.581240177154541,-0.8703444004058838]},{"fitness":2.4297633171081545,"currentPopulationID":0,"currentEntityID":83,"parentPopulationID":-1,"parentEntityID":-1,"layers":[9,5,1],"flattendedWeights":[-0.7853164672851563,-0.10124266147613526,-0.3110162019729614,0.3916279971599579,-0.2598687410354614,0.6751093864440918,-0.6684780120849609,0.6251726150512695,-0.23619449138641358,-0.7748336791992188,-0.1843506097793579,-0.6434972286224365,-0.35748136043548586,0.8465685844421387,-0.8993401527404785,-0.9257831573486328,-0.40205228328704836,-0.19440877437591554,0.8247702121734619,0.044782280921936038,0.6816740036010742,-0.06988489627838135,0.5105288028717041,0.3347589671611786,0.03774607181549072,-0.2817155122756958,0.9269604682922363,-0.28769171237945559,-0.5922462940216065,0.06192219257354736,0.8024744987487793,0.702545166015625,-0.36398541927337649,-0.040311217308044437,-0.41577041149139407,-0.2401641607284546,0.12813317775726319,-0.6487669944763184,0.41793057322502139,0.22035706043243409,-0.893824577331543,-0.691840410232544,0.18446695804595948,-0.3756030797958374,0.2787635028362274,0.3314315974712372,-0.8867871761322022,0.6668546199798584,0.6023030281066895,-0.7080307006835938]},{"fitness":0.3836638629436493,"currentPopulationID":0,"currentEntityID":84,"parentPopulationID":-1,"parentEntityID":-1,"layers":[9,5,1],"flattendedWeights":[-0.8518977165222168,0.8075542449951172,-0.7541248798370361,-0.329947829246521,-0.8621349334716797,0.38042446970939639,0.9268906116485596,0.7431919574737549,-0.24985778331756593,-0.005219817161560059,-0.696894645690918,-0.24762213230133058,0.5031287670135498,-0.7081124782562256,-0.7605366706848145,0.5598878860473633,-0.9981553554534912,0.8062634468078613,-0.4338327646255493,-0.44238078594207766,-0.6158933639526367,0.5099108219146729,-0.5164923667907715,0.8470666408538818,-0.5117611885070801,-0.23483073711395265,-0.17550981044769288,0.6421937942504883,-0.9111614227294922,0.4130057990550995,0.3070044219493866,-0.5295729637145996,0.532930850982666,-0.5368626117706299,0.5211086273193359,-0.48759138584136965,0.9947597980499268,-0.7737209796905518,-0.8410389423370361,0.3033418357372284,0.07453930377960205,0.6824703216552734,0.7520034313201904,0.8644928932189941,-0.8922641277313232,-0.5248298645019531,0.4015023410320282,-0.4797877073287964,-0.7939064502716065,-0.959507942199707]},{"fitness":0.506941020488739,"currentPopulationID":0,"currentEntityID":85,"parentPopulationID":-1,"parentEntityID":-1,"layers":[9,5,1],"flattendedWeights":[-0.5332415103912354,0.5725462436676025,-0.7882785797119141,0.7621245384216309,0.9703800678253174,-0.5440025329589844,0.9539568424224854,-0.5359680652618408,-0.81034255027771,0.6561472415924072,0.8039722442626953,0.2783298194408417,0.4325086772441864,0.7936503887176514,0.2470914125442505,0.20138013362884522,0.9086117744445801,-0.186273455619812,-0.6206090450286865,0.5728549957275391,-0.331095814704895,-0.31980574131011965,-0.5797688961029053,0.6451730728149414,-0.7225654125213623,0.2393277883529663,0.35945698618888857,-0.8756802082061768,-0.5585651397705078,-0.6107826232910156,0.7424037456512451,-0.77217698097229,-0.7884767055511475,-0.35648930072784426,-0.24895179271697999,-0.10905301570892334,0.468917578458786,0.8401496410369873,-0.6405243873596191,-0.16892993450164796,0.2749476134777069,-0.9138052463531494,0.4254626929759979,-0.8720486164093018,0.7855150699615479,-0.7294154167175293,0.6696021556854248,0.659358024597168,-0.997950553894043,0.8119280338287354]},{"fitness":0.41229474544525149,"currentPopulationID":0,"currentEntityID":86,"parentPopulationID":-1,"parentEntityID":-1,"layers":[9,5,1],"flattendedWeights":[-0.7968442440032959,-0.014681220054626465,-0.577887773513794,-0.950732946395874,0.5269737243652344,-0.7294890880584717,-0.3538016080856323,-0.24524009227752686,0.03354346752166748,-0.05465853214263916,0.4410254657268524,0.9341354370117188,-0.45948946475982668,-0.24254333972930909,-0.5967557430267334,0.38741180300712588,0.09449779987335205,-0.5502610206604004,-0.017504334449768068,-0.9149503707885742,0.7396888732910156,-0.6816036701202393,0.4383208453655243,0.13761413097381593,-0.5902316570281982,0.8299605846405029,-0.9821462631225586,0.05515635013580322,0.903745174407959,-0.6362836360931397,-0.06435668468475342,-0.398506760597229,-0.1745516061782837,0.3938433825969696,0.028069376945495607,-0.23328983783721925,0.21682727336883546,0.8269920349121094,0.11313784122467041,0.8078060150146484,-0.11057817935943604,-0.2510291337966919,-0.01854836940765381,0.026364922523498536,0.26247522234916689,0.9683680534362793,-0.8302690982818604,-0.7109718322753906,0.11953294277191162,-0.9435086250305176]},{"fitness":6.177698135375977,"currentPopulationID":0,"currentEntityID":87,"parentPopulationID":-1,"parentEntityID":-1,"layers":[9,5,1],"flattendedWeights":[0.6768577098846436,0.5910320281982422,