{"entities":[{"fitness":0.39309197664260867,"currentPopulationID":0,"currentEntityID":0,"parentPopulationID":-1,"parentEntityID":-1,"layers":[9,15,5,1],"flattendedWeights":[0.9701023101806641,0.8135514259338379,0.9983639717102051,-0.73272705078125,0.568671464920044,0.8716869354248047,0.0854116678237915,-0.05979001522064209,0.2809447944164276,-0.09802138805389404,0.5724148750305176,0.5461428165435791,0.7968003749847412,-0.5467755794525147,-0.3856929540634155,0.060770392417907718,0.8628499507904053,-0.2701379060745239,0.40097519755363467,0.2866358458995819,-0.4737190008163452,0.8969852924346924,0.06751978397369385,0.834601640701294,0.4725603759288788,-0.6114089488983154,0.7914328575134277,0.05477011203765869,0.4824826419353485,0.16744458675384522,-0.5704317092895508,0.420350044965744,0.2606777846813202,-0.3568052053451538,0.2776133716106415,-0.42574799060821535,-0.6663362979888916,-0.019505858421325685,0.1673518419265747,0.29774710536003115,-0.23579180240631104,-0.4869493246078491,0.2051316499710083,-0.737079381942749,-0.4044119119644165,0.07558286190032959,-0.9197525978088379,-0.7356541156768799,-0.37061941623687746,0.16006100177764893,0.1433626413345337,-0.3785332441329956,-0.05993521213531494,-0.7542850971221924,-0.4531451463699341,0.5993354320526123,-0.8255047798156738,0.45346519351005556,0.9677855968475342,0.21897590160369874,0.7738327980041504,0.08577907085418701,-0.922452449798584,0.9481596946716309,-0.8413100242614746,0.7870633602142334,-0.41697800159454348,-0.45637238025665285,-0.6076152324676514,-0.8565940856933594,0.6489005088806152,0.6865212917327881,-0.21652281284332276,0.6792263984680176,0.05477559566497803,0.24748408794403077,-0.27316462993621828,-0.9952404499053955,0.8211262226104736,0.18140900135040284,0.9186723232269287,0.40093252062797549,-0.7249095439910889,0.29732343554496767,-0.31460750102996828,-0.05519425868988037,0.6806766986846924,0.5098156929016113,0.41306301951408389,-0.6706109046936035,-0.7454817295074463,-0.4679156541824341,0.9413721561431885,-0.9731612205505371,0.14164555072784425,0.1346532106399536,-0.8723580837249756,0.2874610126018524,-0.16600239276885987,0.5797808170318604,-0.5520169734954834,0.9867408275604248,0.12289178371429444,-0.5392758846282959,0.4848575294017792,-0.6580774784088135,0.7686450481414795,0.8076150417327881,0.9294567108154297,0.03825247287750244,0.6718556880950928,0.42777201533317568,0.2922980487346649,0.5444965362548828,-0.9323241710662842,-0.5698206424713135,0.9426567554473877,-0.26465165615081789,-0.23350107669830323,0.6277732849121094,-0.6514747142791748,-0.9356753826141357,0.15312707424163819,-0.7646634578704834,0.9885170459747315,0.30483362078666689,0.435442179441452,0.9802215099334717,0.47561022639274599,0.968963623046875,0.2925686538219452,-0.856520414352417,0.644153356552124,0.2833711802959442,0.8362345695495606,-0.7126142978668213,-0.7411792278289795,0.8667151927947998,-0.9249472618103027,-0.1605743169784546,-0.6779952049255371,-0.8623950481414795,0.8393261432647705,-0.7218317985534668,0.9494493007659912,0.747169017791748,-0.14683043956756593,0.5106074810028076,0.588761568069458,-0.6419270038604736,-0.12252795696258545,0.5995311737060547,0.7309815883636475,-0.12173330783843994,0.7109026908874512,0.8213708400726318,-0.8623692989349365,0.739715576171875,-0.8461611270904541,0.03951609134674072,-0.07470166683197022,-0.3941749334335327,0.5185954570770264,0.9170362949371338,-0.36999547481536868,-0.2619820833206177,0.8540935516357422,-0.8335556983947754,-0.7470324039459229,0.6732842922210693,-0.27073800563812258,-0.8895280361175537,0.5209107398986816,-0.7475998401641846,-0.3658941984176636,-0.9797511100769043,-0.16337907314300538,0.35993191599845889,-0.31225788593292239,0.6019890308380127,0.3888508975505829,0.14095604419708253,0.34506961703300478,0.6669449806213379,0.6476325988769531,0.10917961597442627,-0.41583049297332766,-0.38935720920562746,-0.5634377002716065,0.14484965801239015,-0.9406428337097168,0.8667023181915283,-0.12441670894622803,0.7203190326690674,-0.5599517822265625,0.7284739017486572,0.828345775604248,-0.01529848575592041,-0.9922294616699219,-0.35301005840301516,0.23350822925567628,0.6896646022796631,-0.13024437427520753,-0.8690447807312012,-0.27815401554107668,-0.5189862251281738,0.05636870861053467,0.3740176856517792,-0.3712364435195923,0.8403010368347168,-0.023423075675964357,0.7733490467071533,0.6535134315490723,-0.724323034286499,-0.6408710479736328]},{"fitness":0.3518769145011902,"currentPopulationID":0,"currentEntityID":1,"parentPopulationID":-1,"parentEntityID":-1,"layers":[9,15,5,1],"flattendedWeights":[-0.18899548053741456,0.9316284656524658,-0.9675729274749756,-0.9299209117889404,0.17962896823883058,0.7896442413330078,0.3643638789653778,0.8083555698394775,-0.020228266716003419,-0.7938952445983887,0.1524108648300171,-0.4663459062576294,0.3476526439189911,-0.4678117036819458,-0.4089707136154175,0.46056076884269717,0.4364778697490692,0.786484956741333,0.08221876621246338,0.9332923889160156,0.6949560642242432,-0.08137428760528565,0.44214317202568056,-0.5280947685241699,0.15868866443634034,0.7504644393920898,-0.6569833755493164,-0.04123103618621826,-0.3405200242996216,-0.942314863204956,-0.5838038921356201,-0.09518682956695557,-0.7403445243835449,-0.6504395008087158,0.20862805843353272,-0.8998904228210449,-0.10003054141998291,-0.19212400913238526,0.06563746929168701,-0.9984965324401856,0.29959818720817568,0.3741917312145233,0.14381420612335206,0.7404301166534424,-0.9995825290679932,-0.3564234972000122,-0.539086103439331,0.5830838680267334,0.9728920459747315,0.3993701636791229,0.1479419469833374,-0.5755081176757813,-0.2344447374343872,0.6633327007293701,-0.696495532989502,0.9391293525695801,-0.7969465255737305,0.4532882869243622,0.8589179515838623,0.42633649706840517,-0.6811718940734863,0.957150936126709,0.7111339569091797,-0.16373908519744874,-0.5752935409545898,-0.8964776992797852,-0.09524357318878174,0.6033246517181397,-0.048626065254211429,-0.8255188465118408,-0.7748153209686279,-0.17014849185943604,0.15230858325958253,0.03557288646697998,0.8846209049224854,-0.24131262302398683,-0.46283161640167239,0.9422554969787598,0.660620927810669,0.8233504295349121,-0.08072960376739502,-0.5972025394439697,0.19070446491241456,-0.518226146697998,-0.02149379253387451,-0.9284877777099609,0.3885297477245331,0.6040728092193604,-0.513432502746582,0.8737764358520508,0.5912830829620361,-0.6664032936096191,-0.014077067375183106,-0.8395509719848633,0.8818116188049316,0.25479862093925478,-0.28338849544525149,-0.026619791984558107,-0.001906752586364746,-0.25961625576019289,-0.15948998928070069,-0.40591132640838625,0.5668215751647949,-0.6935219764709473,-0.0013877153396606446,-0.6560606956481934,-0.7667131423950195,0.12712514400482179,-0.2621389627456665,0.4918191134929657,0.3053419291973114,0.874164342880249,0.012167811393737793,0.9467573165893555,0.04437291622161865,0.09738600254058838,-0.18202745914459229,-0.19130408763885499,0.08562171459197998,-0.6598613262176514,-0.04333293437957764,-0.36466848850250246,-0.35539090633392336,0.1106942892074585,0.524547815322876,0.2485579252243042,-0.036478400230407718,-0.37169110774993899,0.40343257784843447,0.6607298851013184,0.8787851333618164,0.22144973278045655,-0.1248239278793335,-0.5879731178283691,0.9997997283935547,-0.4663733243942261,0.7356424331665039,0.7972760200500488,0.41831108927726748,0.5066685676574707,-0.7944972515106201,0.959296464920044,0.016754746437072755,0.9370675086975098,-0.0019620656967163088,-0.47633278369903567,-0.6522445678710938,-0.2614525556564331,-0.17849457263946534,0.6272895336151123,0.1934417486190796,-0.19033825397491456,0.7054250240325928,0.40413376688957217,0.7923583984375,-0.36436450481414797,-0.8175637722015381,-0.799691915512085,0.3015856444835663,-0.1060870885848999,-0.7230715751647949,0.3623981177806854,0.3694731891155243,-0.5940084457397461,-0.6320011615753174,0.6681215763092041,-0.7723205089569092,0.9075214862823486,-0.7245707511901856,-0.17072546482086183,0.14752662181854249,0.532233715057373,0.15841782093048097,-0.33331549167633059,-0.31869566440582278,-0.4140065908432007,0.5366551876068115,0.150917649269104,-0.2710181474685669,-0.7615101337432861,-0.9172794818878174,-0.29807889461517336,-0.03466975688934326,-0.37796199321746828,-0.8424675464630127,0.478511780500412,0.20417702198028565,0.47334811091423037,-0.2594815492630005,0.5493311882019043,0.11882674694061279,0.8578078746795654,-0.7003707885742188,0.2783033549785614,0.5859596729278565,-0.0833350419998169,-0.5787320137023926,-0.5729148387908936,0.35590502619743349,0.7662453651428223,0.17576420307159425,0.15871202945709229,0.29916831851005556,0.8098270893096924,-0.9278120994567871,0.8284616470336914,0.21651780605316163,0.49127671122550967,-0.6673099994659424,-0.96697998046875,0.43276068568229678,-0.6464922428131104,-0.4161292314529419,0.1820749044418335,-0.9290428161621094]},{"fitness":0.40970927476882937,"currentPopulationID":0,"currentEntityID":2,"parentPopulationID":-1,"parentEntityID":-1,"layers":[9,15,5,1],"flattendedWeights":[-0.6086809635162354,0.3521687686443329,0.21423375606536866,-0.8377597332000732,0.1141890287399292,-0.1384679079055786,-0.7050607204437256,0.877598762512207,0.4878203570842743,-0.7728304862976074,-0.6761577129364014,-0.6680638790130615,-0.843346118927002,-0.10435783863067627,0.164789080619812,-0.4318774938583374,0.6339278221130371,0.41264888644218447,0.5355069637298584,0.8390865325927734,0.14010655879974366,-0.5195577144622803,0.8711469173431397,0.31468865275382998,0.11916553974151612,-0.08777201175689697,-0.0981522798538208,0.314418762922287,0.1898561716079712,0.3269302546977997,-0.7085187435150147,-0.14130866527557374,0.3818783462047577,-0.7146270275115967,-0.1911071538925171,-0.9322474002838135,-0.5487630367279053,0.9354410171508789,-0.9271523952484131,0.0112990140914917,-0.4335421323776245,-0.7877240180969238,0.8389971256256104,-0.5329687595367432,-0.862962007522583,0.8047158718109131,-0.002956986427307129,-0.1545788049697876,-0.950533390045166,0.5696773529052734,0.9158265590667725,-0.767308235168457,0.9088952541351318,-0.06742370128631592,-0.9209904670715332,-0.23122751712799073,-0.8428046703338623,0.3323633372783661,0.6852107048034668,-0.143379807472229,0.8411157131195068,0.4595782458782196,-0.7500016689300537,0.468034952878952,0.3562600314617157,-0.7908954620361328,0.12861645221710206,0.506554365158081,-0.8872215747833252,0.07907044887542725,-0.8717057704925537,0.8973367214202881,0.6080482006072998,-0.255473256111145,0.1469205617904663,0.47261449694633486,-0.21956908702850343,0.1617375612258911,-0.31431281566619875,-0.4141041040420532,-0.7649450302124023,-0.022124409675598146,-0.2542349100112915,-0.9050347805023193,0.921013355255127,0.9123935699462891,-0.21353518962860108,-0.4437476396560669,-0.6936779022216797,-0.513735294342041,-0.38574421405792239,0.7300584316253662,0.15107691287994386,0.82692551612854,-0.5805203914642334,0.5141780376434326,0.8147976398468018,0.39903876185417178,0.8987209796905518,-0.37495458126068118,-0.49435102939605715,-0.24897992610931397,-0.6257956027984619,-0.02084052562713623,0.7079787254333496,0.1610015630722046,-0.5623526573181152,0.7215521335601807,0.7387545108795166,0.7807824611663818,-0.48944294452667239,0.8555989265441895,0.6853103637695313,0.4320211112499237,0.17898666858673097,-0.5115468502044678,-0.9462780952453613,0.9831154346466065,0.3728801906108856,-0.8420825004577637,-0.3433278799057007,0.3614806830883026,-0.05650818347930908,-0.9890284538269043,0.31248709559440615,0.6483769416809082,-0.14100778102874757,0.255564421415329,0.2696366012096405,0.104653000831604,-0.15688741207122804,0.8976476192474365,0.07288515567779541,0.23895490169525147,-0.5578508377075195,-0.6525676250457764,0.6199333667755127,-0.6926620006561279,0.49057599902153017,-0.46017324924468996,0.052297234535217288,-0.3550015687942505,-0.26458537578582766,0.9216947555541992,-0.9513862133026123,-0.594459056854248,0.8603668212890625,-0.7472705841064453,-0.1524876356124878,-0.6954071521759033,0.06921803951263428,0.44517776370048525,-0.558819055557251,0.29190799593925478,0.27233240008354189,0.8977963924407959,-0.9250915050506592,0.9321200847625732,-0.1663142442703247,0.21176564693450929,0.3742832839488983,0.8248448371887207,0.877239465713501,0.3210708796977997,-0.06883323192596436,0.8809852600097656,0.10211265087127686,0.9109489917755127,0.644634485244751,-0.7088854312896729,-0.5665073394775391,0.6884567737579346,-0.7007315158843994,0.42080041766166689,-0.3204845190048218,0.8284072875976563,0.7841641902923584,0.7472643852233887,-0.7889585494995117,0.0022853612899780275,0.11616122722625733,0.5415971279144287,-0.9447460174560547,0.8878755569458008,0.5686464309692383,-0.6664679050445557,0.6841287612915039,0.9059603214263916,-0.9560835361480713,-0.009752392768859864,-0.04501616954803467,0.457057923078537,-0.9409325122833252,-0.5520031452178955,0.24742639064788819,0.2069617509841919,0.8804967403411865,0.648273229598999,0.4450943171977997,0.8768584728240967,0.6958425045013428,-0.8746588230133057,-0.3099743127822876,-0.9902040958404541,-0.6420140266418457,0.2265552282333374,0.7369270324707031,0.6559035778045654,-0.02804577350616455,-0.00024569034576416016,0.5315189361572266,-0.6441755294799805,0.7830207347869873,0.3403629958629608,0.011438250541687012]},{"fitness":0.38452714681625368,"currentPopulationID":0,"currentEntityID":3,"parentPopulationID":-1,"parentEntityID":-1,"layers":[9,15,5,1],"flattendedWeights":[0.09197461605072022,-0.03964388370513916,-0.13812434673309327,0.13651597499847413,0.6536104679107666,-0.20444929599761964,0.4838058650493622,0.8677201271057129,0.07155334949493408,0.32708093523979189,-0.19496452808380128,0.03715407848358154,-0.9503583908081055,0.8258728981018066,-0.8539242744445801,0.5270910263061523,-0.8393876552581787,0.24025094509124757,0.6581566333770752,0.42739078402519228,-0.10176360607147217,0.6237702369689941,-0.34234583377838137,0.9013156890869141,-0.03614628314971924,0.9242396354675293,-0.3872157335281372,-0.2701510190963745,0.44464752078056338,0.6323103904724121,-0.4123469591140747,-0.17194616794586183,0.8551130294799805,0.1894627809524536,0.480436772108078,0.2694718539714813,-0.5005145072937012,-0.9407505989074707,-0.17950642108917237,-0.020694851875305177,-0.4782460927963257,0.923041820526123,0.9463293552398682,0.8049001693725586,0.580146074295044,0.21382558345794679,0.6177959442138672,0.7841446399688721,0.05527698993682861,-0.38914453983306887,0.4781772792339325,0.34848687052726748,-0.8733503818511963,0.1624528169631958,0.9666712284088135,-0.07942807674407959,-0.16220414638519288,-0.10933148860931397,0.11416518688201904,-0.9936542510986328,0.1673821210861206,0.8311796188354492,0.439022034406662,0.7428619861602783,0.013121485710144043,-0.8080203533172607,0.6586410999298096,-0.2440410852432251,-0.9043223857879639,0.20644915103912354,0.4402131736278534,-0.5547735691070557,0.6441769599914551,0.20865905284881593,0.5440833568572998,0.5935804843902588,-0.6252822875976563,-0.05637824535369873,-0.6989030838012695,-0.6486711502075195,-0.8543391227722168,-0.32253730297088625,-0.8241980075836182,0.09649312496185303,0.18579065799713136,-0.9884283542633057,-0.25332653522491457,0.8963415622711182,-0.4293714761734009,-0.3836106061935425,0.7678265571594238,-0.6772239208221436,-0.7527294158935547,0.4048273265361786,0.7275891304016113,-0.9521622657775879,0.5014331340789795,0.46796271204948428,0.1420508623123169,-0.5098469257354736,-0.9718966484069824,0.2375849485397339,0.6899154186248779,0.24649560451507569,0.34351488947868349,-0.08589470386505127,-0.39864957332611086,0.12377893924713135,0.00944530963897705,-0.19953811168670655,-0.6458628177642822,0.9948158264160156,-0.7395179271697998,0.4574982821941376,0.9036006927490234,-0.934882402420044,-0.7164320945739746,0.7212369441986084,0.6328353881835938,0.34301111102104189,0.7141320705413818,-0.0024312734603881838,0.04456651210784912,-0.5887553691864014,-0.9993889331817627,0.02188265323638916,-0.7141823768615723,-0.7479135990142822,0.2728986442089081,-0.9803605079650879,-0.10165846347808838,0.026064038276672365,0.18732917308807374,-0.9600272178649902,-0.1909698247909546,0.7294361591339111,-0.11755168437957764,-0.18176352977752686,-0.1540611982345581,-0.8881707191467285,-0.8293411731719971,-0.31146514415740969,0.5380196571350098,0.7066376209259033,0.08050954341888428,0.5969798564910889,0.7196385860443115,0.5222325325012207,-0.24699676036834718,0.21185195446014405,-0.13429129123687745,-0.984302282333374,-0.32428276538848879,0.30220720171928408,-0.25704681873321535,0.31438109278678896,-0.10198748111724854,0.5105140209197998,-0.8721528053283691,-0.40605366230010989,-0.9719629287719727,-0.3130403757095337,-0.6082117557525635,-0.6859190464019775,-0.6649348735809326,-0.42582833766937258,0.47280070185661318,-0.427679181098938,0.1942044496536255,0.20103919506072999,0.7765376567840576,0.3377983272075653,0.10291397571563721,-0.7909705638885498,-0.6029236316680908,0.666257381439209,0.530921459197998,-0.44642555713653567,0.7308776378631592,0.14290010929107667,-0.8658697605133057,0.7376041412353516,0.659517765045166,-0.08175265789031983,0.31714507937431338,0.023474812507629396,-0.3100186586380005,-0.2819324731826782,-0.11956655979156494,-0.25796282291412356,0.28216859698295596,0.44342347979545596,-0.4154423475265503,-0.9360401630401611,-0.19879543781280518,-0.8034546375274658,0.12852299213409425,-0.23712480068206788,0.2577941119670868,-0.800445556640625,0.8709049224853516,-0.3308299779891968,-0.5544240474700928,-0.19678866863250733,-0.8454279899597168,-0.9080216884613037,-0.3473120927810669,0.10503160953521729,0.8736991882324219,-0.4553896188735962,-0.7185115814208984,-0.0069724321365356449,-0.3955882787704468,-0.9024901390075684,0.70298171043396]},{"fitness":0.39533793926239016,"currentPopulationID":0,"currentEntityID":4,"parentPopulationID":-1,"parentEntityID":-1,"layers":[9,15,5,1],"flattendedWeights":[-0.5666747093200684,-0.5605282783508301,0.808295726776123,0.10912692546844483,-0.35467493534088137,0.8601107597351074,0.5841853618621826,0.43609949946403506,0.6324172019958496,-0.01560056209564209,-0.3379784822463989,-0.9870717525482178,0.799736738204956,0.5576624870300293,0.27829739451408389,0.218755841255188,-0.9511160850524902,-0.9279117584228516,-0.13131535053253175,-0.6243481636047363,0.46770498156547549,-0.2993561029434204,0.06342613697052002,-0.7558081150054932,0.21754443645477296,-0.37692081928253176,-0.06783115863800049,0.1352025270462036,0.564338207244873,0.6867890357971191,0.9071629047393799,-0.9051926136016846,0.920623779296875,-0.8664660453796387,0.4723012149333954,0.5648329257965088,0.9381904602050781,-0.07332265377044678,0.17979681491851808,-0.8803725242614746,0.013920187950134278,0.07119715213775635,-0.2181485891342163,0.02853548526763916,-0.23026549816131593,0.9934630393981934,0.9629170894622803,-0.8193199634552002,-0.5027003288269043,0.8698310852050781,0.3446752727031708,-0.5849690437316895,0.05202376842498779,0.08058750629425049,-0.6904411315917969,-0.2521580457687378,-0.997882604598999,0.27777644991874697,-0.43034255504608157,0.22368228435516358,0.1635805368423462,0.6779532432556152,-0.6227726936340332,0.45067164301872256,0.6703920364379883,0.5292148590087891,0.027089715003967286,-0.6875545978546143,0.903832197189331,0.8311872482299805,0.6590538024902344,-0.44660723209381106,0.3607904613018036,-0.967778205871582,0.2314380407333374,-0.592677116394043,-0.11001408100128174,-0.7439489364624023,0.42355915904045107,-0.23941457271575929,-0.953474760055542,-0.058924317359924319,-0.2879101037979126,0.0006562471389770508,-0.7099590301513672,-0.09557855129241944,0.4259037673473358,0.24741923809051515,0.15016210079193116,0.6961841583251953,0.594186544418335,0.5552310943603516,-0.8567025661468506,0.7895505428314209,0.46042415499687197,0.037459731101989749,-0.08886134624481201,0.515526294708252,-0.6036274433135986,-0.2855798006057739,-0.4679018259048462,0.1074603796005249,-0.8031837940216065,-0.13000214099884034,0.6933276653289795,0.6562066078186035,-0.6295280456542969,0.5078985691070557,-0.7805886268615723,-0.7557148933410645,0.518592357635498,0.321224182844162,0.49924442172050478,-0.7699017524719238,-0.9369895458221436,-0.07248985767364502,0.6883771419525147,0.9935541152954102,0.27701351046562197,-0.9033021926879883,-0.11972153186798096,-0.5924019813537598,0.6342084407806397,-0.34646785259246828,-0.17385494709014893,0.8179280757904053,-0.4468499422073364,0.37109944224357607,-0.38767945766448977,0.03442180156707764,-0.2239624261856079,0.5475788116455078,0.9384915828704834,0.5917880535125732,-0.02678048610687256,-0.2527278661727905,-0.025542616844177247,0.05125987529754639,-0.23954880237579347,-0.45025455951690676,-0.1304408311843872,-0.9651980400085449,-0.11476576328277588,-0.8365447521209717,-0.9984631538391113,-0.04875147342681885,0.27680298686027529,0.9386134147644043,0.9092719554901123,-0.8132243156433106,-0.3954256772994995,0.8152382373809815,0.061940789222717288,0.5184097290039063,0.6711535453796387,0.8160572052001953,0.7905385494232178,-0.7050826549530029,0.20376431941986085,-0.9190325736999512,-0.5248939990997315,-0.18395674228668214,-0.8765738010406494,0.8239853382110596,0.42224666476249697,0.4166998565196991,-0.08858859539031983,0.5156519412994385,0.14605987071990968,0.5198678970336914,-0.9136934280395508,-0.8445789813995361,0.6245861053466797,-0.2666429281234741,0.05728781223297119,-0.8120489120483398,0.6318104267120361,-0.0882331132888794,-0.5990250110626221,-0.20890319347381593,0.31159183382987978,0.38864585757255556,0.07243645191192627,0.7672936916351318,0.3867304027080536,-0.16181910037994386,-0.9353718757629395,0.697770357131958,0.16719019412994386,-0.9295814037322998,-0.43213117122650149,-0.0009056329727172852,-0.6489286422729492,0.14250314235687257,-0.23620736598968507,-0.7977840900421143,-0.6014981269836426,-0.1405426263809204,-0.17846214771270753,0.6048052310943604,-0.15215957164764405,-0.2552858591079712,-0.012018084526062012,-0.19070494174957276,-0.6247227191925049,-0.7038967609405518,-0.5722434520721436,-0.09905064105987549,-0.683441162109375,-0.1723238229751587,-0.3834720849990845,-0.9837942123413086,-0.3459125757217407,0.4687020480632782,0.00967562198638916]},{"fitness":0.41514843702316286,"currentPopulationID":0,"currentEntityID":5,"parentPopulationID":-1,"parentEntityID":-1,"layers":[9,15,5,1],"flattendedWeights":[0.9283535480499268,-0.27458345890045168,-0.15554749965667725,0.09448134899139404,-0.9691557884216309,-0.5768659114837647,0.3116409480571747,-0.3088775873184204,0.3099043071269989,0.31134626269340517,0.3152715861797333,0.5262870788574219,-0.720834493637085,-0.5348565578460693,0.7597067356109619,0.40422651171684267,-0.7470684051513672,0.1799718141555786,-0.5802266597747803,-0.5638725757598877,0.438106507062912,0.400966614484787,-0.6310293674468994,0.49486181139945986,-0.064811110496521,-0.6169366836547852,-0.5182700157165527,-0.09503805637359619,-0.4720197916030884,0.008313775062561036,0.6270809173583984,-0.8353705406188965,0.11520087718963623,-0.3374398946762085,0.6255793571472168,-0.8274412155151367,0.09370195865631104,-0.45258796215057375,0.47298142313957217,0.6440470218658447,-0.15899193286895753,0.7623803615570068,-0.7361371517181397,0.8037369251251221,-0.693505048751831,0.7550785541534424,-0.34892094135284426,0.48996207118034365,0.6992831230163574,-0.7137374877929688,0.643181324005127,0.3068508803844452,0.4748518168926239,0.36148616671562197,-0.3727961778640747,0.31720826029777529,-0.4040781259536743,-0.6420855522155762,0.18799221515655518,0.819265604019165,0.6846847534179688,0.7180824279785156,-0.17375242710113526,-0.40971124172210696,-0.820080041885376,0.5758237838745117,0.7340176105499268,0.4511880576610565,0.4537000358104706,-0.25437963008880618,-0.21381700038909913,0.8046400547027588,0.5265302658081055,0.4159485995769501,0.8512251377105713,0.7868936061859131,-0.5810284614562988,-0.3777536153793335,0.7167291641235352,-0.05973351001739502,-0.04671156406402588,0.7093310356140137,-0.37300431728363039,0.7227494716644287,0.11057174205780029,0.5917255878448486,0.4970354735851288,-0.8552994728088379,-0.2923392057418823,-0.1698702573776245,0.4563760459423065,-0.7759296894073486,0.5452213287353516,-0.8337430953979492,-0.3286827802658081,-0.5344634056091309,-0.2768656015396118,0.31703588366508486,0.7933406829833984,-0.1555405855178833,0.24151718616485597,-0.50457763671875,-0.9131324291229248,-0.7180733680725098,-0.341086745262146,-0.7089831829071045,0.6359660625457764,0.5826563835144043,0.18105685710906983,0.18011772632598878,0.9077749252319336,-0.45902717113494875,-0.6002545356750488,-0.06999170780181885,-0.5015501976013184,0.8562579154968262,0.7275772094726563,-0.6873185634613037,0.7195131778717041,0.3457154929637909,0.964724063873291,-0.9851183891296387,0.8348679542541504,-0.16277039051055909,-0.20453131198883058,-0.21763861179351808,0.8939390182495117,-0.11751425266265869,-0.4710921049118042,0.8727447986602783,0.4596979320049286,-0.9005138874053955,0.9604430198669434,-0.9844489097595215,0.6026818752288818,-0.8912842273712158,-0.9392895698547363,-0.802239179611206,0.32736966013908389,0.4556686580181122,-0.9667215347290039,-0.927187442779541,0.6323065757751465,-0.18517816066741944,0.03791201114654541,-0.9584524631500244,-0.6525359153747559,0.965367317199707,0.8469927310943604,-0.6808247566223145,-0.4222341775894165,0.7119555473327637,-0.031752943992614749,0.9311871528625488,0.8118340969085693,0.44441863894462588,-0.6781265735626221,0.6750240325927734,0.2363506555557251,0.45738503336906435,0.2113431692123413,0.2408045530319214,-0.35976994037628176,-0.40434181690216067,0.7167348861694336,-0.09987461566925049,-0.5905110836029053,-0.8204762935638428,-0.22686517238616944,-0.8963205814361572,-0.03553664684295654,-0.708465576171875,0.08438599109649658,-0.910881519317627,0.8251850605010986,-0.6464717388153076,0.3046996295452118,-0.6259372234344482,0.8364858627319336,-0.29545605182647707,-0.2922326326370239,-0.2653082609176636,0.8588166236877441,-0.9677009582519531,0.9917137622833252,0.1873553991317749,-0.5388698577880859,0.11006104946136475,0.8001115322113037,0.1484135389328003,0.8155667781829834,0.34878775477409365,-0.5845663547515869,0.8523178100585938,-0.5981078147888184,0.9825739860534668,-0.938237190246582,0.9071962833404541,-0.10573709011077881,0.33391138911247256,0.8166313171386719,0.708956241607666,-0.7456240653991699,0.1449652910232544,0.7362992763519287,0.602226972579956,-0.4394272565841675,-0.8713865280151367,-0.06145203113555908,0.9790048599243164,0.7200222015380859,-0.8151659965515137,-0.8024544715881348,0.6045427322387695,0.24736487865447999]},{"fitness":0.4191068708896637,"currentPopulationID":0,"currentEntityID":6,"parentPopulationID":-1,"parentEntityID":-1,"layers":[9,15,5,1],"flattendedWeights":[-0.5445797443389893,0.11878526210784912,0.2792801558971405,0.5767583847045898,0.5897080898284912,0.5746581554412842,-0.5634558200836182,-0.6641061305999756,-0.9621946811676025,0.4912695586681366,0.6894547939300537,0.9363257884979248,0.975421667098999,-0.7120792865753174,0.9155218601226807,-0.40716588497161868,-0.9379963874816895,-0.5437872409820557,0.9553406238555908,0.047297120094299319,0.5029289722442627,0.6121203899383545,-0.6920030117034912,-0.4755743741989136,0.9968531131744385,-0.8727917671203613,0.28825756907463076,0.4574744403362274,0.46137306094169619,-0.48477065563201907,-0.5909419059753418,0.336457222700119,-0.9379475116729736,0.5434689521789551,-0.29538190364837649,0.18809306621551515,0.9287993907928467,-0.2879077196121216,0.7076702117919922,-0.07995712757110596,0.3574926555156708,-0.21070373058319093,0.9115183353424072,0.28597137331962588,0.6908986568450928,0.439454048871994,-0.12174761295318604,0.766528844833374,0.0473858118057251,0.5068652629852295,-0.9757869243621826,0.21048414707183839,0.8138301372528076,0.18395841121673585,-0.7638535499572754,-0.8290953636169434,-0.25961601734161379,-0.6546924114227295,-0.33141815662384035,0.3810395896434784,0.24571001529693604,-0.370442271232605,0.2918224036693573,0.7504358291625977,-0.8350703716278076,-0.7839343547821045,-0.5717313289642334,-0.8871018886566162,-0.9076354503631592,-0.7239716053009033,0.7110691070556641,-0.22407782077789308,-0.8844356536865234,-0.3812793493270874,0.9033167362213135,0.3778948485851288,0.7300255298614502,0.9796795845031738,0.37454769015312197,-0.9836766719818115,0.7725799083709717,-0.19929468631744386,0.5304906368255615,-0.12275516986846924,-0.536799430847168,-0.1589757204055786,0.7845067977905273,-0.574655294418335,-0.2718857526779175,-0.2609323263168335,0.4529511630535126,-0.6591141223907471,0.14636695384979249,-0.6114456653594971,-0.966710090637207,0.7104039192199707,0.9309537410736084,-0.3494178056716919,0.5384247303009033,0.9977707862854004,0.8036031723022461,-0.07907235622406006,-0.7313797473907471,0.8593857288360596,-0.9964160919189453,0.8937582969665527,-0.5696241855621338,0.5797615051269531,0.8234460353851318,0.4339451491832733,-0.12201082706451416,0.33415719866752627,-0.3110436201095581,0.901695966720581,0.43633171916007998,-0.21968042850494386,0.34556862711906435,0.9519352912902832,-0.14081037044525147,-0.7545971870422363,0.8017327785491943,-0.9962248802185059,-0.535940408706665,-0.01125490665435791,-0.5666389465332031,-0.2704077959060669,0.26927897334098818,-0.1456664800643921,-0.42985260486602785,-0.5480685234069824,-0.7543811798095703,-0.6502063274383545,0.5319364070892334,0.8757429122924805,0.33903977274894717,-0.21171176433563233,0.8941891193389893,-0.4081488847732544,-0.2955108880996704,-0.5959606170654297,-0.9063715934753418,-0.21633946895599366,-0.17338740825653077,0.25351211428642275,0.2688588798046112,-0.876812219619751,0.9186801910400391,-0.6921548843383789,0.6910970211029053,-0.6069753170013428,0.1170276403427124,-0.7713735103607178,-0.8861229419708252,0.48210784792900088,-0.944129467010498,0.9250521659851074,-0.1378728151321411,-0.8018250465393066,-0.06040918827056885,0.7914583683013916,0.4597882926464081,-0.10115063190460205,-0.4365338087081909,-0.01689136028289795,0.3581196963787079,-0.02227342128753662,0.49806830286979678,-0.9063305854797363,-0.3281944990158081,-0.8470995426177979,0.5184385776519775,0.1614311933517456,-0.6390650272369385,0.1859217882156372,-0.16272437572479249,-0.13833177089691163,0.6339907646179199,0.6974501609802246,-0.681673526763916,-0.6329107284545898,-0.9299337863922119,0.22781336307525636,-0.09355700016021729,0.07310187816619873,0.9474165439605713,-0.5751395225524902,-0.7928247451782227,0.9816124439239502,0.6382215023040772,-0.0666431188583374,0.7031290531158447,-0.8553876876831055,0.560349702835083,-0.3304182291030884,-0.3571587800979614,0.6538412570953369,-0.043477416038513187,0.24806344509124757,-0.028684496879577638,-0.288263201713562,0.5936946868896484,0.9681553840637207,-0.20383942127227784,0.8426704406738281,0.5257585048675537,-0.20968186855316163,0.611863374710083,-0.5136055946350098,-0.579993724822998,0.4676820933818817,0.09082424640655518,0.3168279826641083,-0.10603177547454834,-0.9141483306884766,-0.2896538972854614]},{"fitness":0.3547947406768799,"currentPopulationID":0,"currentEntityID":7,"parentPopulationID":-1,"parentEntityID":-1,"layers":[9,15,5,1],"flattendedWeights":[-0.3513442277908325,0.3519596755504608,-0.49539315700531008,-0.6665019989013672,0.17101800441741944,0.16453659534454347,0.5459775924682617,0.6045114994049072,0.5885524749755859,-0.1489640474319458,0.6443321704864502,0.15553057193756104,0.512794017791748,0.24642717838287354,-0.2886751890182495,0.6438429355621338,0.9127213954925537,-0.08593809604644776,0.963292121887207,0.5013256072998047,0.983684778213501,-0.3251298666000366,-0.6824042797088623,-0.692847728729248,0.016960978507995607,0.3293609321117401,0.5022823810577393,0.9980101585388184,0.034645915031433108,0.7928619384765625,0.7251949310302734,-0.7963106632232666,-0.34726202487945559,-0.23292577266693116,-0.10332262516021729,-0.315160870552063,-0.5912938117980957,0.5125932693481445,0.496500700712204,-0.8182227611541748,-0.36362898349761965,0.5533931255340576,-0.139076828956604,0.6993017196655273,-0.12636983394622804,-0.4237023591995239,0.5389406681060791,-0.49862444400787356,-0.8833129405975342,0.27841946482658389,-0.2777451276779175,0.507479190826416,0.575084924697876,0.30073878169059756,0.2194761037826538,-0.3343008756637573,0.8728172779083252,0.057048678398132327,0.4777390658855438,0.42108938097953799,-0.6513338088989258,-0.9222393035888672,0.023653626441955568,0.3855607211589813,-0.25618207454681399,0.74888014793396,-0.797316312789917,-0.7298755645751953,-0.5849339962005615,0.9809834957122803,0.8257913589477539,-0.3662501573562622,-0.530426025390625,0.12585890293121339,-0.8516736030578613,0.04683792591094971,-0.20950162410736085,0.3070172965526581,-0.9631333351135254,0.36154815554618838,-0.18566739559173585,0.6804053783416748,-0.7180743217468262,-0.9180455207824707,0.6447033882141113,-0.16407716274261475,0.025400757789611818,0.665524959564209,-0.9199094772338867,0.35182544589042666,-0.65287184715271,0.02040255069732666,-0.33926451206207278,-0.1743379831314087,0.8607871532440186,-0.7135765552520752,-0.7109313011169434,0.5770506858825684,-0.42770111560821535,0.5369892120361328,0.5783708095550537,-0.3144916296005249,0.470149964094162,0.4517790973186493,-0.405171275138855,0.6241071224212647,0.592423677444458,-0.5848875045776367,-0.1665273904800415,0.049263834953308108,-0.6832804679870606,0.7571227550506592,0.8173813819885254,-0.32677161693573,0.6390519142150879,-0.659132719039917,-0.5880093574523926,0.4316675364971161,-0.11241257190704346,0.2526261508464813,-0.09483063220977783,-0.1558161973953247,-0.8542578220367432,0.17614281177520753,-0.8796083927154541,-0.39885413646698,-0.717017412185669,-0.7606966495513916,-0.21614587306976319,0.5828626155853272,-0.30963456630706789,-0.7950499057769775,-0.20188868045806886,0.5106897354125977,-0.7139654159545898,0.9223947525024414,0.13315355777740479,-0.1846245527267456,-0.7777884006500244,-0.3278268575668335,0.6839456558227539,-0.9490904808044434,0.610945463180542,0.8606052398681641,-0.8030509948730469,0.025050759315490724,-0.11011064052581787,-0.4838005304336548,0.34868261218070986,0.48660895228385928,0.9296658039093018,-0.7063436508178711,0.3567471206188202,0.6464028358459473,-0.8357601165771484,0.6518750190734863,-0.8890671730041504,-0.06172597408294678,0.9585506916046143,-0.12088072299957276,0.8630950450897217,0.32840201258659365,0.03642857074737549,-0.8313367366790772,-0.7657983303070068,-0.9711623191833496,-0.8017919063568115,-0.5669162273406982,-0.7583281993865967,-0.09953844547271729,-0.11796963214874268,-0.6431567668914795,0.8901107311248779,0.3696582019329071,-0.7261040210723877,-0.347481369972229,0.42940399050712588,-0.5539579391479492,-0.18461692333221436,0.355265349149704,-0.34988248348236086,0.8809385299682617,0.6232836246490479,0.23771607875823975,-0.3924602270126343,0.330104798078537,-0.9657208919525147,-0.8352725505828857,-0.942143440246582,0.6665451526641846,0.20389902591705323,-0.7594969272613525,0.5888211727142334,0.18377339839935304,0.8689417839050293,0.0608290433883667,0.6209073066711426,0.7679638862609863,0.4896092116832733,-0.011925101280212403,-0.4671374559402466,-0.9615423679351807,0.4887344539165497,-0.29930055141448977,-0.9771707057952881,-0.7648794651031494,-0.706174373626709,-0.22028982639312745,0.9442148208618164,-0.48163020610809328,0.622955322265625,-0.7403604984283447,0.9435501098632813,-0.9481499195098877,-0.040253281593322757]},{"fitness":0.40504544973373415,"currentPopulationID":0,"currentEntityID":8,"parentPopulationID":-1,"parentEntityID":-1,"layers":[9,15,5,1],"flattendedWeights":[-0.46212589740753176,-0.4762037992477417,-0.8549058437347412,-0.32731854915618899,-0.8575079441070557,-0.5766592025756836,-0.40186870098114016,0.8619081974029541,0.7178404331207275,0.4617612063884735,-0.1005483865737915,0.6025135517120361,0.35709163546562197,0.46253034472465517,-0.9792592525482178,0.6000056266784668,0.22761023044586183,-0.7755990028381348,0.43041107058525088,-0.9944941997528076,-0.42437517642974856,0.6068575382232666,-0.2649587392807007,0.5411453247070313,-0.418387770652771,-0.6525328159332275,-0.757697582244873,0.7135128974914551,0.8583147525787354,-0.8200583457946777,-0.3186227083206177,-0.15433919429779054,-0.09394419193267822,0.8846092224121094,0.07873809337615967,-0.7635257244110107,-0.41392362117767336,-0.4393349885940552,-0.9266879558563232,0.9632906913757324,-0.7618405818939209,0.0018695592880249024,-0.40504777431488039,-0.35838639736175539,0.01983821392059326,0.9057846069335938,-0.6738762855529785,0.32727476954460146,-0.9854187965393066,0.2320934534072876,0.6529145240783691,-0.7744197845458984,0.12270891666412354,0.6231532096862793,-0.8076252937316895,-0.32688915729522707,-0.5875394344329834,0.7283406257629395,-0.6352019309997559,0.9086868762969971,-0.8752880096435547,0.7571935653686523,-0.6846504211425781,0.6284520626068115,-0.32337772846221926,-0.37995445728302,-0.9377484321594238,-0.19350063800811768,0.744879961013794,-0.7064316272735596,-0.9125320911407471,-0.754112720489502,-0.298120379447937,-0.5639743804931641,0.18990671634674073,-0.12406861782073975,0.521049976348877,-0.027147889137268068,-0.625645637512207,-0.16958129405975343,-0.737147331237793,-0.15432369709014893,-0.6225874423980713,0.5805785655975342,-0.3475381135940552,-0.5472323894500732,-0.4252678155899048,-0.7373886108398438,-0.8548805713653565,-0.2845529317855835,0.9724488258361816,-0.5153849124908447,-0.30355608463287356,0.8224985599517822,0.9883129596710205,0.5568907260894775,-0.2991446256637573,0.15730702877044679,0.7974462509155273,-0.848289966583252,0.10214674472808838,-0.8460452556610107,-0.16154634952545167,0.894688606262207,0.35689184069633486,0.444163054227829,-0.642052173614502,0.050896286964416507,0.2326570749282837,-0.5010483264923096,0.17564809322357179,-0.6771745681762695,0.4258997142314911,0.019930243492126466,-0.13572633266448975,0.3491456210613251,0.47400161623954775,0.31526610255241396,0.9653012752532959,0.011160016059875489,-0.5815784931182861,-0.05836975574493408,-0.23054444789886475,0.23798692226409913,-0.9842779636383057,0.5489809513092041,0.12272059917449951,0.1563965082168579,0.042516350746154788,0.5451231002807617,0.5483145713806152,0.4527728259563446,0.9520628452301025,0.8693544864654541,0.1144493818283081,-0.05509650707244873,0.5671603679656982,0.8533828258514404,-0.1006995439529419,0.7728173732757568,0.389433354139328,-0.9844260215759277,0.5184996128082275,0.721599817276001,0.5957202911376953,-0.30657732486724856,-0.4830101728439331,-0.8964574337005615,-0.2836548089981079,-0.3773852586746216,0.5804297924041748,-0.2415693998336792,-0.5325260162353516,0.11787974834442139,0.7570114135742188,-0.7499055862426758,0.9281871318817139,-0.4724067449569702,0.050640225410461429,0.4026610553264618,0.6596574783325195,-0.8314526081085205,0.3572694957256317,-0.9159331321716309,-0.5307691097259522,0.8566703796386719,0.8616933822631836,0.9627327919006348,0.2141951322555542,0.38974902033805849,0.1689223051071167,0.09559953212738037,-0.3258398771286011,-0.48965489864349368,-0.6921718120574951,0.47523781657218935,0.068092942237854,-0.13385140895843507,-0.07849752902984619,-0.43241584300994875,0.5629403591156006,0.9436554908752441,-0.11191809177398682,0.263407438993454,-0.997347354888916,0.19183075428009034,0.0739673376083374,0.4563407599925995,-0.6181797981262207,-0.8684978485107422,-0.042504191398620608,-0.19702160358428956,-0.6782495975494385,0.5307104587554932,0.2237645387649536,0.178932785987854,-0.1382378339767456,-0.09754502773284912,0.5487921237945557,-0.24648606777191163,-0.8064670562744141,-0.35829222202301028,0.7549574375152588,0.27414581179618838,0.11180436611175537,0.3583466708660126,-0.7340960502624512,0.7709062099456787,0.4449114501476288,-0.5608844757080078,0.11165869235992432,-0.944014310836792,-0.3739703893661499,-0.1317676305770874,-0.054294466972351077]},{"fitness":0.39844101667404177,"currentPopulationID":0,"currentEntityID":9,"parentPopulationID":-1,"parentEntityID":-1,"layers":[9,15,5,1],"flattendedWeights":[0.35254499316215517,0.43389031291007998,0.6799414157867432,0.31361123919487,-0.48358118534088137,-0.15028250217437745,-0.5625324249267578,0.8293635845184326,-0.5575239658355713,0.33971402049064639,0.2481321096420288,-0.02448904514312744,0.5321874618530273,-0.3212789297103882,-0.1570957899093628,-0.7895340919494629,0.16681969165802003,-0.9039173126220703,0.6609559059143066,0.40422770380973818,0.6198351383209229,0.24916207790374757,0.8983669281005859,-0.9622373580932617,-0.9310054779052734,-0.0245589017868042,0.3471684157848358,0.6594970226287842,0.45051833987236025,0.39713189005851748,-0.049349188804626468,-0.8874318599700928,0.4968971908092499,-0.8751535415649414,-0.8197798728942871,-0.9683911800384522,0.7690074443817139,0.19235670566558839,-0.06477010250091553,0.249916672706604,-0.9875447750091553,-0.7541325092315674,0.38988348841667178,-0.49754488468170168,0.9772682189941406,0.6407530307769775,0.34183141589164736,0.16317474842071534,0.4560486972332001,0.36898061633110049,0.6276659965515137,0.08019697666168213,-0.9280118942260742,0.9561498165130615,-0.5192394256591797,-0.8950808048248291,0.5821247100830078,-0.48498833179473879,0.590552568435669,-0.11366498470306397,-0.5287265777587891,0.12220442295074463,0.941633939743042,-0.8097846508026123,-0.4061216115951538,-0.6390092372894287,0.24174249172210694,-0.5104517936706543,-0.10643041133880615,-0.9655368328094482,-0.7908270359039307,-0.7653868198394775,-0.2518883943557739,-0.12770354747772218,0.539278507232666,-0.5899205207824707,0.1657630205154419,0.6527762413024902,0.8187518119812012,0.3417522609233856,0.9561421871185303,-0.9437799453735352,0.5822470188140869,-0.3737238645553589,0.11964547634124756,0.24234378337860108,0.5376460552215576,-0.22306883335113526,-0.8097398281097412,0.7125575542449951,0.13427412509918214,0.8007280826568604,-0.9742343425750732,-0.6124072074890137,0.6036081314086914,0.9313068389892578,0.4956524074077606,0.16520416736602784,-0.41015613079071047,0.7790544033050537,-0.4011794328689575,0.5259416103363037,-0.448708176612854,-0.7774801254272461,0.9809558391571045,-0.01652204990386963,0.10422909259796143,0.6307542324066162,-0.27970850467681887,0.8304195404052734,0.40783068537712099,0.21824300289154054,-0.7328379154205322,0.10558712482452393,-0.734849214553833,-0.7273826599121094,0.6133146286010742,-0.23689615726470948,-0.7932751178741455,-0.5958635807037354,0.8234961032867432,0.4685628116130829,-0.36314117908477785,0.03268134593963623,0.6742403507232666,0.18159687519073487,0.7062511444091797,0.11492574214935303,0.94069504737854,-0.1824132204055786,-0.7386260032653809,0.26396486163139346,0.5522952079772949,-0.5855422019958496,0.8857266902923584,0.9419019222259522,0.43495842814445498,0.6427373886108398,0.1006394624710083,-0.9154336452484131,-0.2872973680496216,-0.5389690399169922,0.018782734870910646,0.7946195602416992,0.07583177089691162,0.5631704330444336,0.7736473083496094,0.8704335689544678,-0.9993495941162109,0.5692002773284912,-0.04876863956451416,0.2100759744644165,0.6631505489349365,0.5961799621582031,-0.28579580783843996,-0.06094253063201904,0.11715590953826904,0.5457851886749268,-0.2034093141555786,0.21299254894256593,-0.05219423770904541,-0.1964026689529419,-0.6436944007873535,0.7249608039855957,0.6548659801483154,-0.17452681064605714,-0.2368069887161255,0.7949283123016357,-0.7080135345458984,-0.13192832469940186,-0.3112386465072632,-0.37885987758636477,0.78586745262146,-0.7041099071502686,-0.8568863868713379,-0.5340914726257324,-0.693619966506958,0.9908649921417236,0.9399192333221436,-0.18047106266021729,0.865642786026001,-0.24164021015167237,0.2096489667892456,0.014644503593444825,-0.1281341314315796,-0.49153125286102297,-0.851569652557373,0.1452857255935669,0.6390478610992432,-0.1318262815475464,-0.6870832443237305,-0.6793897151947022,-0.6184172630310059,-0.3511260747909546,0.07871782779693604,-0.6373319625854492,-0.9555931091308594,0.1468139886856079,-0.23666584491729737,-0.8452627658843994,0.15716326236724854,0.3080129325389862,0.8617982864379883,0.1289602518081665,-0.6194829940795898,-0.4482370615005493,0.26916763186454775,0.2850165069103241,-0.11540830135345459,-0.10427963733673096,-0.22400391101837159,0.30487701296806338,-0.3219650983810425,-0.8005757331848145,-0.09651505947113037]},{"fitness":0.39185160398483279,"currentPopulationID":0,"currentEntityID":10,"parentPopulationID":-1,"parentEntityID":-1,"layers":[9,15,5,1],"flattendedWeights":[0.8338308334350586,-0.7449355125427246,0.3738867938518524,0.1418074369430542,-0.9053614139556885,-0.7260818481445313,0.31822845339775088,-0.02508842945098877,0.4525592029094696,0.2243274450302124,-0.5781803131103516,-0.9137604236602783,0.7307913303375244,0.25079748034477236,0.294626921415329,0.717947244644165,0.6909027099609375,0.18934452533721925,-0.3514653444290161,0.3795585334300995,0.13716208934783936,-0.2852107286453247,-0.7156317234039307,-0.9756205081939697,-0.3640850782394409,0.3298327624797821,-0.7341206073760986,-0.3965972661972046,0.11992347240447998,0.3745264708995819,-0.7019751071929932,0.030474305152893068,-0.19543015956878663,0.7252805233001709,0.8104348182678223,-0.46591341495513918,-0.31186139583587649,0.9331820011138916,0.5342044830322266,-0.29534828662872317,0.7550044059753418,-0.23727858066558839,0.8700151443481445,0.310167521238327,-0.4128338098526001,0.6575565338134766,-0.7703227996826172,-0.7383730411529541,-0.3095952272415161,0.34165188670158389,-0.00578463077545166,0.30485936999320986,0.2540850341320038,0.20819342136383058,0.7591297626495361,0.2545776069164276,-0.004686951637268066,-0.7741594314575195,0.29687783122062685,-0.14495956897735597,-0.41282927989959719,0.33058926463127139,-0.1924053430557251,-0.12181580066680908,0.6573171615600586,0.7788999080657959,-0.20712625980377198,-0.9880049228668213,-0.7818026542663574,-0.853339433670044,0.5012938976287842,0.32475730776786806,0.9230871200561523,0.6700732707977295,0.2369440793991089,-0.8753769397735596,0.30113717913627627,-0.569659948348999,0.860668420791626,0.2676953971385956,0.36964985728263857,-0.6566140651702881,0.26164862513542178,0.18001329898834229,0.3206023871898651,-0.9155900478363037,-0.9042279720306397,0.4759840667247772,0.577131986618042,-0.890718936920166,0.6074204444885254,-0.61026930809021,-0.8379383087158203,-0.17202603816986085,-0.8601357936859131,0.4119071662425995,0.8630573749542236,0.23721849918365479,0.969374418258667,-0.23348772525787354,0.5169947147369385,-0.01300346851348877,0.3961305320262909,0.4652063548564911,-0.8199934959411621,0.8024783134460449,-0.7329394817352295,0.6911482810974121,0.872478723526001,-0.15982258319854737,-0.7524957656860352,0.20147240161895753,-0.5949697494506836,0.7354686260223389,0.8673238754272461,0.42940399050712588,0.4189755618572235,-0.5322167873382568,-0.1283348798751831,0.4218246638774872,-0.5854802131652832,-0.9823124408721924,0.6010422706604004,0.41176268458366396,0.9705936908721924,-0.2737849950790405,-0.8036055564880371,-0.9093058109283447,-0.2981828451156616,-0.3340519666671753,-0.09744322299957276,-0.8347723484039307,0.06384122371673584,0.5998795032501221,-0.18847620487213136,-0.6663217544555664,-0.868553876876831,0.36934754252433779,-0.4081822633743286,-0.38226640224456789,-0.049492478370666507,0.17394006252288819,-0.9319677352905273,0.4948258101940155,0.8366751670837402,-0.831451416015625,0.796682596206665,-0.10044968128204346,-0.7714171409606934,-0.34130728244781496,-0.18683159351348878,-0.9939072132110596,-0.9748270511627197,-0.337013840675354,0.7987782955169678,0.6326484680175781,-0.8762097358703613,0.19755232334136964,-0.433235764503479,-0.5813665390014648,-0.23048722743988038,0.4436316192150116,0.8646149635314941,0.3115346133708954,0.5720784664154053,-0.7705087661743164,-0.08631932735443115,0.15165340900421143,-0.31639182567596438,0.9995837211608887,0.6018111705780029,0.42592570185661318,0.2869105041027069,0.05441582202911377,-0.8878200054168701,0.8014044761657715,-0.7132174968719482,0.8324871063232422,0.0808330774307251,-0.4774268865585327,0.9805648326873779,0.6390693187713623,0.19534552097320558,-0.930457353591919,0.8252964019775391,0.05338156223297119,0.006770968437194824,-0.17872798442840577,-0.47511112689971926,-0.8096113204956055,0.29079338908195498,-0.030921578407287599,0.01064908504486084,-0.9882209300994873,-0.5914676189422607,0.5738406181335449,-0.36782991886138918,0.5828244686126709,0.5536837577819824,0.5164439678192139,0.3075728118419647,0.055407166481018069,0.1257246732711792,0.7074525356292725,0.24949991703033448,0.16792333126068116,-0.807135820388794,-0.9454982280731201,-0.10109817981719971,0.7590479850769043,0.4592230021953583,-0.8235194683074951,-0.49027836322784426,0.7290778160095215,0.03614151477813721]},{"fitness":0.3698488175868988,"currentPopulationID":0,"currentEntityID":11,"parentPopulationID":-1,"parentEntityID":-1,"layers":[9,15,5,1],"flattendedWeights":[0.9906420707702637,-0.11694586277008057,0.6913342475891113,0.329647034406662,0.5287137031555176,-0.5889081954956055,-0.8370802402496338,-0.4833415746688843,-0.7174830436706543,-0.7012109756469727,-0.6072781085968018,-0.12588083744049073,0.7854669094085693,-0.9398317337036133,-0.3261045217514038,0.21868526935577393,-0.6440627574920654,0.221030592918396,-0.5476360321044922,-0.05095994472503662,0.3310701549053192,-0.483833909034729,0.35503527522087099,0.7155895233154297,0.42451807856559756,0.6982643604278565,0.620549201965332,0.09046828746795654,-0.053189635276794437,0.10407412052154541,0.2385343313217163,-0.23791825771331788,-0.718799352645874,-0.954575777053833,0.6469931602478027,0.5654585361480713,0.22265374660491944,0.17702877521514893,0.9960775375366211,0.9948453903198242,-0.0701519250869751,0.17577874660491944,0.6450672149658203,-0.7881877422332764,-0.23898494243621827,-0.8352406024932861,-0.6127028465270996,-0.06969892978668213,-0.7658383846282959,-0.3987160921096802,-0.44949352741241457,0.3849000632762909,-0.26178109645843508,0.7862293720245361,0.3505367934703827,-0.7566707134246826,0.6040172576904297,0.5340561866760254,0.16996872425079347,-0.862959623336792,-0.7511930465698242,0.9383809566497803,-0.7563662528991699,0.4351951777935028,0.3900739848613739,0.39202234148979189,0.1037362813949585,-0.16363799571990968,0.3323659598827362,-0.16271865367889405,-0.2257300615310669,-0.7865753173828125,0.06819164752960205,0.9842829704284668,0.5566492080688477,-0.15063083171844483,0.979712724685669,0.9878387451171875,-0.08765113353729248,0.9206583499908447,-0.26109516620635989,-0.46574151515960696,-0.038065314292907718,-0.751554012298584,0.05468595027923584,-0.9186255931854248,-0.6921091079711914,-0.08384573459625244,0.04201400279998779,0.8476803302764893,0.057042479515075687,-0.1783357858657837,-0.25442326068878176,-0.028297066688537599,-0.877469539642334,-0.33619916439056399,-0.6959772109985352,0.693828821182251,-0.6823675632476807,0.5849456787109375,-0.08165037631988526,-0.16528451442718507,0.4640657603740692,-0.6528539657592773,0.3673712909221649,0.318038672208786,0.5026590824127197,-0.13888347148895265,0.05201160907745361,-0.7668182849884033,-0.275295615196228,-0.43121135234832766,-0.8982336521148682,-0.835928201675415,0.2679402530193329,-0.045426249504089358,-0.8950424194335938,-0.31984126567840578,0.36201903223991396,0.07587230205535889,-0.6434061527252197,-0.4045511484146118,0.6675808429718018,-0.07406747341156006,-0.8368685245513916,0.5967025756835938,0.7670540809631348,-0.31820476055145266,0.6829180717468262,-0.14741504192352296,0.18813884258270265,0.5682687759399414,0.7620759010314941,0.14001095294952393,-0.06583511829376221,-0.7175602912902832,-0.8459818363189697,0.5358002185821533,0.6587061882019043,0.7079761028289795,-0.341633677482605,0.4014112651348114,-0.78434157371521,0.27815505862236025,-0.8408181667327881,0.6719303131103516,0.7173542976379395,-0.5414857864379883,0.6204171180725098,0.24127137660980225,0.8943758010864258,0.9111404418945313,0.023285508155822755,0.7531187534332275,-0.07000172138214112,0.49788305163383486,0.22683799266815186,0.6407372951507568,-0.2231048345565796,0.8094813823699951,0.38624879717826846,-0.7827894687652588,0.0871809720993042,-0.5846891403198242,0.04325973987579346,-0.441672682762146,0.5264670848846436,0.456633061170578,-0.05979025363922119,-0.641789436340332,-0.5752577781677246,-0.7835488319396973,0.4923100173473358,-0.4698530435562134,0.2097536325454712,-0.41633403301239016,0.039722561836242679,0.3867931067943573,0.02136552333831787,0.8151743412017822,-0.24793922901153565,-0.1323632001876831,-0.3122314214706421,0.023700594902038575,0.1265932321548462,-0.6025698184967041,-0.05072176456451416,0.47453948855400088,-0.053850531578063968,0.8119313716888428,0.5369889736175537,0.8421845436096191,0.8605489730834961,-0.17574822902679444,-0.9336082935333252,0.5518655776977539,0.65474534034729,-0.40181148052215578,-0.904949426651001,-0.33334290981292727,-0.8546411991119385,-0.6223275661468506,-0.5159990787506104,0.7292184829711914,0.6628732681274414,-0.17561638355255128,0.5007317066192627,0.40642353892326357,-0.5634050369262695,-0.6234052181243897,-0.3860734701156616,-0.1928490400314331,-0.09837329387664795,0.33421799540519717,0.9024980068206787]},{"fitness":0.4052359461784363,"currentPopulationID":0,"currentEntityID":12,"parentPopulationID":-1,"parentEntityID":-1,"layers":[9,15,5,1],"flattendedWeights":[-0.3598378896713257,0.4336235225200653,-0.06380259990692139,0.1236792802810669,-0.6765058040618897,-0.9165744781494141,-0.8661277294158936,-0.7645270824432373,-0.8433976173400879,0.23701059818267823,-0.1520146131515503,0.549217700958252,-0.8413598537445068,-0.7751860618591309,-0.2333914041519165,-0.032149434089660647,0.3706984221935272,-0.3426624536514282,-0.31575238704681399,-0.6318020820617676,-0.8115580081939697,-0.3100696802139282,0.636138916015625,-0.37065231800079348,0.2636379897594452,0.132546067237854,-0.8755805492401123,0.358566015958786,0.8445372581481934,-0.37687933444976809,-0.010691285133361817,-0.6230828762054443,0.5258896350860596,0.7002477645874023,-0.5071954727172852,0.6277215480804443,0.90358567237854,0.6582345962524414,-0.802929162979126,-0.9999496936798096,0.5900595188140869,0.2977850139141083,0.9619176387786865,0.43006083369255068,-0.7050604820251465,0.6338295936584473,0.9226603507995606,0.7269265651702881,0.9252068996429443,-0.523388147354126,0.9050147533416748,-0.7498528957366943,0.48944398760795596,0.5338954925537109,-0.4690157175064087,-0.4822489023208618,-0.502511739730835,-0.7440164089202881,-0.4723752737045288,0.4839799106121063,-0.22124922275543214,-0.03144848346710205,0.8269734382629395,-0.5673887729644775,0.2519192397594452,-0.3858853578567505,-0.7227249145507813,0.39571520686149599,0.02276599407196045,-0.291617751121521,0.7739064693450928,0.5410294532775879,-0.377994179725647,0.49342891573905947,-0.324992299079895,-0.11405932903289795,-0.7392141819000244,-0.18923556804656983,0.029840826988220216,0.20220696926116944,0.23347580432891847,-0.2087799310684204,-0.18740808963775636,-0.11677992343902588,-0.05375468730926514,0.5835025310516357,-0.6023080348968506,0.797992467880249,-0.2105787992477417,-0.2632666826248169,-0.16287147998809815,0.954761266708374,0.033074259757995608,-0.2557140588760376,-0.10122025012969971,0.004287600517272949,0.5853631496429443,0.17926561832427979,0.0348430871963501,-0.18763339519500733,0.06066930294036865,-0.9430921077728272,-0.9541850090026856,0.06692326068878174,-0.2897576093673706,0.850224494934082,0.5858438014984131,-0.36033689975738528,-0.6099951267242432,-0.4258493185043335,0.31901785731315615,-0.0344463586807251,0.791529655456543,-0.4949764013290405,0.053098320960998538,0.23913466930389405,-0.7405667304992676,0.4151477515697479,-0.15254008769989015,-0.5694830417633057,0.04140651226043701,-0.44059979915618899,-0.4393879175186157,0.5650103092193604,0.7701613903045654,0.5310671329498291,0.017830729484558107,0.6431937217712402,-0.9955389499664307,-0.5518653392791748,0.5685632228851318,-0.9866499900817871,-0.6731846332550049,0.3635077178478241,0.3980555236339569,-0.9346005916595459,-0.22233974933624268,-0.03990161418914795,0.7261688709259033,-0.19334781169891358,0.320740669965744,-0.38626182079315188,-0.8997664451599121,0.9452242851257324,-0.5232713222503662,0.22894823551177979,0.4900800883769989,-0.8468706607818604,0.07872259616851807,-0.10224807262420654,0.2304919958114624,-0.8662939071655273,-0.8146893978118897,0.8295078277587891,-0.38194477558135989,0.4807088077068329,-0.46171391010284426,0.5469546318054199,-0.0011006593704223633,-0.08482110500335694,-0.16575849056243897,0.529759407043457,0.5306460857391357,0.8439164161682129,-0.6584734916687012,-0.3917018175125122,0.14083969593048097,-0.6762826442718506,-0.8398463726043701,0.9734876155853272,0.16694295406341554,0.2950577437877655,-0.14659345149993897,-0.15348708629608155,0.27681443095207217,-0.142891526222229,0.619370698928833,-0.07908093929290772,-0.11383950710296631,-0.2746645212173462,-0.062457919120788577,-0.9303689002990723,0.766608715057373,-0.068259596824646,0.02520430088043213,0.55413818359375,0.04510915279388428,0.16321122646331788,0.004470229148864746,-0.2642165422439575,-0.7164738178253174,0.34244391322135928,-0.04989802837371826,-0.831629753112793,-0.5385770797729492,-0.7476818561553955,0.9202063083648682,0.7524917125701904,0.8075582981109619,-0.8059561252593994,0.5096468925476074,-0.8901262283325195,0.5077316761016846,0.6157045364379883,0.7659273147583008,0.44042178988456728,0.8308336734771729,0.8910307884216309,0.20077574253082276,-0.7618606090545654,-0.8113462924957275,0.5375850200653076,-0.7940993309020996,0.9778149127960205,0.8775296211242676]},{"fitness":0.399661660194397,"currentPopulationID":0,"currentEntityID":13,"parentPopulationID":-1,"parentEntityID":-1,"layers":[9,15,5,1],"flattendedWeights":[0.6375133991241455,0.36331412196159365,0.3849804103374481,-0.6529064178466797,-0.4871166944503784,0.5003907680511475,-0.5421195030212402,-0.7958450317382813,-0.932239294052124,0.7993714809417725,0.8559591770172119,-0.09649240970611572,-0.20888173580169679,-0.3894153833389282,0.636223554611206,-0.7836794853210449,-0.6995060443878174,-0.8828001022338867,0.8972718715667725,0.8115932941436768,-0.33041632175445559,-0.18072426319122315,0.6990835666656494,0.03311336040496826,-0.14698803424835206,-0.5908637046813965,0.8876943588256836,-0.7521510124206543,0.6896793842315674,0.5182027816772461,0.9483559131622315,0.8533046245574951,-0.688807487487793,-0.2158869504928589,-0.3890446424484253,0.5058445930480957,0.21489059925079347,0.9680664539337158,-0.2790428400039673,0.5690913200378418,0.9655807018280029,-0.9996485710144043,-0.8063507080078125,-0.20614421367645265,-0.16325199604034425,0.15181386470794679,0.2716321647167206,0.33933278918266299,0.6294479370117188,0.15804946422576905,-0.28962600231170657,-0.9346616268157959,0.6044678688049316,0.1385413408279419,0.03950512409210205,-0.3698214292526245,0.760697603225708,0.628577470779419,0.7078061103820801,0.2852000892162323,0.6917157173156738,-0.5289504528045654,-0.766179084777832,-0.8707530498504639,0.39614102244377139,-0.45898354053497317,0.20427191257476808,0.42656251788139346,0.999274730682373,0.5934102535247803,-0.28221189975738528,-0.9384500980377197,0.08109509944915772,-0.9591898918151856,-0.8013763427734375,0.2131427526473999,0.5487287044525147,-0.39880096912384035,0.6480634212493897,-0.035382866859436038,-0.7606217861175537,0.3049103915691376,0.36320802569389346,-0.17076194286346436,-0.052994370460510257,-0.12649714946746827,0.32822319865226748,-0.5269565582275391,0.3335234820842743,0.7184145450592041,0.3187200725078583,-0.28442108631134035,-0.5530312061309815,0.8098902702331543,0.7820000648498535,0.4588164985179901,0.3603028953075409,0.7259175777435303,0.6435761451721191,0.28430792689323428,0.7193300724029541,-0.7289083003997803,0.7166152000427246,0.7412254810333252,0.9808616638183594,0.2549762427806854,0.338175505399704,0.7246007919311523,0.13497555255889893,0.8830912113189697,0.18159639835357667,-0.7168035507202148,0.3184477984905243,0.7532682418823242,0.5424871444702148,-0.3516932725906372,0.8555057048797607,0.7638373374938965,-0.005350232124328613,0.7157654762268066,0.8697571754455566,-0.7324526309967041,0.8892130851745606,0.9982137680053711,0.7684271335601807,-0.9336259365081787,0.9773721694946289,0.9185588359832764,0.3381061255931854,-0.3024548292160034,-0.2620810270309448,0.05624425411224365,-0.5646204948425293,0.19172441959381104,0.6112983226776123,-0.9606912136077881,0.16701161861419679,0.8398087024688721,-0.08207499980926514,-0.8300940990447998,-0.364035964012146,0.7335901260375977,0.16044199466705323,0.1250368356704712,0.7751784324645996,0.7507221698760986,-0.36297428607940676,-0.17413723468780518,-0.22836315631866456,0.8435444831848145,0.7192161083221436,-0.4011598825454712,-0.704383134841919,0.408020943403244,-0.667935848236084,0.46265456080436709,0.2911791503429413,-0.10098493099212647,-0.6397066116333008,-0.37941062450408938,0.30733320116996767,-0.7045912742614746,-0.9078302383422852,0.7220079898834229,-0.9174821376800537,0.8008928298950195,0.4671175181865692,-0.3123832941055298,-0.5679328441619873,-0.9989502429962158,0.9851384162902832,0.7417130470275879,0.00017940998077392578,0.7740645408630371,-0.4680877923965454,0.8214273452758789,-0.4483546018600464,-0.18220221996307374,-0.4932044744491577,0.665045976638794,-0.3304327726364136,-0.14877116680145265,-0.18893039226531983,0.9598727226257324,-0.20562374591827393,-0.5067262649536133,0.3130914866924286,-0.23301923274993897,-0.5196516513824463,-0.753471851348877,0.8485150337219238,0.2957555949687958,0.008088231086730957,-0.9983820915222168,0.4654853045940399,-0.12089645862579346,0.649653434753418,0.9352555274963379,-0.9751603603363037,-0.4113353490829468,0.7032389640808106,-0.4194685220718384,0.37921378016471865,0.8639392852783203,-0.9942183494567871,-0.4831963777542114,0.2327519655227661,0.619999885559082,-0.15057456493377686,-0.5545938014984131,-0.8692512512207031,-0.29795753955841067,0.5783810615539551,-0.33830010890960696,0.4356362521648407]},{"fitness":0.3719506859779358,"currentPopulationID":0,"currentEntityID":14,"parentPopulationID":-1,"parentEntityID":-1,"layers":[9,15,5,1],"flattendedWeights":[-0.5649950504302979,-0.6472954750061035,-0.5791168212890625,-0.445841908454895,0.8515589237213135,-0.49485838413238528,-0.5263707637786865,0.8859200477600098,0.254928320646286,-0.6798548698425293,-0.581805944442749,0.2853715121746063,0.10493600368499756,-0.5431201457977295,-0.41429245471954348,-0.12722837924957276,0.7759721279144287,0.052455782890319827,-0.09924328327178955,-0.462680459022522,0.5195498466491699,0.3107859790325165,-0.8951442241668701,0.3341467082500458,-0.07511508464813233,0.08344876766204834,-0.12617909908294679,0.3765997588634491,-0.09990489482879639,0.3185689151287079,0.3928532302379608,0.4929949939250946,0.6975760459899902,-0.7743639945983887,0.6824631690979004,0.9898121356964111,0.3063518702983856,-0.861008882522583,0.7116703987121582,-0.08188474178314209,0.46850821375846865,-0.5790207386016846,-0.008464217185974121,0.5658166408538818,0.9478228092193604,-0.635596752166748,0.9638559818267822,0.9520246982574463,0.9986252784729004,0.6436467170715332,0.2579319179058075,-0.4264572858810425,0.3939532935619354,0.27954956889152529,-0.6781399250030518,0.17666780948638917,0.48671767115592959,0.9638030529022217,0.0038987398147583009,-0.02365696430206299,0.1428471803665161,-0.530667781829834,0.7985730171203613,0.24280822277069093,0.5869660377502441,-0.6948277950286865,-0.4969581365585327,-0.41463935375213625,0.2073894739151001,0.9755628108978272,0.19205129146575929,0.7551779747009277,0.8134059906005859,-0.6404192447662354,0.5511307716369629,-0.679764986038208,0.7949104309082031,0.541069746017456,0.9918208122253418,0.3387853801250458,0.055480360984802249,-0.46363818645477297,-0.3207818269729614,-0.26295197010040285,-0.9305419921875,-0.03776824474334717,-0.47824203968048098,-0.4384497404098511,-0.7334744930267334,0.6506209373474121,-0.6632976531982422,-0.308418869972229,0.5506880283355713,-0.6585471630096436,0.9218361377716065,-0.8532326221466065,-0.9526054859161377,0.6403875350952148,-0.445853590965271,-0.7307744026184082,-0.9704761505126953,-0.2834662199020386,-0.9341871738433838,0.9636662006378174,-0.7655012607574463,0.31574127078056338,-0.16279256343841554,-0.8503973484039307,0.1436682939529419,-0.6149795055389404,0.9498720169067383,0.48387715220451357,0.7647073268890381,-0.976006031036377,-0.18115413188934327,0.6698575019836426,-0.0873953104019165,-0.6348967552185059,0.1792374849319458,0.15825116634368897,-0.767941951751709,0.07286345958709717,0.24017250537872315,-0.7346794605255127,0.06620562076568604,-0.4254218339920044,-0.3068498373031616,-0.07822787761688233,0.6524417400360107,0.9625928401947022,0.4775411784648895,-0.645261287689209,-0.6209287643432617,0.6808829307556152,-0.7416517734527588,0.03680717945098877,-0.13708746433258058,0.7641589641571045,0.6731693744659424,0.2290710210800171,0.418610543012619,0.8616454601287842,0.09140264987945557,-0.48072493076324465,-0.9610025882720947,0.9390716552734375,-0.20987212657928468,0.2449864149093628,-0.7530336380004883,0.38432809710502627,-0.17806684970855714,-0.32235658168792727,0.47815391421318056,-0.6761126518249512,-0.6618633270263672,0.6819462776184082,0.5345430374145508,-0.4875906705856323,0.96966552734375,-0.8763782978057861,-0.07768189907073975,-0.41857683658599856,0.33238694071769717,-0.6682195663452148,-0.7695417404174805,-0.6754405498504639,-0.5876851081848145,-0.33222830295562746,0.6056015491485596,-0.02334606647491455,0.46924278140068056,-0.7769205570220947,-0.08555042743682862,0.7318730354309082,0.833061695098877,0.3715157210826874,-0.4783827066421509,0.16251003742218018,0.4428043067455292,0.37102434039115908,0.11913073062896729,0.9380264282226563,-0.8899807929992676,-0.9540646076202393,-0.016146302223205568,-0.5821089744567871,-0.5455641746520996,0.06466615200042725,0.9361593723297119,-0.7343854904174805,0.17339670658111573,0.7347047328948975,0.9298436641693115,0.8458704948425293,-0.3234933614730835,0.5808916091918945,-0.574793815612793,0.6100749969482422,-0.1530977487564087,0.5797431468963623,0.8698606491088867,-0.871340274810791,0.1970745325088501,0.3621313273906708,0.9438586235046387,-0.6448268890380859,0.18684756755828858,0.8310635089874268,-0.7415084838867188,0.6905992031097412,-0.4479144811630249,-0.7539117336273193,0.6870625019073486,0.664076566696167,0.2140873670578003]},{"fitness":0.3862733840942383,"currentPopulationID":0,"currentEntityID":15,"parentPopulationID":-1,"parentEntityID":-1,"layers":[9,15,5,1],"flattendedWeights":[-0.3087092638015747,-0.5027339458465576,-0.587693452835083,-0.21292126178741456,-0.8361809253692627,0.6496801376342773,0.19857442378997804,-0.5659887790679932,0.16833603382110597,0.004443526268005371,0.6418111324310303,-0.2533613443374634,-0.7840964794158936,0.10802614688873291,0.9608776569366455,-0.9818418025970459,0.40793678164482119,-0.5656545162200928,0.0474163293838501,-0.41595423221588137,-0.7970173358917236,-0.5416622161865234,0.6738650798797607,-0.28989970684051516,0.08871948719024658,-0.5065865516662598,0.4470236003398895,-0.648216724395752,-0.9182581901550293,-0.04324924945831299,-0.21384727954864503,-0.27806103229522707,0.004822850227355957,0.25995633006095889,0.4821877181529999,-0.5927910804748535,-0.31532061100006106,-0.5647737979888916,-0.7203240394592285,-0.2695516347885132,0.3130781352519989,-0.04073894023895264,0.4770185649394989,0.6976819038391113,-0.6180624961853027,-0.8944926261901856,-0.10944497585296631,0.14923608303070069,-0.09107577800750733,-0.28282487392425539,0.46257516741752627,0.5393812656402588,0.55971360206604,-0.2462979555130005,0.14062702655792237,-0.6466419696807861,-0.5478734970092773,0.5342378616333008,-0.06724917888641358,-0.023250937461853029,-0.7541530132293701,0.6236670017242432,-0.5469357967376709,-0.08313167095184326,-0.1957324743270874,-0.6878859996795654,0.6389615535736084,-0.737231969833374,0.269226998090744,-0.38307130336761477,-0.9115879535675049,-0.5078191757202148,-0.4949568510055542,0.8399455547332764,0.5217878818511963,-0.9723033905029297,0.9255785942077637,0.20037424564361573,-0.16905295848846436,-0.4982260465621948,-0.5579924583435059,-0.669257640838623,0.8076300621032715,-0.8377835750579834,-0.3568829298019409,-0.9484562873840332,-0.7632322311401367,-0.8317732810974121,-0.7540359497070313,-0.024233698844909669,0.07486903667449951,-0.782839298248291,0.2209848165512085,-0.5737369060516357,0.7375156879425049,-0.9394729137420654,-0.5793850421905518,-0.5822741985321045,-0.8073945045471191,-0.10749948024749756,-0.8612895011901856,-0.4122682809829712,-0.14904701709747315,-0.5938973426818848,-0.8512420654296875,0.60892653465271,0.4386446177959442,-0.8330366611480713,-0.6791601181030273,0.26498791575431826,-0.6459999084472656,0.9109969139099121,0.9636654853820801,-0.6895077228546143,-0.6434800624847412,0.2991897761821747,0.7972500324249268,0.022606253623962404,-0.9468235969543457,0.4496004283428192,-0.9346318244934082,-0.9047198295593262,-0.48234260082244875,-0.8105752468109131,0.5183486938476563,0.7650718688964844,-0.4915210008621216,-0.9733681678771973,-0.4615262746810913,-0.7162647247314453,0.6643612384796143,-0.5286111831665039,0.5175602436065674,-0.3017922639846802,-0.22980177402496339,0.31743142008781435,0.9434390068054199,0.6390376091003418,0.7849905490875244,0.3576934039592743,-0.44494354724884035,-0.9950160980224609,0.34602996706962588,-0.03538095951080322,-0.6097249984741211,0.3972115218639374,-0.6734137535095215,-0.12310159206390381,-0.5378866195678711,-0.17726647853851319,0.5726985931396484,0.041155219078063968,0.5078701972961426,-0.33616459369659426,0.111686110496521,0.7590222358703613,0.0779041051864624,0.186179518699646,-0.02559959888458252,-0.6459901332855225,-0.8836610317230225,-0.6265828609466553,0.8431482315063477,-0.5892860889434815,-0.7981710433959961,-0.37904036045074465,0.10992133617401123,0.8135983943939209,0.907625675201416,-0.22512972354888917,-0.709306001663208,-0.21719706058502198,-0.9446394443511963,-0.3708862066268921,0.8330073356628418,0.1443568468093872,-0.4253467321395874,0.477739542722702,0.7453267574310303,0.28248926997184756,-0.8413827419281006,-0.7245817184448242,-0.8741998672485352,0.5872983932495117,0.02735316753387451,0.1380378007888794,-0.6984360218048096,-0.7769463062286377,-0.016309142112731935,0.9014825820922852,0.13281548023223878,-0.6808626651763916,-0.5114469528198242,0.5487048625946045,0.697425365447998,0.42631837725639346,0.6801722049713135,-0.9403731822967529,-0.41451704502105715,-0.5109801292419434,0.5943856239318848,0.6507625579833984,0.6371309757232666,-0.9819269180297852,0.08207333087921143,-0.5767769813537598,-0.3574627637863159,0.4625403583049774,0.9072492122650147,0.04854738712310791,0.9748084545135498,-0.7744441032409668,0.28819534182548525,-0.17572534084320069,-0.3147939443588257]},{"fitness":0.4007587730884552,"currentPopulationID":0,"currentEntityID":16,"parentPopulationID":-1,"parentEntityID":-1,"layers":[9,15,5,1],"flattendedWeights":[0.4583296477794647,0.02703535556793213,0.8986682891845703,-0.8528978824615479,0.10022008419036865,0.2468200922012329,0.9615070819854736,0.9730648994445801,0.7918651103973389,-0.3382190465927124,-0.7137753963470459,-0.7148144245147705,-0.09878313541412354,0.9825778007507324,-0.6527488231658936,-0.08285629749298096,-0.06985676288604737,-0.8988914489746094,-0.04003632068634033,-0.33233773708343508,0.14913952350616456,0.2521760165691376,-0.8476734161376953,-0.7394070625305176,-0.5755195617675781,0.4833340346813202,-0.8360075950622559,0.9111595153808594,0.908820629119873,-0.072135329246521,-0.3255065679550171,-0.18770897388458253,-0.170937180519104,0.27793046832084658,-0.7944190502166748,0.45365068316459658,-0.779080867767334,0.6176209449768066,-0.6158831119537354,-0.17987453937530518,-0.6560385227203369,0.008500218391418457,-0.24529039859771729,0.8063859939575195,0.20691072940826417,0.3912677466869354,0.1690729856491089,-0.4384056329727173,-0.5571703910827637,-0.04798424243927002,-0.5099377632141113,0.02838766574859619,0.6895525455474854,-0.5455141067504883,-0.2992297410964966,-0.46693742275238039,0.5054323673248291,0.1015857458114624,0.5307590961456299,0.4880792796611786,-0.1350923776626587,-0.795403242111206,0.36041852831840517,0.7191872596740723,-0.8110570907592773,0.6900711059570313,0.16706383228302003,-0.26345717906951907,-0.058985352516174319,-0.7754192352294922,-0.7770721912384033,0.5061995983123779,0.8690409660339356,0.9905939102172852,0.6814663410186768,-0.21618425846099854,0.9192972183227539,0.42072054743766787,-0.14393603801727296,0.5438945293426514,-0.8306620121002197,0.8392930030822754,0.23495709896087647,-0.9915156364440918,-0.7265386581420898,0.21321642398834229,0.1170579195022583,-0.02019345760345459,-0.2885392904281616,-0.18130409717559815,-0.0448838472366333,0.5736420154571533,0.4264216125011444,-0.4350472688674927,-0.729356050491333,0.2469874620437622,0.5067992210388184,-0.018195748329162599,-0.4555777311325073,0.9780640602111816,0.3947419822216034,-0.09185707569122315,-0.3626354932785034,-0.6211168766021729,0.29251953959465029,0.7647807598114014,0.8275942802429199,0.5825531482696533,0.42954370379447939,0.526928186416626,-0.30538713932037356,0.8506622314453125,0.5474662780761719,0.5868945121765137,-0.27088844776153567,-0.09632313251495362,0.8689980506896973,-0.6566596031188965,-0.6681640148162842,-0.22176682949066163,-0.8340189456939697,-0.5408225059509277,0.013124346733093262,-0.002280116081237793,-0.7531061172485352,-0.04082787036895752,-0.24248230457305909,0.7174122333526611,0.9399223327636719,-0.8056566715240479,-0.285525918006897,-0.9411399364471436,-0.3553365468978882,-0.604290246963501,-0.9841930866241455,-0.09261000156402588,-0.38043463230133059,-0.037825942039489749,-0.8397476673126221,0.10214674472808838,0.9545190334320068,-0.9759616851806641,0.9344573020935059,-0.8704514503479004,0.20605099201202393,-0.8183138370513916,-0.4020627737045288,-0.11728155612945557,0.7094371318817139,-0.10686314105987549,-0.3556610345840454,0.04887974262237549,0.9260318279266357,-0.5362882614135742,0.35332438349723818,0.6037542819976807,0.5923342704772949,0.6657752990722656,0.9741356372833252,0.3724479377269745,0.6090965270996094,0.9380989074707031,0.27344223856925967,-0.0963975191116333,-0.7192604541778565,0.7682783603668213,-0.8052191734313965,0.7699203491210938,0.6421916484832764,-0.44811928272247317,-0.190102219581604,0.49476954340934756,-0.45601212978363039,0.916372537612915,-0.3358801603317261,-0.4565969705581665,-0.21532142162322999,0.891094446182251,-0.9507122039794922,-0.8590362071990967,0.41771313548088076,0.8814594745635986,-0.38007652759552,-0.44593799114227297,-0.07574093341827393,0.5291945934295654,0.2842061221599579,-0.3302406072616577,-0.9593381881713867,-0.9711000919342041,-0.29174649715423586,-0.4612542390823364,0.36095115542411806,-0.22678720951080323,-0.857520580291748,0.9759087562561035,0.6548182964324951,-0.32400763034820559,-0.14493286609649659,-0.0340198278427124,0.9657471179962158,-0.4295896291732788,-0.11590874195098877,0.8141250610351563,0.8705189228057861,0.825631856918335,0.027942776679992677,0.1642996072769165,-0.1272357702255249,0.8268735408782959,0.8705365657806397,0.4996354281902313,-0.5755922794342041,-0.8341526985168457,0.5476839542388916]},{"fitness":0.3861199617385864,"currentPopulationID":0,"currentEntityID":17,"parentPopulationID":-1,"parentEntityID":-1,"layers":[9,15,5,1],"flattendedWeights":[0.9273967742919922,-0.18971216678619386,0.9271554946899414,-0.03389585018157959,-0.7645485401153565,-0.427526593208313,0.03361356258392334,-0.8615827560424805,0.32587262988090517,-0.2666412591934204,-0.9766778945922852,-0.8319883346557617,0.5917401313781738,0.09721100330352783,0.568178653717041,-0.12191236019134522,0.7091600894927979,0.23309099674224854,-0.46162307262420657,0.4805879294872284,-0.6508605480194092,-0.9826345443725586,-0.7522804737091065,0.5198936462402344,0.948336124420166,0.5772156715393066,-0.0000029802322387695314,-0.07650339603424072,-0.38989222049713137,-0.6116175651550293,0.2961890399456024,0.41507264971733096,0.8568205833435059,0.785611629486084,-0.5737738609313965,0.9440009593963623,-0.8149526119232178,-0.7360923290252686,-0.15055334568023683,-0.6089143753051758,-0.40003812313079836,-0.3451186418533325,0.10604894161224365,-0.2887789011001587,-0.5801267623901367,-0.041373610496520999,-0.006297469139099121,-0.32589828968048098,0.2687384784221649,0.4070682227611542,0.42042967677116396,-0.7095274925231934,0.2880246341228485,0.3188633620738983,-0.9216048717498779,0.5930194854736328,-0.9329156875610352,0.27647659182548525,0.8505456447601318,0.9991581439971924,-0.39790451526641848,-0.7473747730255127,0.17139804363250733,0.7948131561279297,-0.8517215251922607,-0.9205353260040283,0.16439712047576905,-0.5788869857788086,0.7234728336334229,0.8340504169464111,-0.5419895648956299,0.03962910175323486,-0.2847684621810913,0.2949785888195038,-0.9072372913360596,0.5115447044372559,-0.9573550224304199,0.27970144152641299,0.4763016402721405,0.5776457786560059,0.7117249965667725,0.18140661716461183,-0.9585614204406738,-0.8398065567016602,-0.11029422283172608,0.3842255771160126,-0.4308847188949585,-0.8543059825897217,-0.12342941761016846,-0.5178351402282715,-0.24238193035125733,-0.9643652439117432,0.2650706470012665,0.10522615909576416,0.4070601165294647,-0.5187795162200928,-0.19432222843170167,-0.06745851039886475,-0.8411860466003418,-0.35916101932525637,0.5685737133026123,-0.10123312473297119,0.9747843742370606,-0.7446024417877197,-0.3781214952468872,-0.9156723022460938,0.9857943058013916,-0.6724302768707275,-0.5288817882537842,0.38913652300834658,-0.21554386615753175,0.39532849192619326,-0.4263800382614136,0.2150059938430786,-0.26083052158355715,0.9025015830993652,-0.2272120714187622,0.7919924259185791,0.2940489947795868,-0.6276168823242188,-0.055319905281066897,0.9330720901489258,0.64449143409729,-0.5813124179840088,-0.325081467628479,0.0056313276290893559,-0.4819728136062622,0.07870781421661377,0.7407512664794922,-0.21860253810882569,-0.25163280963897707,-0.4839533567428589,0.35116884112358096,-0.11608278751373291,-0.6235096454620361,0.37971922755241396,0.8252890110015869,0.2916419208049774,-0.41154754161834719,0.7384920120239258,-0.0443953275680542,-0.34242045879364016,0.09213435649871826,-0.5410690307617188,0.7587425708770752,0.24783527851104737,0.522315263748169,-0.32255351543426516,0.8626389503479004,0.1250392198562622,0.5557241439819336,0.17957770824432374,0.878908634185791,-0.13673269748687745,-0.32803547382354739,0.872112512588501,-0.5057735443115234,-0.009003043174743653,0.7419016361236572,0.7076022624969482,0.4161514937877655,0.16261470317840577,0.04919111728668213,-0.09962499141693115,-0.20008528232574464,-0.23542511463165284,-0.48230040073394778,-0.7419474124908447,0.20117533206939698,0.9782214164733887,0.3658299148082733,-0.38910090923309328,-0.6514461040496826,-0.3193897008895874,0.514746904373169,-0.2769871950149536,-0.6820549964904785,0.6635596752166748,-0.4591432809829712,0.4670364558696747,0.8493309020996094,-0.8606979846954346,-0.866133451461792,-0.8780031204223633,0.2006739377975464,-0.2516840696334839,0.4816415011882782,0.6805746555328369,0.5562427043914795,-0.16865599155426026,0.2821488082408905,-0.9410624504089356,0.48676082491874697,0.3275441825389862,0.7749924659729004,-0.5392935276031494,-0.3196519613265991,0.38866183161735537,0.49475905299186709,-0.06861913204193115,-0.11779630184173584,0.7208263874053955,-0.6471412181854248,-0.006981492042541504,-0.6035583019256592,-0.8167688846588135,0.6863160133361816,0.5052061080932617,0.05597555637359619,-0.45306575298309328,0.15820467472076417,0.5615766048431397,-0.16763818264007569,-0.6925613880157471,0.8190348148345947]},{"fitness":0.4169454574584961,"currentPopulationID":0,"currentEntityID":18,"parentPopulationID":-1,"parentEntityID":-1,"layers":[9,15,5,1],"flattendedWeights":[-0.7251341342926025,-0.8824660778045654,0.020705342292785646,0.05638706684112549,0.6252975463867188,0.9263548851013184,-0.7236857414245606,-0.8992795944213867,-0.5100822448730469,0.4226038157939911,-0.46369898319244387,-0.7492895126342773,0.5312871932983398,-0.8192951679229736,-0.8527321815490723,0.08779513835906983,-0.8571655750274658,-0.8064560890197754,0.14551794528961183,-0.194954514503479,-0.6163513660430908,-0.2691415548324585,0.11856710910797119,0.5299544334411621,0.8214094638824463,-0.5968120098114014,0.7715792655944824,0.32997986674308779,0.8474330902099609,0.05062448978424072,-0.46470892429351809,-0.36852943897247317,0.2728888690471649,0.9688942432403565,0.45868203043937685,0.13696062564849854,0.6525111198425293,-0.22886812686920167,-0.831268310546875,-0.45413506031036379,0.5176639556884766,0.23124492168426515,-0.7826869487762451,0.12239634990692139,-0.5122437477111816,-0.14845621585845948,0.22599923610687257,0.3744778335094452,0.7946200370788574,0.765160322189331,-0.1361769437789917,0.44300076365470889,0.3946985900402069,-0.5382206439971924,-0.6211302280426025,-0.022129416465759279,0.49917837977409365,0.25395485758781435,-0.636751651763916,-0.09663951396942139,0.7378950119018555,-0.40643632411956789,0.15667927265167237,-0.09940755367279053,0.9756481647491455,-0.6902651786804199,-0.2119654417037964,-0.7413930892944336,-0.06000792980194092,-0.46252715587615969,-0.2571333646774292,-0.8859493732452393,-0.7163810729980469,-0.5862417221069336,0.00023925304412841797,-0.602280855178833,0.061632513999938968,-0.11811602115631104,-0.4700256586074829,-0.2661024332046509,0.9695472717285156,-0.11663663387298584,-0.19050300121307374,0.5187265872955322,0.2620663344860077,0.1814507246017456,0.21057498455047608,0.308258980512619,0.7423522472381592,-0.19176113605499268,-0.34107506275177,-0.15524280071258546,0.8733601570129395,-0.009783387184143067,-0.3588930368423462,-0.9420111179351807,0.7737877368927002,0.7522640228271484,0.829179048538208,-0.6150121688842773,-0.38194048404693606,0.2931825816631317,-0.08593547344207764,-0.5697481632232666,0.7500698566436768,-0.8906140327453613,0.27255675196647646,0.05982649326324463,-0.6160373687744141,-0.039176344871520999,-0.557340145111084,0.3742468059062958,-0.872356653213501,-0.600142240524292,-0.8477632999420166,-0.5024523735046387,-0.018697142601013185,-0.027080416679382325,0.1950286626815796,-0.8653597831726074,0.08296668529510498,0.5014975070953369,0.32355353236198428,0.30882546305656435,0.941124677658081,0.42611953616142275,-0.440024733543396,-0.23424112796783448,-0.40482866764068606,0.39714953303337099,-0.8874099254608154,-0.4056888818740845,-0.1984165906906128,0.109840989112854,-0.40721213817596438,-0.9667971134185791,-0.20014536380767823,0.9106688499450684,-0.08598673343658447,0.31999441981315615,-0.7435157299041748,-0.48922407627105715,-0.7573986053466797,-0.9584224224090576,-0.5329291820526123,0.6345856189727783,-0.6642436981201172,0.9473099708557129,0.07135021686553955,-0.11035192012786865,-0.7165920734405518,0.2522582709789276,0.5063753128051758,0.07409894466400147,-0.26859891414642336,-0.7346937656402588,-0.9268338680267334,0.04671323299407959,0.33360669016838076,0.6305255889892578,0.8207309246063232,0.7831001281738281,-0.09835231304168701,0.108420729637146,0.24063456058502198,-0.5305459499359131,0.4992336928844452,0.9788610935211182,0.6229307651519775,-0.5416467189788818,-0.2114354372024536,0.5909147262573242,0.4975602328777313,-0.267544150352478,0.7684681415557861,0.7867393493652344,0.9162733554840088,-0.7652020454406738,0.8759009838104248,0.09469330310821533,0.22150981426239015,0.3733372390270233,-0.21244418621063233,-0.6330771446228027,-0.08177244663238526,-0.2770117521286011,-0.9271190166473389,0.450135201215744,-0.20319783687591554,-0.9429869651794434,-0.6485037803649902,-0.46704208850860598,0.7854864597320557,0.6722636222839356,0.24771583080291749,0.06927621364593506,0.9642353057861328,-0.43696296215057375,0.4507100284099579,-0.3638800382614136,-0.945695161819458,0.1711331605911255,0.4268610179424286,-0.37531793117523196,-0.17889320850372315,0.41269537806510928,-0.15754210948944093,0.9562201499938965,0.47650429606437685,0.9182090759277344,0.7329049110412598,-0.7720499038696289,0.08727800846099854,0.4182390868663788,-0.37922871112823489]},{"fitness":0.3971993327140808,"currentPopulationID":0,"currentEntityID":19,"parentPopulationID":-1,"parentEntityID":-1,"layers":[9,15,5,1],"flattendedWeights":[-0.07211720943450928,0.05739152431488037,-0.36070549488067629,-0.7571172714233398,-0.2005389928817749,0.2865006625652313,-0.44845330715179446,-0.7243943214416504,0.6174335479736328,0.39151307940483096,0.035184502601623538,0.5430023670196533,-0.2782944440841675,-0.493550181388855,0.07559049129486084,-0.2718099355697632,0.5544979572296143,-0.006886839866638184,0.9047274589538574,0.7070975303649902,-0.8513662815093994,0.891373872756958,-0.8074612617492676,-0.6352109909057617,-0.008137345314025879,-0.2771097421646118,-0.45469772815704348,0.03526031970977783,0.5499584674835205,-0.5637624263763428,-0.22182071208953858,0.7577641010284424,0.14988219738006593,0.1348475217819214,-0.05979049205780029,-0.524212121963501,0.004188418388366699,0.5169827938079834,0.26958414912223818,-0.9487333297729492,0.6658594608306885,0.4800231158733368,-0.9955837726593018,0.8065185546875,0.9779577255249023,-0.30154192447662356,0.40616628527641299,-0.45225751399993899,0.6502306461334229,-0.9402103424072266,0.6337323188781738,0.19370734691619874,0.7257463932037354,0.3966526687145233,0.9450788497924805,0.9061999320983887,0.3509006202220917,0.4664158523082733,-0.6034502983093262,-0.8605737686157227,0.2230759859085083,0.9625928401947022,-0.23632299900054933,-0.5777502059936523,-0.2625831365585327,0.9061474800109863,-0.787501335144043,0.9532778263092041,0.6678848266601563,-0.7064738273620606,0.11947119235992432,0.5757160186767578,-0.06937277317047119,-0.732750415802002,-0.19468963146209718,-0.8079447746276856,0.6366212368011475,-0.31112468242645266,-0.6586217880249023,0.8568177223205566,0.3169233500957489,0.26721855998039248,-0.9188969135284424,0.6547155380249023,0.905418872833252,0.13537991046905518,0.29468104243278506,0.38594958186149599,0.5112159252166748,-0.7492973804473877,-0.9991228580474854,0.6221673488616943,-0.7620029449462891,-0.6190342903137207,-0.6965935230255127,-0.5634305477142334,0.4415986239910126,-0.08935034275054932,-0.43841421604156496,0.1806105375289917,0.3162090480327606,-0.13031470775604249,-0.5805814266204834,-0.5996978282928467,-0.0520397424697876,0.47720858454704287,-0.9075911045074463,-0.04070770740509033,-0.23150408267974854,0.29810330271720889,0.15804851055145265,-0.9656717777252197,-0.5146164894104004,0.024986624717712404,0.14929497241973878,0.7082347869873047,0.9760847091674805,-0.40802299976348879,-0.4258989095687866,0.9878726005554199,0.9179189205169678,0.9986343383789063,-0.2795764207839966,0.6557021141052246,-0.7784504890441895,0.06286394596099854,0.03456532955169678,-0.28689849376678469,-0.35923635959625246,-0.7677831649780273,0.7507014274597168,-0.8335602283477783,-0.05230844020843506,-0.37198197841644289,-0.9302449226379395,-0.38410842418670657,-0.7571194171905518,0.3135945498943329,0.9318113327026367,-0.732567548751831,-0.07640445232391358,-0.07525646686553955,0.7067220211029053,0.5814735889434815,0.5856084823608398,-0.34563982486724856,-0.6162035465240479,0.8362927436828613,-0.4676586389541626,-0.9842181205749512,-0.5629000663757324,-0.6764845848083496,-0.1317235231399536,-0.14805448055267335,-0.37907111644744875,0.9992947578430176,-0.017374157905578615,0.4810428321361542,-0.0030721426010131838,0.5466556549072266,-0.13168323040008546,-0.14100468158721925,0.31516310572624209,-0.790691614151001,-0.29955780506134035,0.1472853422164917,0.9270143508911133,0.8434243202209473,0.4919299781322479,0.6383328437805176,-0.7678556442260742,0.2310241460800171,0.4614228904247284,0.4990799129009247,-0.0034180879592895509,0.7001514434814453,0.2992977797985077,0.9512598514556885,-0.0029925107955932619,-0.3794306516647339,0.5927443504333496,-0.12658703327178956,-0.9895114898681641,-0.2759169340133667,-0.06883227825164795,-0.5929408073425293,-0.12212240695953369,-0.6725306510925293,0.852294921875,-0.3684898614883423,-0.33268511295318606,-0.8603944778442383,-0.1616271734237671,-0.9076662063598633,-0.5382997989654541,0.8981764316558838,-0.5635983943939209,0.9873394966125488,0.9557883739471436,-0.6849305629730225,0.22173964977264405,-0.9070444107055664,0.8983352184295654,0.5754437446594238,-0.6580483913421631,0.27947303652763369,-0.18670189380645753,-0.3347855806350708,0.0032459497451782228,-0.5702817440032959,-0.5735428333282471,0.3293578326702118,0.7529041767120361,0.550217866897583,0.8463020324707031]},{"fitness":0.41916024684906008,"currentPopulationID":0,"currentEntityID":20,"parentPopulationID":-1,"parentEntityID":-1,"layers":[9,15,5,1],"flattendedWeights":[0.31813833117485049,0.67582106590271,-0.5999226570129395,0.8826916217803955,0.2980501353740692,0.6577444076538086,0.05680978298187256,0.9359896183013916,0.08061492443084717,-0.932964563369751,-0.717581033706665,0.5349020957946777,0.27832552790641787,0.32385775446891787,0.9617969989776611,0.29987213015556338,-0.014985442161560059,0.9771647453308106,0.463375061750412,0.24254047870635987,-0.15316236019134522,0.4131116569042206,0.30209919810295107,-0.9772818088531494,0.1293879747390747,0.07373273372650147,0.19912636280059815,-0.09713900089263916,-0.09712350368499756,0.8859224319458008,-0.1588226556777954,0.0571216344833374,0.0680304765701294,-0.5228323936462402,-0.35746896266937258,0.09924089908599854,-0.9782602787017822,0.5694036483764648,-0.7438113689422607,0.320949524641037,0.37017104029655459,-0.9223904609680176,-0.9362447261810303,0.28828713297843935,0.6486473083496094,-0.5130929946899414,0.2037137746810913,-0.6645328998565674,0.053789734840393069,0.13140499591827393,0.8177859783172607,0.191015362739563,0.9807429313659668,-0.7943389415740967,0.6940288543701172,0.5157997608184815,0.4591958224773407,-0.5234742164611816,-0.8030531406402588,-0.1792985200881958,-0.006611943244934082,-0.7948946952819824,-0.026668190956115724,0.48028966784477236,-0.7603425979614258,-0.23505961894989015,-0.667252779006958,-0.9793503284454346,0.5747945308685303,0.5150322914123535,0.3146044909954071,-0.10281789302825928,-0.5877130031585693,0.8682162761688232,0.3308362662792206,0.10550391674041748,-0.26678478717803957,0.6686077117919922,-0.5999865531921387,0.758430004119873,-0.15163815021514893,-0.6779148578643799,-0.8849399089813232,-0.9916236400604248,0.8253190517425537,-0.5706441402435303,-0.04865133762359619,-0.4101158380508423,-0.2916072607040405,0.5062713623046875,-0.06186783313751221,0.7910945415496826,-0.3189173936843872,0.30150434374809267,-0.9303712844848633,0.47618505358695986,0.7291703224182129,-0.4115217924118042,0.016779780387878419,0.592689037322998,0.025672316551208497,-0.36097824573516848,-0.5482730865478516,0.9435291290283203,0.3335835635662079,0.3658461272716522,0.09547269344329834,-0.5508358478546143,-0.1397761106491089,-0.6985058784484863,0.4022919833660126,-0.16073071956634522,-0.7865633964538574,-0.4554058313369751,0.4061841666698456,0.6793155670166016,-0.21790897846221925,0.1911710500717163,0.6514794826507568,0.5205485820770264,0.15087974071502686,0.6347000598907471,-0.423434853553772,-0.9915828704833984,0.9172012805938721,-0.6904816627502441,-0.09144675731658936,-0.372566819190979,-0.14779651165008546,-0.5293407440185547,-0.08072149753570557,0.2823657691478729,0.0690690279006958,0.293932169675827,-0.43536436557769778,-0.06510841846466065,-0.09169185161590576,0.1411055326461792,0.8349740505218506,0.18185842037200929,0.07025301456451416,0.21062695980072022,-0.3225055932998657,-0.13763582706451417,-0.8938863277435303,-0.38312971591949465,0.8278188705444336,0.8231210708618164,-0.6774766445159912,0.5290079116821289,0.04337728023529053,0.8198385238647461,0.01922786235809326,0.3326399028301239,-0.656278133392334,-0.7351408004760742,-0.6890819072723389,-0.5091969966888428,0.2842714488506317,0.5920321941375732,0.8752086162567139,0.5184295177459717,-0.04285228252410889,0.0944141149520874,0.8150119781494141,-0.2722393274307251,-0.3484433889389038,0.36261269450187685,0.07819759845733643,0.38604113459587099,0.18742001056671143,-0.7899951934814453,0.10487735271453858,0.9667115211486816,-0.01480114459991455,0.09630000591278076,-0.592660665512085,-0.42811524868011477,-0.28556931018829348,0.0035551786422729494,0.8897249698638916,0.9532403945922852,0.5318989753723145,-0.971182107925415,0.6838803291320801,0.017784476280212404,-0.28796446323394778,0.4168340861797333,0.6829361915588379,0.019602179527282716,-0.29675614833831789,0.45018908381462099,-0.3441053628921509,0.768035888671875,0.735013484954834,-0.01809370517730713,-0.34115540981292727,0.41632482409477236,-0.7232258319854736,-0.6245088577270508,-0.3926810026168823,-0.3347419500350952,0.48906752467155459,-0.7439210414886475,0.5842559337615967,0.7260773181915283,-0.6790306568145752,-0.18384826183319093,0.3688325583934784,-0.10669076442718506,-0.26728928089141848,-0.11619031429290772,0.9458332061767578,0.6801259517669678,0.9177331924438477]},{"fitness":0.38785454630851748,"currentPopulationID":0,"currentEntityID":21,"parentPopulationID":-1,"parentEntityID":-1,"layers":[9,15,5,1],"flattendedWeights":[-0.6683623790740967,-0.551464319229126,-0.15610826015472413,0.10458481311798096,0.4634074866771698,0.38715192675590517,0.7343342304229736,0.38529106974601748,-0.4898871183395386,-0.20524680614471436,0.8676698207855225,0.8262264728546143,0.003934979438781738,0.04939424991607666,-0.36314570903778078,0.9434430599212647,-0.9342007637023926,0.8304193019866943,0.1261228322982788,-0.10974776744842529,0.7982933521270752,-0.40867459774017336,-0.558866024017334,-0.866492509841919,-0.9811978340148926,-0.5516722202301025,-0.8193926811218262,0.14456284046173097,0.8706400394439697,0.6431140899658203,0.9586946964263916,0.26500627398490908,0.6865906715393066,-0.2226170301437378,-0.37912023067474368,0.5830891132354736,0.6646766662597656,-0.652179479598999,-0.611361026763916,-0.6515257358551025,0.48566433787345889,-0.9803104400634766,-0.9797463417053223,-0.8391754627227783,-0.206548810005188,0.12298119068145752,-0.5639119148254395,0.6780729293823242,0.0009940862655639649,-0.521662712097168,0.23962938785552979,-0.28686559200286868,-0.1385427713394165,-0.938856840133667,-0.05514085292816162,0.9458961486816406,-0.4065741300582886,0.7875690460205078,-0.2975109815597534,0.2364712953567505,0.39284440875053408,0.3626424968242645,0.08448898792266846,0.12290608882904053,-0.16482007503509522,0.8739001750946045,0.1516951322555542,-0.7376620769500732,0.3465895354747772,-0.811016321182251,0.5974760055541992,-0.65596604347229,0.4568142592906952,0.6417968273162842,0.09218752384185791,0.5695540904998779,0.8819267749786377,0.7743353843688965,-0.0753563642501831,0.5187373161315918,0.7930021286010742,-0.49227869510650637,0.22584998607635499,0.8404414653778076,-0.22267138957977296,-0.6863160133361816,0.10276710987091065,0.3079988658428192,-0.4479783773422241,0.24887573719024659,0.45877978205680849,0.7819557189941406,-0.91656494140625,0.35437747836112978,0.04657423496246338,0.8160824775695801,-0.5332186222076416,-0.997910737991333,-0.2616029977798462,-0.6597356796264648,0.8294739723205566,-0.2356792688369751,-0.8321008682250977,0.9592535495758057,0.6872348785400391,-0.3924182653427124,-0.08133327960968018,0.7455034255981445,-0.16765272617340089,-0.3135870695114136,0.6193234920501709,-0.1282862424850464,-0.5399644374847412,-0.3626929521560669,0.8892970085144043,-0.2419644594192505,0.6512925624847412,-0.9440960884094238,-0.9355225563049316,0.666694164276123,-0.20707333087921143,-0.1358863115310669,-0.08861815929412842,-0.16926324367523194,0.1121453046798706,-0.7315726280212402,0.5828857421875,-0.2759159803390503,-0.9877891540527344,0.005729794502258301,-0.09453833103179932,-0.26374661922454836,-0.5931863784790039,0.9127516746520996,-0.3354407548904419,-0.1498352289199829,0.9656786918640137,-0.8801226615905762,0.23048555850982667,-0.24925220012664796,0.5817208290100098,0.0065222978591918949,-0.38542425632476809,-0.3741849660873413,-0.32420265674591067,0.5668735504150391,-0.48114287853240969,-0.754730224609375,0.5200190544128418,0.483260840177536,0.4755561053752899,0.4271347224712372,-0.325919508934021,-0.2873488664627075,-0.1209801435470581,0.28192684054374697,0.8381266593933106,-0.6566383838653565,-0.6264622211456299,0.9342012405395508,0.6077876091003418,0.6141941547393799,0.2060633897781372,-0.9402294158935547,-0.2559701204299927,-0.7750837802886963,0.46448656916618349,0.3457038104534149,-0.5374512672424316,-0.7430934906005859,-0.14191186428070069,-0.9279191493988037,0.5998885631561279,-0.6363716125488281,-0.9905498027801514,0.5346450805664063,-0.5920939445495606,0.9283304214477539,-0.02271735668182373,0.6112091541290283,0.38002750277519228,0.017398953437805177,-0.23289287090301515,0.9607763290405273,0.6642303466796875,0.8775961399078369,-0.4915579557418823,-0.4341970682144165,-0.3330622911453247,0.40594765543937685,-0.5921447277069092,-0.8535323143005371,0.40558263659477236,-0.5102453231811523,-0.02407848834991455,-0.030026793479919435,-0.061237454414367679,0.5581254959106445,-0.6292624473571777,-0.5093533992767334,0.8061196804046631,0.42363283038139346,0.3317835032939911,0.5780456066131592,-0.405267596244812,0.44244667887687685,-0.36864936351776125,0.2666175067424774,-0.9611799716949463,-0.146170973777771,0.5203304290771484,-0.273342490196228,-0.0285874605178833,-0.6707096099853516,-0.36746227741241457]},{"fitness":0.3700392544269562,"currentPopulationID":0,"currentEntityID":22,"parentPopulationID":-1,"parentEntityID":-1,"layers":[9,15,5,1],"flattendedWeights":[0.44104453921318056,-0.5154109001159668,0.4727625548839569,-0.020249009132385255,0.32944247126579287,-0.8506486415863037,0.06085097789764404,0.2766546905040741,-0.5096397399902344,0.7157468795776367,0.24242937564849854,0.538475513458252,0.8377401828765869,0.7425453662872315,0.6632776260375977,0.3791329562664032,-0.9216234683990479,0.27708861231803896,0.20668518543243409,-0.6703989505767822,-0.9478585720062256,-0.7502832412719727,-0.6172475814819336,-0.6125566959381104,0.953040361404419,-0.583960771560669,0.9625236988067627,0.7096083164215088,0.11525356769561768,0.9654057025909424,0.2821297347545624,-0.4594978094100952,0.4016585052013397,-0.41450774669647219,-0.2651575803756714,0.29121682047843935,-0.3475838899612427,0.5532803535461426,-0.4427553415298462,-0.13250958919525147,-0.6791799068450928,0.20074594020843507,-0.8721468448638916,0.21226012706756593,0.3402416408061981,-0.481453537940979,-0.4517766237258911,0.072640061378479,-0.2785073518753052,-0.2866116762161255,-0.8123292922973633,0.778339147567749,0.7391350269317627,-0.683856725692749,-0.3938535451889038,-0.5689756870269775,0.8552520275115967,-0.5176331996917725,0.9711487293243408,0.7529675960540772,0.42968985438346865,0.5302152633666992,0.5064458847045898,-0.5731854438781738,-0.29980576038360598,0.3583998382091522,0.2558600604534149,-0.24580729007720948,0.23581993579864503,-0.8899500370025635,0.37077972292900088,-0.0018285512924194337,0.6089978218078613,0.20012056827545167,-0.04390132427215576,0.46428319811820986,0.39729997515678408,0.682546854019165,-0.4316304922103882,0.8069801330566406,0.8518390655517578,0.05360233783721924,0.11664903163909912,-0.07047641277313233,0.3368634879589081,0.43898794054985049,-0.6109623908996582,-0.23811542987823487,-0.27065789699554446,0.8159410953521729,-0.5771059989929199,0.47352883219718935,-0.040279269218444827,-0.08628261089324951,-0.15652596950531007,0.044683098793029788,0.9518828392028809,0.9865379333496094,-0.6346802711486816,0.27689215540885928,-0.9012484550476074,0.5309491157531738,-0.08376753330230713,-0.08915984630584717,0.7429752349853516,-0.18341457843780518,0.7055418491363525,0.5571627616882324,0.8143744468688965,0.8222031593322754,-0.21548855304718018,-0.5646240711212158,-0.14911162853240968,-0.020871520042419435,-0.7673282623291016,-0.6828327178955078,-0.30399763584136965,-0.3969384431838989,0.10992443561553955,0.03715407848358154,-0.35296380519866946,0.5452175140380859,-0.876448392868042,0.8056988716125488,0.5669584274291992,-0.4404956102371216,-0.3786360025405884,-0.9806654453277588,-0.18574273586273194,0.10550081729888916,-0.9158535003662109,0.04708397388458252,-0.998305082321167,0.5584499835968018,-0.8662707805633545,-0.0989159345626831,-0.8786139488220215,0.34140512347221377,0.43138787150382998,-0.3958777189254761,-0.8434226512908936,